<?xml version="1.0"?>
<opencv_storage>
<opencv_ml_ann_mlp>
  <format>3</format>
  <layer_sizes>
    140 40 54</layer_sizes>
  <activation_function>SIGMOID_SYM</activation_function>
  <f_param1>1.</f_param1>
  <f_param2>1.</f_param2>
  <min_val>-9.4999999999999996e-001</min_val>
  <max_val>9.4999999999999996e-001</max_val>
  <min_val1>-9.7999999999999998e-001</min_val1>
  <max_val1>9.7999999999999998e-001</max_val1>
  <training_params>
    <train_method>RPROP</train_method>
    <dw0>1.0000000000000001e-001</dw0>
    <dw_plus>1.2000000000000000e+000</dw_plus>
    <dw_minus>5.0000000000000000e-001</dw_minus>
    <dw_min>1.1920928955078125e-007</dw_min>
    <dw_max>50.</dw_max>
    <term_criteria>
      <epsilon>1.0000000000000000e-002</epsilon>
      <iterations>1000</iterations></term_criteria></training_params>
  <input_scale>
    7.7889884692880349e+000 -2.5682265236942516e+000
    7.1723955597099298e+000 -2.5733109402414169e+000
    6.5367395074756347e+000 -2.3724266982591367e+000
    5.2765162026747605e+000 -2.0730029995441646e+000
    3.7145408892557943e+000 -2.0294233494809415e+000
    3.4792945929588903e+000 -2.4157666321747837e+000
    3.7593989721474492e+000 -3.0234390331824210e+000
    3.7917113153458453e+000 -3.0666329394812104e+000
    5.0450807648145863e+000 -3.8496305502916601e+000
    5.7068026005964638e+000 -4.2638886605216504e+000
    5.5919141806232817e+000 -4.2522226660184161e+000
    5.2340667482233219e+000 -4.2406004960282173e+000
    5.0981954838776833e+000 -4.3614386275891608e+000
    4.8685104797160879e+000 -3.9846999050298026e+000
    4.5773898849519590e+000 -3.2586080906305663e+000
    4.8115428313423232e+000 -2.5134010039634549e+000
    4.9891715365132141e+000 -3.8057074830883730e-001
    8.2415291059812326e+000 -3.6001127881221784e-001
    1.0369132227688812e+001 -3.6625662930476721e-001
    1.0378197680094921e+001 -3.7313871240162566e-001
    5.9416220836164291e+000 -4.4904399901719714e+000
    6.0655333388466595e+000 -4.9193940813214336e+000
    5.9755276128466148e+000 -4.8448452550648460e+000
    6.1282750242499526e+000 -4.6738557862740091e+000
    6.5148291214173035e+000 -4.7246929547393064e+000
    6.7342784544650769e+000 -4.8396028700976359e+000
    6.7660339524351709e+000 -4.8764666059457777e+000
    6.5444820329177364e+000 -4.7543440212333063e+000
    5.5603105223723981e+000 -4.1362912526633639e+000
    5.4185462700868676e+000 -4.1731919210325126e+000
    5.4626912533571685e+000 -4.1469100319681411e+000
    5.5939138028167594e+000 -4.0328288975667617e+000
    5.8628506531161939e+000 -4.0648756221446725e+000
    5.9170495904207057e+000 -4.1130499093153192e+000
    5.8031569013607731e+000 -4.1285025384310030e+000
    5.6767375911059084e+000 -4.0353103263205439e+000
    5.1563628106961970e+000 -3.8353026822037846e+000
    5.0591006346079785e+000 -3.9705742927363588e+000
    5.1249645451881749e+000 -3.9475767625473797e+000
    5.3405925045067226e+000 -3.9075968717140008e+000
    3.6526675382320434e-001 -2.8004801941683338e-001
    6.2803619207871073e-002 -2.2181419562211699e-001
    1.3490591244204538e-002 -6.9183273412969093e-001
    1.0627705142110524e-002 -1.4805056132056797e+000
    1.0398361337789241e-002 -1.7984930880783458e+000
    1.1372537196737819e-002 -2.0722666979094733e+000
    1.1513450485220502e-002 -1.6863903033051812e+000
    1.5092688405178823e-002 -6.5355823998227713e-001
    6.6985968279136013e-002 -1.4727956453441279e-001
    4.2716944195765660e-001 -5.2994583204197615e-002
    3.6887828959844005e-001 -3.2207841543378196e-001
    4.9170354934753004e-002 -2.5013639042322650e-001
    1.1774576636867495e-002 -9.1294161616276737e-001
    1.0347040012768800e-002 -1.6937364808989437e+000
    1.1952079884491795e-002 -1.3817296246865434e+000
    1.1843395468014543e-002 -1.5282136993901507e+000
    1.0468562928973399e-002 -1.7758120023670390e+000
    1.2758666409985419e-002 -8.7308611730809205e-001
    5.2986685573763140e-002 -1.8524206463066414e-001
    3.6153426845385522e-001 -4.8394999697310107e-002
    3.3555921639677777e-001 -2.9540835672763510e-001
    4.0334157447479910e-002 -2.5819621475648047e-001
    1.0754966524985742e-002 -9.0942830172976186e-001
    1.0340576454732893e-002 -1.4324169035778629e+000
    1.0543455457432778e-002 -7.2512508777076468e-001
    1.0124153241770880e-002 -7.7838917276579367e-001
    1.0038330559940379e-002 -1.3170010576736668e+000
    1.1407071122392134e-002 -8.2088361964068512e-001
    4.3502397321157855e-002 -2.0259036357874166e-001
    3.5544817837600495e-001 -4.9443562607799516e-002
    3.4206543710325793e-001 -2.6896431467133025e-001
    4.1137198936647731e-002 -2.5085472037125578e-001
    1.0779389080633060e-002 -8.8673025073313716e-001
    1.0145214362054360e-002 -1.4864569541367616e+000
    1.0160075093208038e-002 -9.4560867858684261e-001
    1.0160281002504639e-002 -9.9527528440047985e-001
    1.0080518492303566e-002 -1.2726556954194288e+000
    1.1817564740680731e-002 -7.2956651220009883e-001
    4.7406514886116920e-002 -1.9261890417489866e-001
    3.5238651334720533e-001 -4.9472785585781012e-002
    4.1546063027669328e-001 -2.8343359871493623e-001
    4.6173323162517987e-002 -2.3199262331355236e-001
    1.1320727800222559e-002 -8.2942499515782397e-001
    9.8752835576169425e-003 -1.5948196576863967e+000
    1.0130789165954050e-002 -1.5496313092025769e+000
    1.1180473453988761e-002 -1.9242229305970826e+000
    1.1257976626640446e-002 -1.8554587473303357e+000
    1.2828900852519207e-002 -7.0611876463245360e-001
    5.6158884553953327e-002 -1.7041360827611926e-001
    3.7166887307238983e-001 -5.0401043716038582e-002
    5.9080694233542141e-001 -4.4179235230627922e-001
    4.5993398022570693e-002 -2.3331088450680620e-001
    1.1424920981091860e-002 -7.6984421015803517e-001
    9.8547468435630590e-003 -1.3666152351873868e+000
    1.1265065866701788e-002 -1.2302456650842175e+000
    1.0579275261329584e-002 -1.4469760940962071e+000
    1.0789470952138365e-002 -1.7993653904227107e+000
    1.2153427657362839e-002 -8.1185875451580081e-001
    5.2535985287262152e-002 -1.9215965567427817e-001
    4.3595584741212923e-001 -5.6999165341964170e-002
    4.8625928268355134e-001 -3.7063278759888096e-001
    3.9870724564358584e-002 -2.4980767273963239e-001
    1.0806785354084783e-002 -8.1854892654857581e-001
    9.6274115240057561e-003 -1.1710210545717823e+000
    1.2345710258421679e-002 -6.8088144316362298e-001
    1.0713855259246948e-002 -8.5146864993588733e-001
    1.0312993782813269e-002 -1.5127312074758850e+000
    1.1140488515126758e-002 -8.9505188230112642e-001
    4.1232959556996941e-002 -2.2500672225017779e-001
    4.4244882196436858e-001 -5.2570839288328834e-002
    4.2034878246685498e-001 -3.0216061533855365e-001
    3.6001506111862397e-002 -2.6932890004964111e-001
    1.0826193436050048e-002 -1.0074076073022598e+000
    1.0491159182379107e-002 -1.5514713231257991e+000
    1.1253259770050050e-002 -7.6856951555686359e-001
    9.6702558988070748e-003 -8.3224148528976782e-001
    1.0080110614169533e-002 -1.4699103244045837e+000
    1.1024482674564370e-002 -9.3103820712244445e-001
    4.1582285744189922e-002 -2.2962026923102127e-001
    4.2798118955870096e-001 -5.2087355897062898e-002
    5.3344986683268103e-001 -3.9172881659231901e-001
    4.2717407117655253e-002 -2.4565997751213758e-001
    1.1560592159242308e-002 -9.9309289532040146e-001
    1.0665710600561705e-002 -1.8942530525449623e+000
    1.2332425520529868e-002 -1.5041970804898022e+000
    1.2661387988810417e-002 -1.6084704874694862e+000
    9.7291146015861928e-003 -1.6045359574216360e+000
    1.2856895707441635e-002 -8.7676937555350143e-001
    5.6090097010815840e-002 -1.9275085073214643e-001
    4.0488742322766330e-001 -4.7400404101939464e-002
    7.9857210351933705e-001 -6.1784230815474661e-001
    6.0009618403725574e-002 -2.0758778123491914e-001
    1.3751727184770798e-002 -6.6983333180932081e-001
    1.1428568117359454e-002 -1.5819350535427006e+000
    1.0043685661399652e-002 -1.6587273150282946e+000
    9.8877479680291279e-003 -1.5175218001428801e+000
    1.1107584722597069e-002 -1.3666497822980344e+000
    1.5188235029541825e-002 -5.8983729393347994e-001
    6.7804568799344475e-002 -1.4799249879246118e-001
    3.9369033159823796e-001 -4.9259893348195548e-002</input_scale>
  <output_scale>
    5.2631578947368418e-001 4.9999999999999994e-001
    5.2631578947368418e-001 4.9999999999999994e-001
    5.2631578947368418e-001 4.9999999999999994e-001
    5.2631578947368418e-001 4.9999999999999994e-001
    5.2631578947368418e-001 4.9999999999999994e-001
    5.2631578947368418e-001 4.9999999999999994e-001
    5.2631578947368418e-001 4.9999999999999994e-001
    5.2631578947368418e-001 4.9999999999999994e-001
    5.2631578947368418e-001 4.9999999999999994e-001
    5.2631578947368418e-001 4.9999999999999994e-001
    5.2631578947368418e-001 4.9999999999999994e-001
    5.2631578947368418e-001 4.9999999999999994e-001
    5.2631578947368418e-001 4.9999999999999994e-001
    5.2631578947368418e-001 4.9999999999999994e-001
    5.2631578947368418e-001 4.9999999999999994e-001
    5.2631578947368418e-001 4.9999999999999994e-001
    5.2631578947368418e-001 4.9999999999999994e-001
    5.2631578947368418e-001 4.9999999999999994e-001
    5.2631578947368418e-001 4.9999999999999994e-001
    5.2631578947368418e-001 4.9999999999999994e-001
    5.2631578947368418e-001 4.9999999999999994e-001
    5.2631578947368418e-001 4.9999999999999994e-001
    5.2631578947368418e-001 4.9999999999999994e-001
    5.2631578947368418e-001 4.9999999999999994e-001
    5.2631578947368418e-001 4.9999999999999994e-001
    5.2631578947368418e-001 4.9999999999999994e-001
    5.2631578947368418e-001 4.9999999999999994e-001
    5.2631578947368418e-001 4.9999999999999994e-001
    5.2631578947368418e-001 4.9999999999999994e-001
    5.2631578947368418e-001 4.9999999999999994e-001
    5.2631578947368418e-001 4.9999999999999994e-001
    5.2631578947368418e-001 4.9999999999999994e-001
    5.2631578947368418e-001 4.9999999999999994e-001
    5.2631578947368418e-001 4.9999999999999994e-001 1. 0. 1. 0. 1. 0. 1.
    0. 1. 0. 1. 0. 1. 0. 1. 0. 1. 0. 1. 0. 1. 0. 1. 0. 1. 0. 1. 0. 1. 0.
    1. 0. 1. 0. 1. 0. 1. 0. 1. 0.</output_scale>
  <inv_output_scale>
    1.8999999999999999e+000 -9.4999999999999996e-001
    1.8999999999999999e+000 -9.4999999999999996e-001
    1.8999999999999999e+000 -9.4999999999999996e-001
    1.8999999999999999e+000 -9.4999999999999996e-001
    1.8999999999999999e+000 -9.4999999999999996e-001
    1.8999999999999999e+000 -9.4999999999999996e-001
    1.8999999999999999e+000 -9.4999999999999996e-001
    1.8999999999999999e+000 -9.4999999999999996e-001
    1.8999999999999999e+000 -9.4999999999999996e-001
    1.8999999999999999e+000 -9.4999999999999996e-001
    1.8999999999999999e+000 -9.4999999999999996e-001
    1.8999999999999999e+000 -9.4999999999999996e-001
    1.8999999999999999e+000 -9.4999999999999996e-001
    1.8999999999999999e+000 -9.4999999999999996e-001
    1.8999999999999999e+000 -9.4999999999999996e-001
    1.8999999999999999e+000 -9.4999999999999996e-001
    1.8999999999999999e+000 -9.4999999999999996e-001
    1.8999999999999999e+000 -9.4999999999999996e-001
    1.8999999999999999e+000 -9.4999999999999996e-001
    1.8999999999999999e+000 -9.4999999999999996e-001
    1.8999999999999999e+000 -9.4999999999999996e-001
    1.8999999999999999e+000 -9.4999999999999996e-001
    1.8999999999999999e+000 -9.4999999999999996e-001
    1.8999999999999999e+000 -9.4999999999999996e-001
    1.8999999999999999e+000 -9.4999999999999996e-001
    1.8999999999999999e+000 -9.4999999999999996e-001
    1.8999999999999999e+000 -9.4999999999999996e-001
    1.8999999999999999e+000 -9.4999999999999996e-001
    1.8999999999999999e+000 -9.4999999999999996e-001
    1.8999999999999999e+000 -9.4999999999999996e-001
    1.8999999999999999e+000 -9.4999999999999996e-001
    1.8999999999999999e+000 -9.4999999999999996e-001
    1.8999999999999999e+000 -9.4999999999999996e-001
    1.8999999999999999e+000 -9.4999999999999996e-001 1. 0. 1. 0. 1. 0.
    1. 0. 1. 0. 1. 0. 1. 0. 1. 0. 1. 0. 1. 0. 1. 0. 1. 0. 1. 0. 1. 0. 1.
    0. 1. 0. 1. 0. 1. 0. 1. 0. 1. 0.</inv_output_scale>
  <weights>
    <_>
      -3.0739881953471729e-002 -2.8042489091636681e-002
      3.7002388450641861e-002 7.3703142837232404e-003
      4.1564672198777771e-004 1.0027097225528180e-001
      -1.1940549567242843e-001 6.5337801006193436e-002
      -1.1564052831750164e-001 -3.4482124048719170e-002
      5.5821823802642737e-002 2.4058957173927510e-002
      -1.1038921706810502e-001 -9.8024057576918511e-002
      5.7268385703011446e-002 -5.5745597001460714e-002
      -3.8585929474797297e-002 3.4646739557450093e-003
      -1.1469867400703938e-001 -7.6278833876476035e-002
      -5.4729670708461409e-002 2.9529436827775601e-002
      -3.5279918285335735e-002 -1.4572852068889555e-001
      -1.6585436050520048e-002 6.4819408008376603e-003
      1.7477993239858075e-002 5.2147744705287227e-002
      -8.2573605999747501e-002 -5.3325265815192896e-002
      -4.0533000533389776e-002 -3.4880429460171912e-002
      6.6020093103538223e-003 1.6949953215744323e-001
      -7.4796494265025076e-002 -2.6206037211073799e-002
      -3.5334117452376593e-002 1.2130318093001531e-001
      4.4839261208187424e-002 2.8472299254980214e-002
      1.7668170018475531e-002 6.2568647743840577e-003
      8.0544590514617459e-002 4.1084344858440425e-002
      -6.7474183767655769e-003 8.2691193090936768e-002
      -2.8138964352559286e-002 6.1963648648155012e-002
      -1.1931335399046830e-001 3.9430562462225455e-002
      2.5562457526145964e-002 1.7546337562158017e-002
      -1.7139271721031138e-001 -1.3779395497373867e-001
      9.1992073119545881e-002 -2.9816230837514987e-002
      -2.5638907936944292e-002 1.9141910499422671e-002
      -1.6749883888128705e-001 -5.6541991201171128e-003
      2.0444000369323596e-002 9.3706812760936217e-002
      4.0660289335113800e-002 -9.9432284519204772e-002
      3.5184808186297115e-002 8.7943893214502314e-002
      -6.9424181846516719e-002 5.1099856671934327e-002
      -4.4089281460371964e-002 -1.7355525560571485e-002
      -4.1215082858053469e-002 7.9923428394358773e-002
      -6.0922930883647664e-003 1.7051142997301044e-001
      -1.2181887676738681e-001 -4.5385351156326983e-002
      -7.3903173544867001e-002 6.6748561164287512e-002
      8.6541897894012135e-002 -1.2964558005336514e-002
      9.3469813827619985e-002 6.7506046933493557e-003
      4.8674113970597968e-003 5.0610137251012849e-002
      -3.1880472000811448e-002 5.8744011843799245e-002
      -1.2784459877883536e-001 7.5760183065300801e-002
      -9.3124330898621835e-002 4.1146504879919756e-002
      -8.6195663475451822e-002 1.1904908500043406e-002
      -2.8585092437964962e-002 -4.5361581121590631e-002
      1.4177232169555781e-001 -3.1120155422456216e-002
      -9.5029910553038957e-003 3.3545821806449751e-002
      -8.3809056026086751e-002 2.9546892660205569e-002
      1.1442477671059047e-001 9.0392621701772161e-002
      3.7673584201931294e-002 -1.2888540932356507e-001
      9.7057825508947010e-003 -1.3742613142731663e-001
      -8.9468453816013788e-002 6.1710307456888838e-002
      3.3231196057819962e-002 2.7793163441523817e-002
      -8.9036389662598789e-002 -5.7687416104489651e-002
      5.6289768437089785e-002 1.4491833983925673e-001
      -1.7092362361653263e-001 -5.2519540363047401e-002
      -1.0700274018347128e-001 9.4322142590627656e-002
      8.7689103672527358e-002 -3.1421772103740885e-002
      1.1304436788587799e-001 -6.3625205680102340e-002
      2.6796045216029272e-002 -2.2203601497080994e-002
      2.8567534473527886e-002 3.8548778684715942e-002
      -1.8946613300794814e-002 -1.3355580852826447e-002
      -2.8372584081659765e-002 7.3510767450112660e-002
      1.5313274508928165e-001 -3.5727572941771559e-003
      7.1386060800004798e-003 -1.2812805376470131e-002
      1.4131556779625370e-001 -6.3085330702104758e-002
      1.1302401108660064e-001 -8.2272899135103980e-002
      -1.3455943392013808e-001 -6.1566130498515094e-002
      1.0381637778258314e-001 4.6067715724538279e-002
      8.8635769685635260e-002 -1.8139182827431347e-001
      -1.1177944824672019e-001 2.6770313303581261e-002
      -1.0746696074241147e-001 7.8710888145384794e-002
      -5.5629157520376310e-002 1.3980402705964293e-001
      -1.0953140090313228e-001 -8.6003418328779273e-003
      1.9621619534279742e-002 1.8094275073933702e-001
      -1.2799786532500446e-001 -4.5724682835468211e-002
      -5.2699142698036890e-002 6.4075475605759574e-002
      -1.4235903721465509e-001 1.7663035547324771e-001
      -6.8757514372340844e-002 6.6023301516236380e-002
      -1.8164964796144323e-001 -1.5616432756879389e-001
      -6.9411991027622147e-002 -2.9468772796614889e-002
      -7.0131808665826245e-002 -6.9039758559001546e-002
      -5.1160265772287390e-002 2.1653474511974610e-001
      -5.4606035119394158e-002 1.5569783458138947e-002
      -1.5728780829744510e-001 5.4716744736918739e-002
      3.2126270594834999e-002 -8.8434735876849024e-002
      2.4265374789489518e-002 -5.7206211022519757e-002
      -2.0472699837760230e-002 -1.0284269442814020e-001
      4.8222696427104368e-002 4.9456541764396664e-002
      -8.0350751701300321e-002 -3.0430807097888896e-001
      1.1897663364922850e-002 -8.1211106158880053e-002
      -6.9499441642303122e-002 6.7887393862693657e-002
      -6.4742232927336076e-003 -1.3244456431602414e-001
      -9.6492720924160794e-002 1.1585739895449132e-001
      3.5973909553074335e-002 2.2197968224627818e-001
      -5.8100253129892858e-002 -1.0468744557589392e-001
      7.2206272751642719e-003 -3.3596229328229026e-002
      -5.1449845322425150e-002 -1.5978833758237807e-002
      -9.5963268407134303e-002 1.5873395891888728e-001
      -2.4645621800188069e-001 -2.9793666764124249e-001
      -6.9365019183481189e-002 -5.4522711244614448e-002
      3.2782209907318650e-002 -8.5477128998774812e-002
      -1.5138428915519470e-002 -5.9766855314446213e-002
      8.6518727020756733e-002 -8.9873157214782090e-002
      -6.4893695416479519e-002 4.4121988622510787e-003
      9.6555564532375432e-002 -1.4360814768090638e-001
      -3.2072814090678227e-002 -9.5491933089633121e-002
      -2.9092364089803424e-002 -7.6427661941272054e-002
      2.9657244765779082e-002 5.0739962466602173e-002
      -1.0043818708120357e-001 -1.4682906398247619e-001
      7.1783849204628200e-002 -1.3631575770347037e-001
      -4.0307688217248762e-002 8.4301610010463393e-002
      -8.5727458605683125e-003 -1.1539184152587947e-001
      -6.5628099812336249e-002 1.2358819674173230e-001
      8.7075212698437456e-003 -7.7884424942238031e-002
      -1.4895930032882448e-001 -1.3172045574098232e-001
      3.0757355031191192e-002 9.2489220534632863e-002
      -1.1853643744974858e-002 -2.5331189733403731e-001
      2.1169631458217122e-001 2.4263190045486119e-001
      -2.1315184526262890e-001 -3.8885080781380166e-001
      -1.7038770480549337e-001 1.0200456482642555e-001
      -3.6449963159597626e-001 -9.1838462720727265e-002
      -1.3888135930426487e-001 -1.6543432988444534e-001
      1.5764808622460852e-001 1.0639392215837165e-001
      -1.3869501999759232e-001 -7.9827589219745670e-002
      1.2605530285211058e-001 -3.0917685321267935e-001
      -8.1884557767347797e-003 -1.0080400015391824e-001
      -1.3577291934452584e-001 -8.7087905784875935e-002
      5.7840565944260652e-002 4.5192536008359423e-002
      -1.0148874729713583e-001 -4.7591594066694476e-001
      7.6515341348711588e-002 1.3487038692905118e-001
      -1.7334285477348116e-001 2.5969561003863961e-001
      1.0697137315929725e-001 -1.8296758585956524e-001
      -3.6912063914895871e-001 8.7996391260556556e-002
      1.5609986365503934e-002 4.1303773848164506e-002
      -1.7015193178656865e-001 -1.1067188947895655e-001
      -2.5353366084553652e-001 5.2523125248063768e-002
      -1.4600071383526749e-002 3.2516305283732228e-002
      1.0313583120390221e-001 2.5557010579153894e-001
      -2.1749398577603488e-001 -2.2032038070015295e-001
      -1.1421595152544343e-001 2.1781291548636308e-001
      -1.9736872696782698e-001 2.2374901830205240e-001
      -1.9111395869178777e-001 -5.1665031402082298e-002
      2.7462511465275733e-002 9.3185263135442523e-002
      -3.8358680654747973e-001 5.5729879156491531e-002
      -7.3969439095495403e-003 -3.4034495915454538e-001
      -1.0358291295288717e-002 -2.8554777389842045e-001
      -1.4794144343642426e-001 -1.0847406386375356e-001
      4.7867129383567606e-003 5.6701938690796684e-002
      -8.7310649577242744e-002 -3.8391643335523262e-001
      -4.4477829749735659e-002 1.4454167220079558e-001
      -7.1931767956587664e-002 2.1182827824217798e-001
      1.0190154616994353e-002 6.9770732672154348e-002
      -8.6112973859558392e-002 2.0672647049322496e-001
      2.9864534358522835e-003 2.8801083542331418e-001
      -1.5932052808341027e-001 -3.3428825831206138e-001
      -1.1752349444071933e-001 9.8798934115623543e-002
      -1.1914733311277766e-002 5.3771662438573654e-002
      -1.4735941266178360e-001 4.3938693872613913e-002
      4.5378209495556925e-002 -7.0348075220048420e-002
      8.6699803834767525e-002 5.8759698579042154e-002
      7.2565948560820159e-002 8.4035138015863736e-002
      4.0260714045736938e-002 -2.5301905351947468e-001
      1.5471360693578728e-001 8.7226647233544486e-004
      1.8795459867862126e-002 -4.6554399299387192e-002
      1.2944964115164440e-001 1.2758342101471004e-001
      8.3496675106090171e-002 -2.4536569354077244e-002
      -1.7778584909831102e-001 -1.0869352937864553e-001
      -3.9704142247317274e-003 -4.4840966726613390e-002
      1.0487937936265021e-001 -3.8532708196641723e-002
      -1.3204981742076119e-002 -4.5362019668477298e-002
      -3.2453720533333612e-002 -6.8242145711122276e-002
      -4.3064599157029593e-002 -4.5647856531653229e-002
      1.8482386683231301e-002 -1.7242307486228702e-002
      1.1824550866636269e-002 9.9895055708138392e-002
      -1.2462977283115108e-001 -1.0671676118811579e-001
      3.3527328973249525e-002 -4.0296296314760803e-002
      9.5340670371484235e-002 -2.1755832481771518e-002
      1.4275093752927065e-001 -1.6729964965307220e-001
      3.6554322090648295e-001 4.0683527431572636e-002
      1.6357410598793448e-002 -2.3261880806555349e-002
      2.6487197283867775e-001 8.8725688563221078e-002
      1.1756591856810872e-001 -2.1179973995426295e-002
      8.0694025441557571e-002 2.9442295601876816e-002
      1.1877219807055679e-001 1.2713988004161086e-001
      -1.2629404874452543e-001 1.6660561645370089e-001
      -1.7195969435425333e-002 1.0894377730487394e-001
      2.2716128198192659e-001 -2.1696858087161307e-003
      8.3156450788118858e-003 -4.3743438632793862e-002
      7.2591336437756795e-002 1.5547435720310371e-001
      -1.8677403063671513e-001 -5.4146283949712652e-002
      1.6601207068331011e-001 -1.0997450452442571e-001
      -9.3559700731482592e-002 1.6775959898287254e-001
      2.5298272136989475e-001 1.4521512426700081e-001
      2.0159112880027939e-002 -2.6663852442121039e-001
      5.7299284594670451e-002 1.7868198481828884e-002
      1.3156139934911570e-001 -1.8044326955997922e-001
      2.7341713755885594e-001 2.2349318448910171e-001
      1.4454518259945906e-001 -1.8567462915554298e-001
      8.6864239480879693e-002 5.3413315427435139e-002
      7.2521975010911746e-002 -5.2262441586909757e-002
      1.9204296560425205e-001 4.8662947076656464e-002
      1.2371775941316614e-001 -2.4770775805613408e-002
      -9.7282281441685534e-002 -3.8918100658315205e-002
      2.2422618139340059e-001 7.2188923719151116e-002
      -1.3381609138248174e-001 1.8750918306998460e-001
      1.1987728231320539e-002 8.9452511249540970e-002
      1.6016424664139955e-001 6.9830845705725767e-003
      -1.3236504244067665e-001 -5.5640625551371538e-002
      2.8260530165611275e-001 1.5487192948997955e-001
      -2.3480626625793147e-001 -1.5428124408600702e-001
      1.4414216469451108e-001 -3.3299005597494136e-001
      -7.2229272433352656e-002 5.1397605465600099e-002
      1.8389849736929861e-001 8.0353907001375888e-002
      1.7342109040305229e-002 -2.7802141360196891e-001
      -5.7406772882267282e-002 4.3579088674484436e-002
      1.4410440353770571e-001 -1.3430051778850902e-001
      1.3383551915840061e-001 -3.9054243538434300e-002
      -9.1672315347723660e-002 -2.0375268901209193e-001
      -1.8624103246456355e-002 8.1702747965255312e-002
      -1.5526461670618533e-001 -1.2160850498798155e-001
      2.7224085412379817e-001 8.4854986651288489e-002
      -1.6645594658610454e-003 3.0961474797871510e-003
      1.2543154028142825e-001 -9.1015539055800398e-002
      9.3521918381452046e-002 -6.3029281660368225e-002
      -1.5957390536069102e-001 1.8743601327606191e-001
      3.5828327074063149e-001 1.0823287658145149e-001
      -1.0203034331137391e-001 6.1742284596174299e-002
      -8.1844894800465362e-002 -6.5143691228391143e-002
      1.1291011759925676e-001 1.3250437640227380e-001
      5.8440363199074336e-002 6.3630714498777372e-002
      2.6776288989840535e-002 -1.1620637203337929e-001
      -4.3290581201693781e-002 4.6021598328480511e-002
      -2.7115769790095494e-002 1.6746713014322340e-001
      1.5408901945028801e-002 -2.4322428402184092e-002
      9.2405014452613884e-002 -9.4503353515575702e-003
      2.0503220717074042e-002 -2.0508665878211621e-001
      1.3592410667142996e-001 1.0175992208345688e-001
      1.4910852693152263e-002 1.2876197003656051e-001
      -8.6502369806545756e-002 1.3545864757800255e-001
      -2.4760901560671636e-001 -3.8548209962568310e-002
      8.0719625019581298e-002 1.0215100921176619e-001
      2.0004754347525947e-001 -2.0935425504594057e-001
      1.7865383258171272e-001 1.5071555271970011e-002
      -8.4127351799209216e-002 -8.6587217062142119e-002
      -2.5371750863190295e-001 6.7370302481838701e-002
      3.0902304097913436e-002 9.4907017007396038e-002
      -2.5727909396260747e-002 1.4299691865126540e-001
      -1.4787844114708204e-001 5.5154570288352009e-002
      -3.9492227343180052e-002 1.8541673541104121e-002
      8.5591715075740815e-002 -1.7943438675422227e-001
      -2.9505947479996952e-001 -9.7036367072994067e-002
      -2.0816035009307815e-001 -6.1766183617251988e-002
      -1.8145415237500021e-002 1.7818065119133178e-001
      -4.5515756371562726e-003 1.6623476491419084e-001
      5.0801838221858811e-002 -2.2298668839245586e-001
      1.0132397941344033e-001 -1.2776730781566906e-001
      1.0841080262082403e-001 -1.3823839564848564e-001
      2.1299568094679702e-001 1.1378920891786536e-001
      -1.0233394483618119e-003 1.3018669153422089e-002
      -3.2417097676003509e-001 5.6738502345803458e-002
      -9.4324256114388202e-002 -8.0378434236661397e-002
      1.6866349594602018e-001 -9.2870641530581638e-002
      1.3752558898068246e-001 1.0095673205090654e-001
      -2.7174004788145172e-002 -8.3931063507496198e-002
      3.9783791090332622e-002 2.5718761064712995e-002
      3.6981405322208838e-002 4.9378114226371769e-002
      1.8546087822789245e-001 2.3585345120615633e-001
      -9.0315874048291458e-002 6.2420306884103841e-002
      -2.4015368699846279e-001 -1.0035388592858428e-001
      1.0017619280412859e-001 -1.2649502830752729e-001
      -1.4870921218947236e-001 -1.5715585606284363e-001
      1.7019548601975302e-002 1.1151451957055022e-001
      -2.3101444730911302e-002 2.2129729976166401e-001
      1.9388161194145503e-002 -5.7179104077947573e-002
      -3.4649314068760574e-002 -1.8440853996739168e-001
      -3.3871172899048625e-002 -1.6847540858463675e-001
      -3.6280678616255571e-002 4.2590945934365181e-002
      -8.9412405002756740e-002 9.5857449693754048e-003
      -4.3184999891099661e-002 1.4940269793466998e-001
      -2.2193849338161376e-001 -7.3022404058776830e-002
      2.0753066770088625e-002 -8.5734454458541748e-002
      1.4692287699331691e-001 -1.4085007485627724e-001
      9.7346905030687783e-002 -4.7125942268318122e-002
      -2.0514197530614408e-002 -4.5182928584466368e-003
      -8.3330422370144736e-002 9.4316303145424052e-002
      2.3556297872981663e-001 5.1884750358360258e-002
      1.3488504665918399e-001 1.8367104801352144e-001
      1.3983477351921909e-002 6.1038288500299333e-002
      -1.3932164839580560e-001 9.9304864549824137e-002
      1.0202609082133926e-001 -1.1681851674880837e-001
      9.2396418731799906e-002 -8.0706751566010621e-002
      -1.0326906992364097e-002 -8.1341860141430355e-002
      -3.3778121953401690e-003 1.1631966127893187e-001
      8.8788791249895249e-003 -1.7473505075510776e-001
      -5.1454713267111943e-002 -1.0846477947628957e-001
      -4.1905800463572909e-002 -2.4153468716864485e-001
      3.4216909072137916e-004 5.4236852114345244e-002
      -4.0733685319615992e-002 -1.9086960466267849e-001
      9.1730638546715329e-002 1.6788846800764395e-001
      -2.0606605097449088e-001 3.5366022751784382e-002
      1.9929510694753398e-002 -2.4084528504248612e-002
      5.0756883278336294e-002 2.8958331158990464e-002
      -8.9272060654023558e-002 -2.0394380508994248e-001
      -1.8413374807424632e-001 -3.2829456042532103e-002
      -5.5108539524093253e-002 -4.8949093254042834e-002
      2.5102174607649225e-001 1.6147541523667524e-002
      -9.8027455456699414e-003 2.4052720558431349e-002
      2.0128397911148035e-002 7.5529690326079882e-002
      8.1526074570842891e-002 -4.3799801857177877e-002
      7.3291012742121131e-002 -2.9699479603208297e-002
      5.3559733116948394e-002 9.1407578858915164e-002
      5.9423223117439798e-002 -5.0664438708016353e-002
      8.9096989368481164e-002 1.3039347351684605e-002
      8.2078551817868384e-002 -6.8505673043427792e-002
      -8.8309371482931678e-002 -1.4033678228791632e-001
      -9.0408683531346290e-002 -2.9370995902443377e-002
      7.6141223303816855e-002 -1.1897283490647124e-001
      2.5634796649519322e-002 3.6123570475674321e-001
      -3.9303340432512525e-002 4.3917452487792899e-002
      2.2742081861630999e-003 1.8025690977225059e-001
      -1.5861474011339152e-001 -3.3459647762299033e-001
      -1.0087165698056158e-001 1.3107707205553318e-001
      1.2276532767758729e-001 -2.9188495808556827e-002
      -1.0096637322401079e-001 -9.9775364104666850e-002
      5.1594561106464654e-001 -1.3125859095283801e-001
      -4.4481690506476865e-002 -6.7304257092903430e-001
      -1.5868903017073796e-001 -1.1938946863973617e-001
      5.2472143606967347e-001 3.3355421821587639e-001
      -1.6172366295317647e-001 -8.1457049515109833e-002
      -1.8535534686092775e-001 -5.4798497690078318e-001
      -1.0293700767245101e-001 4.2747247101745114e-002
      4.8611374696664855e-001 -1.9850190927786946e-003
      -3.2944638059191816e-002 2.2200621782691346e-001
      -3.6761559838375890e-001 1.2618585405813454e-001
      1.0246712317363216e-001 3.1023757185697321e-002
      8.4715611801650631e-002 7.5833680327901309e-003
      -4.6505801041447015e-001 -2.9835987830725375e-001
      -5.8264302251295738e-002 -4.1793193258189365e-002
      -1.1007813981269531e-001 -9.3092389447023138e-002
      1.6671782833724300e-003 1.0831184360618046e-001
      -1.6638737375929416e-001 -3.7681847281520336e-001
      -9.9841268776445127e-002 1.2963208121737360e-001
      1.1361350963018556e-001 -3.1430767774266823e-002
      -1.4133882842790135e-001 -9.1932827507623258e-002
      2.7792205859106206e-001 -9.7652263200660672e-002
      -2.2198382801564268e-001 -9.1617693366071021e-002
      -3.7960904498156797e-002 -1.2568916644267150e-001
      3.3270879469477760e-001 2.8802391812341949e-001
      -1.7777236707144256e-001 -9.7236266500743185e-002
      -1.6496300758680493e-001 -3.3497954334918389e-001
      -1.8131757028092552e-001 5.8484479333393215e-002
      4.3120200675830028e-001 1.9053514020924374e-002
      -1.0916067919160340e-002 2.6819361973464441e-002
      -3.5152926951778629e-001 7.5707036220370713e-002
      4.2005759012592958e-002 -6.0995031715398933e-002
      1.0217945570560540e-001 -1.3125935114057316e-002
      -3.7030347347659798e-001 -3.1421922108901895e-001
      6.1135464768124842e-002 1.1177574091183456e-001
      -1.2997765269786732e-001 6.9870516002839791e-002
      4.5034100713823196e-002 1.7492758368287528e-001
      -2.4636921710931445e-001 -3.3187556043878119e-001
      -1.2322016110135189e-001 1.4263503066173788e-001
      1.1742225439587706e-001 -3.6701247289222777e-002
      2.5873574132635350e-002 -9.0808923078721696e-002
      3.0976030762783380e-001 -1.1703769778311467e-001
      -2.6788570878257373e-001 -5.8321804617307182e-002
      -1.7972479694446136e-001 -1.1212616349868906e-001
      3.1953724216813800e-001 3.8392424549201265e-001
      -1.7283988693885927e-001 -2.9990825710432861e-001
      -1.8344582597316827e-001 -3.8400791650075389e-001
      -1.9821596976705433e-001 9.4139376768593366e-002
      2.3379592235890620e-001 5.5792730349457968e-002
      -1.3729144520499853e-001 -8.0922245122413874e-002
      -3.6035091317193402e-001 1.2410355747474465e-001
      9.1795013516590543e-002 -7.6024895732618211e-002
      4.8250716558120771e-002 9.8755531190100526e-002
      -3.3485887259384123e-001 -3.0098834709477151e-001
      5.6709727291471668e-002 3.2914138620313876e-001
      -1.0610386211999789e-001 2.5636742473836205e-001
      3.5850232648758272e-002 1.8028390997574115e-001
      -2.2570023831465363e-001 -3.7836868857021339e-001
      -1.2302890781854024e-001 1.2971882336213558e-001
      8.5282009098626280e-002 -3.0252415017121038e-002
      -1.4719043572855772e-001 -8.1724347512118878e-002
      3.1101509248890286e-001 -1.2562175996243380e-001
      -1.1404209201696146e-001 -3.0861840648351502e-001
      -1.5189803952682632e-001 -1.0137024297158109e-001
      3.2751841594624848e-001 4.7840928787735509e-001
      -1.7352854641854418e-001 -3.2020282114657833e-001
      -1.6658110411432109e-001 -3.4754802212733088e-001
      -1.9414365778219944e-001 3.2944180546708321e-002
      2.9714932288137574e-001 6.5758300812666023e-002
      -1.4444251633563229e-001 2.7550868339654373e-002
      -3.4878940633923505e-001 1.1631528014123470e-001
      6.9901255387267283e-002 -7.3340827600648487e-002
      3.1307190749952939e-002 -4.2963481338032499e-003
      -5.4060814823000236e-001 -3.1605564787421753e-001
      -2.4481863991210803e-001 -2.4972481151888815e-001
      -6.2605146084223837e-002 -2.1217841548696323e-001
      1.3754329940931379e-001 -4.4898994150186847e-002
      2.1773624406214556e-001 -1.3871895500600473e-001
      2.2862109964271651e-001 -1.2199664938292605e-001
      1.7718468509220286e-001 -1.2639678714813157e-001
      -2.0478385512190642e-002 1.3488424187065692e-001
      -9.8323239273063703e-002 1.7594323558958244e-001
      2.3781252829724334e-001 -4.4342893558366910e-002
      -2.1360948203326249e-002 -2.1480173457931122e-002
      -1.5105239063617867e-002 4.3560499680742985e-003
      2.5940806912930392e-001 2.4093140277441413e-002
      -3.7125115287017375e-002 1.4194673401020713e-001
      1.8244469000143933e-003 -1.8239314372158152e-001
      -1.9754142664784236e-001 -1.5869071749697514e-001
      5.0402843867706333e-002 7.9447188935997448e-002
      3.3249208113623328e-002 1.4623298001991952e-002
      1.9775972311104373e-001 1.0898289734758168e-001
      8.0458982675729283e-003 -2.8935799926321126e-001
      3.6469337763097034e-002 -2.5490856286241013e-002
      -1.7881231097251975e-002 -3.6269480398600257e-001
      1.5561104474690846e-001 -4.5821440162350353e-002
      1.1066173953854046e-001 -1.5708182976320612e-002
      3.5006567122917864e-001 -1.2572331832440958e-001
      2.2767589523881629e-001 9.7058218792358316e-003
      -6.0193623525957321e-002 -1.3866427569540959e-001
      -3.2758339692149939e-002 1.2999676174265096e-001
      -5.1526476422285965e-003 1.5103381447375769e-001
      3.0852363660319869e-002 1.0753529819014115e-001
      9.7853691707942295e-002 -8.0861650147029285e-002
      -3.6932327616921112e-002 -1.4768088103951429e-002
      2.2159947547248912e-001 9.3804138242797805e-002
      -1.0848272036745886e-001 -1.6928354365540414e-002
      -5.6249797594208784e-002 -1.9186491875686981e-001
      -1.5349930361202713e-001 -5.3113450750133732e-002
      8.1103666550705944e-002 -1.4708881988811594e-003
      6.5424845620111791e-002 -1.0113841997220606e-001
      4.6516936034923115e-002 7.9347873449956988e-002
      3.6048070480530657e-003 -1.3404806850873460e-001
      1.1599974811998995e-001 4.1912780464305716e-002
      -8.3195919510332603e-002 -1.0677380586707097e-001
      6.3259996967392332e-002 8.5766572275811831e-002
      1.2967982304666698e-001 -6.8733986635857738e-002
      2.1900017650613993e-001 -1.0458930818256619e-001
      1.4392146747711587e-001 7.0900075555566905e-002
      3.5266483890542544e-002 3.7331644435148153e-003
      7.1557653568897995e-003 2.5981178887976863e-002
      1.1814847648734498e-002 8.0661210852208454e-002
      5.7390206042226520e-002 5.5095785744121994e-002
      1.0270588026497758e-001 7.0598938511265683e-002
      6.4459850615482608e-002 -2.4815643880662010e-002
      -2.4801180744519060e-002 1.1271924756105993e-001
      -4.2205869776495625e-002 -4.9477692338859888e-002
      -1.1968322698598705e-001 -1.5213182010672907e-001
      7.5621326945088482e-002 8.0905577733755257e-002
      6.0385640921077829e-003 3.9774488493370171e-003
      -6.4719345000482112e-002 1.9028547713202042e-004
      7.1406662384806585e-002 1.5953344038636497e-001
      -2.6081291391789941e-003 -4.1709663881678141e-002
      -1.2404348088299372e-001 4.0015509112752055e-002
      5.8077316525707641e-002 -4.1572704730363903e-002
      -3.1538544059559998e-002 6.6268686304606236e-002
      -3.2317438424780291e-002 3.3625864072317935e-002
      -4.0132121053121889e-002 7.9832321907769479e-003
      1.3557850400001045e-001 -5.1033829929149649e-002
      2.9556569930176847e-002 6.7079340783625152e-002
      2.4028280798205506e-001 5.1670589735709045e-002
      -1.3343462762648944e-001 5.8562901435199620e-002
      -3.5801546228885942e-002 -4.2218906903733738e-003
      1.2217028418709924e-001 1.1193904644567879e-001
      -4.6959453965146156e-002 -1.8188271797334463e-001
      -1.7082999485750472e-001 1.0172456436131741e-001
      3.8325823526594603e-002 -7.1281239894937468e-002
      -1.1863845438611950e-001 -1.7569144980179532e-001
      2.3994146009243919e-002 1.2862873198874122e-001
      -2.7275338840748353e-002 -3.6398992950368150e-002
      -5.9810204783135958e-002 -1.8885600823071585e-006
      -3.0344631441135590e-002 -3.7463288392045671e-002
      -8.3813404698710500e-002 4.2943658316081906e-002
      -1.7689003796760167e-001 -5.0869905304028573e-002
      -1.6540574957402295e-002 1.3062242311251007e-001
      9.4763099371370715e-002 3.0649750933205669e-002
      7.5449992308580655e-002 -8.6353463867380922e-002
      8.3268590057219580e-002 1.2089244646232011e-002
      1.2776528663473499e-001 -6.7843966600434541e-002
      -3.3544262963253545e-002 -7.4694336462200455e-003
      1.0429245904042353e-001 7.7936955165923805e-002
      -6.4872796624715789e-002 4.7749896519222880e-002
      -9.4019980574727338e-002 1.2514762628397277e-001
      9.6849010766775032e-002 1.5414928277254053e-001
      -3.6948204873316071e-002 -5.6520428971563071e-002
      -3.3505757702700950e-002 1.7247363014634537e-001
      4.8156030403705911e-002 1.6097540537017171e-002
      -2.5997968339790969e-002 -5.6889106570979862e-002
      1.0176418198225412e-001 8.0317449854785422e-002
      6.1579084883801892e-002 -1.5969621385725427e-001
      2.5862823570250760e-002 -7.4961594821591440e-002
      -4.5425872859155739e-002 6.1059750836491532e-002
      -1.0910754065030497e-001 7.5135677850772964e-002
      -3.2475503026821610e-002 -4.5063785484910066e-002
      -2.2902607027848614e-002 6.6722115356927666e-002
      9.2169047198698232e-003 -1.4679863965558050e-003
      1.2948496146908692e-001 -1.1006180615338389e-001
      -5.2289911741723476e-002 -4.8885436648234977e-002
      1.1829748819507345e-002 3.9532627865424205e-002
      -4.3183731916735364e-002 -4.6008518352920941e-002
      7.1343206078873470e-002 -2.3278277619722162e-002
      -3.0902778544930731e-002 1.1757617542770405e-002
      -6.0152891216917533e-002 -3.1392631536067757e-002
      7.5717277033896691e-002 1.8020958332587539e-001
      -6.1046578820895682e-002 -3.3113125638977510e-002
      -5.4288281464836642e-002 7.3451333211105946e-002
      1.0619898027867278e-001 9.3100764088577384e-002
      5.3892640147918648e-002 6.7808214365156480e-002
      1.1038650391851122e-001 -4.6302720774140192e-003
      -1.3718689010890133e-002 -1.8964646615921379e-001
      -3.6269803793834307e-002 -4.8419771826858853e-002
      -8.0606238576432954e-002 5.1229003326278999e-002
      -4.4982787796202024e-002 7.5578068063148554e-002
      -5.2958940880315164e-002 -8.8769253407546378e-002
      3.6827726096006916e-002 -4.7687991984232868e-002
      -3.4619797782331273e-003 -5.2473656516627528e-003
      4.6102803103844819e-002 -1.3196877686998735e-002
      -1.3018919928943434e-001 -7.9889293277583401e-003
      -4.9586939961139317e-002 3.1496234839053658e-002
      -3.3914800455404126e-002 -1.4139441874147229e-002
      -4.2115428623128552e-002 -7.8366079046902501e-002
      1.0191891320947001e-001 -1.0959162633311498e-001
      1.1281462586936665e-001 -5.6667060077114917e-002
      2.2931732678205703e-002 4.5977500498823633e-002
      -2.1776919375516828e-002 -5.5641429563091614e-002
      -4.5213462924771240e-003 -4.0980749536742932e-002
      8.8703676246369208e-003 5.9848456254943630e-002
      -5.6919919591113680e-003 1.8079478828763029e-001
      1.4020860426933483e-002 4.8796366699785668e-002
      -4.7106270225642247e-002 -1.1129186348834380e-001
      1.5179844563349011e-002 -6.3416171753186937e-002
      -6.1753125863520136e-002 6.3319471114510403e-002
      -4.6492300765219277e-002 9.5443215698375106e-002
      4.2379849261161381e-002 4.7522528840361920e-004
      7.3897317209438207e-002 2.0793369848398312e-002
      9.6915878448210369e-002 2.0655499463663348e-002
      -3.0268054816685822e-002 -2.2281001964468885e-002
      -1.1042454457178471e-002 -2.1677517687725509e-002
      -8.8178596296031475e-002 -2.5889978927651113e-002
      4.3323847409268833e-002 1.2825600678424883e-002
      8.6526028185587120e-002 -1.6982167967765763e-002
      6.1912658250767909e-002 -6.5118097112000090e-002
      -8.4545351257180240e-002 -2.5415397326426820e-003
      -1.3525714384889800e-001 -7.8038368081881679e-002
      4.3203187548182920e-002 7.5251498300933486e-002
      1.0047766868177209e-002 -5.2736162236467913e-003
      -1.3113390087549520e-001 -3.4674997938276379e-002
      1.2571349506701737e-002 -2.4578997011658603e-002
      1.0577772979261938e-002 6.5866772293352777e-002
      7.0983932786636075e-002 6.8291829080882063e-002
      -5.9611913533368907e-002 -1.1253371128112842e-001
      -2.3972371686868006e-002 -8.9043375230202348e-003
      6.8308185204146651e-002 2.4399505210577627e-002
      3.7369579733620102e-002 -2.0973940743306198e-002
      7.8758100665563741e-002 5.8605607806248114e-002
      1.9243498887810625e-002 -2.0756160189262043e-002
      1.3221290292187107e-001 8.6934278632131903e-003
      -2.2646505100773359e-002 1.6857668220829156e-001
      -7.1310974665651089e-002 -1.2399244823227185e-001
      7.1574489108813255e-002 -6.6593362316114818e-003
      4.3823309835392080e-002 -7.6120838033806662e-002
      7.5466916021713321e-002 -9.9955353260315054e-003
      -2.4738039647524196e-001 2.6478222975839131e-002
      -2.0071364076903023e-001 -8.1706277418693365e-002
      1.8992154359396929e-001 3.0696701519548172e-002
      1.3890245317801572e-002 -1.6673905357674070e-002
      -8.4836831852320299e-002 -1.5346588667225003e-001
      -2.3943302190338470e-001 -1.3327306216881225e-002
      -4.4369836660377859e-002 3.1735078770470165e-001
      6.2947730534234553e-002 5.3262769070646893e-002
      1.5823342618892025e-002 1.0427733318487571e-001
      2.0555347570014797e-002 6.3371264028205976e-002
      -1.2324885859927064e-002 -7.9517087429034211e-002
      -8.3465779652317201e-003 -5.3717250099703746e-002
      6.1529489226245453e-002 5.8741263704013648e-002
      -3.0711813827315162e-002 -7.9739584300338395e-002
      -6.5493978208017833e-002 1.0473760116347121e-001
      -1.2325132201660977e-001 2.0116483694451781e-001
      -1.1114703398629017e-001 2.8072704956216280e-002
      5.3856283499610184e-002 4.1554614343009791e-002
      5.1241480206859730e-002 -1.0629376039562431e-001
      7.1211218231435919e-002 -1.4568677889883226e-002
      -2.5443887967158951e-001 -7.0593853916904634e-002
      -1.1780525843677228e-001 -1.0892077292132125e-001
      1.1917932016132381e-001 -3.2319451239327841e-002
      -4.2682610152194343e-002 -7.0284491546283384e-002
      1.4788420035664177e-002 3.1717047946357588e-002
      -4.4103593135887201e-002 2.3064357769919056e-002
      -1.9752285744514632e-002 3.5954792298618010e-001
      3.0549802376226856e-002 5.5215306230529851e-002
      3.8093504914021289e-002 1.2424306869499339e-001
      -2.4680517556093552e-002 -3.5764855942727387e-002
      4.8864342283453668e-002 6.2604220629910570e-002
      -1.4239652566468365e-002 -5.5413944477533734e-002
      1.0736560451853641e-001 7.4076138613390269e-002
      -3.7439639595675839e-002 -1.4287838223528396e-002
      -7.0423666227651241e-002 9.6064430599350520e-002
      -1.1509124636762583e-002 1.4576665256571450e-001
      -1.6671371008911731e-001 3.6018710725064275e-002
      -9.5166503437015521e-002 5.7573424089964270e-002
      3.3538381444905042e-002 -4.8424129816203920e-002
      7.0400630299734659e-002 -9.7159993104512475e-003
      -1.7396032925849700e-001 -1.1616845513755546e-001
      -1.9041119172484211e-001 -1.2185002995362802e-001
      6.6232471564368234e-002 -1.8543393798206683e-002
      1.0163021452339813e-001 -3.4071197209282665e-002
      6.6493075667997156e-002 2.9969459651398397e-002
      1.7834047555547534e-002 2.2262195994236227e-002
      -5.6728646941676597e-003 1.6119216805965603e-001
      -5.9497690037753730e-003 3.5178076045119300e-002
      2.7101873338742470e-002 4.4183213830837814e-002
      -1.5267951567643609e-001 -7.4226336121194350e-002
      -2.8902180238446717e-002 1.3253943223104445e-001
      -2.8218466820968353e-002 -6.1428539895653923e-002
      7.8795233700099720e-002 1.2541645458454287e-001
      -5.5700904229126075e-002 3.5210750441281219e-002
      -7.1152102927084945e-002 1.0008022593463531e-001
      -3.0131242118639566e-002 8.9236334644427678e-002
      -5.6641574430250516e-002 4.0489398844062018e-002
      -2.5085511662077172e-002 9.8725709410368359e-002
      -3.9285727480812827e-002 -9.2625236487817366e-003
      -4.0190465616691970e-002 1.5179231302100804e-002
      6.9027648387215451e-002 -3.9682567949958801e-002
      -8.9201105635090747e-002 2.8807102516676064e-002
      -6.5941523936854221e-002 -4.0747694169299443e-002
      -5.8335060899886021e-002 3.7466473329411096e-002
      8.5352480373891551e-002 5.6795676034643146e-002
      -5.2512893117050999e-002 -6.4548671006067898e-002
      -2.3262045845641822e-002 3.5640588514780247e-002
      -5.3018367544221873e-002 -5.1234360372646622e-003
      1.7442236302769466e-002 7.3132473951568799e-002
      -8.2469072194216550e-002 -4.7341676290904106e-002
      -9.2682506693276573e-002 2.9482473165747907e-002
      2.5954070266347516e-002 2.1851001310117739e-002
      -2.6660299695625798e-002 7.6945042941953007e-002
      -5.3095531487688225e-002 3.4322232774919352e-002
      -8.5162872921270200e-002 -1.0939843709157198e-002
      -8.7487610339992611e-002 2.6917915545104223e-002
      4.2551425022089723e-002 8.0442515606494264e-002
      -6.2396203152203046e-002 6.7036221699170825e-002
      3.3869055280938892e-002 6.9089820776548586e-002
      -2.7920543101592310e-002 -2.9088106532459863e-002
      5.4644128735033382e-002 -1.3524393082064950e-003
      5.8206003208324107e-002 7.9982282043573869e-002
      -9.4570603331187273e-004 -7.7644327440026070e-002
      -3.6654385515928478e-002 1.0017588287057963e-002
      5.2387432696634921e-002 5.0064011691538804e-002
      -4.9054251924075067e-002 7.0312738577150438e-002
      1.3569065308243380e-001 1.0080694304739558e-002
      -5.8065385310189357e-002 -6.6295856367810074e-002
      1.7108138103288591e-002 4.8259493700417030e-002
      5.0203648058508507e-002 -5.8878037066716861e-003
      -1.3126094772441926e-001 1.0396002125920997e-001
      2.4658735705767761e-002 4.8265879805489541e-002
      8.5193339578803692e-002 4.7908625776439021e-002
      6.0719378164926577e-002 -4.3662266584682183e-002
      -9.8500036051722403e-002 -1.4631483383086976e-002
      -8.8728198756403406e-002 -7.2670029434084354e-003
      -7.7497049975510839e-003 5.3068674755865818e-002
      8.7418043968589751e-003 9.3642826479100272e-002
      2.7470064615715176e-002 7.3462603911568586e-002
      8.7614795645369475e-002 -6.0729158040423364e-002
      1.4229555901658350e-002 5.3894250300204657e-002
      1.2734210858271360e-002 8.5974262470418047e-002
      1.0470578791442592e-001 3.3890952908876205e-002
      -9.3372438418307238e-002 -3.4816311777708615e-002
      2.9817815925196500e-002 4.3651620770251781e-002
      -3.7200933776329541e-002 1.3854849098214364e-001
      1.4941677429255523e-001 -6.1192938136331407e-002
      -2.9992873851500419e-002 1.3564156252747026e-002
      -7.1929988857924024e-002 5.5102637387834108e-002
      5.1767486066111923e-002 -6.1250794194908503e-002
      -1.6489096854825053e-002 7.4455885795124743e-002
      -1.5902202773644247e-001 3.2879435300394250e-002
      4.6541781429382846e-002 1.5457262829442545e-001
      -4.4706557458706803e-002 4.4999564669397057e-002
      -7.6158469423970171e-002 -1.1200783712887553e-001
      -7.3858130303065608e-002 1.0751236974551456e-001
      -1.4860249377096527e-001 2.2306736552101705e-002
      -9.2162222339919206e-002 3.3671886534396442e-002
      -3.9945924771230976e-002 -7.8402128835152254e-002
      9.4083372106148713e-002 -1.3610788324854511e-001
      4.2599585502048738e-002 7.2762198622135468e-002
      -6.4168388644444671e-002 1.2728590864294503e-001
      8.7883076848433661e-002 3.1679703590876657e-002
      -7.4802547782470433e-002 -9.7908396782960455e-002
      1.3728105597025227e-002 -2.5322464169315284e-001
      -2.0110174240193925e-002 1.6593363287398638e-001
      2.1160130815980666e-001 -6.9858634153157254e-002
      -3.7307193795397584e-002 9.7725414166040608e-002
      -1.8525368273299890e-002 2.2794359082027774e-002
      8.3854665139691364e-002 -3.2305961845500424e-003
      9.8741401949080498e-003 2.7209147273269361e-002
      -1.6249172594812250e-001 -3.2636681475738290e-002
      1.3778344339856403e-002 2.2718420924008284e-001
      -1.2877230973639198e-001 -3.9942546239076018e-002
      -9.2805260671749018e-002 1.8174373309455063e-002
      -5.8474881795838839e-002 5.9677411724349524e-002
      -1.1236809502218392e-001 4.3100276284129352e-002
      -8.1018578949201295e-002 7.9407102966963031e-003
      -3.1765819339807505e-001 -6.6397964651326039e-002
      5.2979872541146278e-002 -9.9196065095731770e-002
      1.3973065752103418e-002 -1.1218030939910027e-001
      -1.6597035232706718e-002 5.3989907334107690e-002
      5.2828712146883040e-002 1.1776452359674786e-001
      -7.9937708643294206e-002 -9.4524319165386214e-002
      1.0753277275706009e-001 -6.7807474624084638e-002
      3.8238998547005104e-002 1.7461107038164400e-001
      1.8288654040248059e-001 -1.5178896385451243e-001
      -8.5506008306850206e-002 9.4222748169677337e-002
      -5.1719693970385006e-002 5.5088166220660780e-003
      3.2731727816330596e-002 -7.9261323331628469e-002
      1.0695424590594201e-002 -4.0563057287921644e-002
      -1.3759067906210218e-001 -1.5653990214496477e-001
      1.1759501647996469e-001 1.0286731272135688e-001
      -1.3887051111759952e-001 5.1760975081917258e-003
      -2.7818825437673583e-001 -6.9120036721516176e-002
      -1.2010927589636958e-001 1.6842571524615085e-002
      -1.9162938981132804e-002 -3.8023111485866443e-002
      5.5408791936143953e-002 1.8723279918297371e-002
      -6.9651974692078525e-002 -6.4107540239613223e-002
      -1.1223247156264671e-001 -9.3988139137605606e-002
      -3.9399295496284778e-002 -7.5197605541461571e-002
      -9.4446459946226982e-003 2.3494003342901248e-002
      -5.3459045478210412e-002 2.6946485231465280e-002
      -1.3315985107654524e-001 -1.5008222294626805e-001
      9.7539842042846686e-002 4.8971804971368001e-002
      5.3542318481491082e-002 1.6194147037813345e-001
      -1.3181631109664665e-002 -4.2531095091950955e-003
      -1.0058234110738495e-001 -4.2921702170020427e-002
      -9.6047878571294459e-002 1.5905795167347241e-002
      -1.0330053140939971e-001 -2.2258743722472771e-001
      -9.9380712816699700e-003 7.3055569373983414e-002
      -2.7394289992125967e-002 5.6963186528725257e-002
      2.1110317325497821e-001 9.3268345420217919e-002
      3.5655798050651792e-003 8.4469834724430093e-002
      -1.1979428416549433e-001 6.7788314260940077e-002
      -1.1633218578981326e-001 -8.5836160235301953e-002
      -1.6876936171619805e-001 1.7698709541925872e-001
      -1.6523073685593045e-001 3.6966516600120444e-002
      -7.9695647805072545e-002 -1.0066846739213678e-001
      1.5480160129268616e-001 -1.4820013705654481e-001
      -9.3956836995234744e-002 -2.8020154957375859e-001
      -1.1202839369387300e-001 -8.8267171303803016e-002
      2.2618671022472808e-001 1.5755629716651121e-001
      -1.3902954671169501e-001 -1.2185054673547448e-001
      4.8744746156720510e-002 -2.9275630916887663e-001
      -1.8185374829421220e-002 2.1014060307414728e-001
      8.9305887144700669e-002 9.2446941468372221e-002
      -1.2038118813716504e-001 1.0203732491828831e-001
      -1.4857036483520919e-001 7.8429842923737197e-002
      -1.7147941048805820e-001 -1.4359837767329003e-001
      4.7324919148385637e-002 7.0074393608243080e-002
      -1.6358744465967998e-001 -9.4642051552577780e-002
      1.9996011587044837e-001 -2.0519037804824594e-001
      3.6374240835642738e-002 2.3440280258582294e-001
      -1.3442317413784458e-001 1.6747328567638162e-001
      -1.3123026687730263e-001 -9.7740784311426437e-002
      -1.1368610966886326e-001 2.0998632048752988e-001
      -2.1136053679319933e-001 4.4175768770060693e-002
      -5.1123481248948582e-002 -6.0098971736312623e-002
      1.4815288572027058e-001 -9.2955755543074073e-002
      -1.9973970329651256e-001 -9.9130199774516592e-002
      1.1297910188489634e-001 -4.4803085406110034e-002
      1.4969980504398492e-001 1.3313724614987452e-001
      -1.2777638450030931e-001 7.2295511672706314e-002
      4.5562996919885704e-002 -2.8585924000927521e-001
      3.8712700916526462e-002 1.0382478719189409e-001
      9.1056684338131258e-002 -4.5654033892653788e-002
      -7.2619041527018396e-002 8.6635099060341975e-002
      -1.4622916438938942e-002 1.7467542721286741e-002
      -1.7859902266185815e-001 -1.9452790788959853e-001
      4.4074685677893917e-002 9.4925375496643510e-002
      -1.4577903327089699e-002 -9.1093129758804320e-002
      -1.5176149007813883e-002 -2.1045299842366413e-001
      5.4973182028703625e-002 3.2476729490310469e-002
      1.0075490773899984e-003 -3.8551238085012852e-003
      -7.5352920151475003e-003 -1.0124807284555098e-001
      -7.1781021693646155e-002 8.3015933217962523e-002
      -1.5260913193395120e-001 1.8883120173080758e-002
      -2.5649238956095569e-002 -5.4083592802134907e-002
      1.3787660107664149e-001 1.1481654957838389e-002
      -5.6258021436529212e-003 7.3527635850757375e-002
      2.7182503800531943e-001 3.7430388089960763e-002
      2.0631230128961556e-001 1.5685911268405114e-001
      -1.3740737380661699e-001 9.0776647069749444e-002
      1.1324567299106213e-001 -2.7924312331112366e-001
      1.3085262539928033e-001 -7.8497538923546495e-003
      1.3661266006355824e-002 -4.0798619803776838e-002
      6.3762744593061763e-002 1.2058140651349389e-001
      4.2475425488136584e-002 -4.7749949347869462e-002
      -1.5364706504089726e-001 -4.3216761644236212e-002
      4.4396296233591002e-002 9.2762010384829563e-002
      -1.6692044753020687e-002 -7.4316912085554923e-002
      -4.0497110311201567e-002 -1.2388100336684083e-004
      -7.3222660963433273e-002 5.0700769947160418e-001
      -1.9509621697615351e-001 -9.5693225430136614e-002
      -9.2741831077530409e-003 -3.9212611125655973e-002
      2.5069049270608840e-001 -4.1191960960495383e-001
      -7.5557061056515246e-002 -4.8843158179466335e-002
      2.1063744760199976e-001 1.9884001202887666e-001
      -8.1772937493408693e-003 3.5553504336341184e-002
      2.1363385900357973e-001 1.1065610643366543e-001
      3.7473263937751455e-001 1.3406632601905813e-001
      -1.1764910952615748e-001 2.4177577446430634e-002
      1.0524566077458937e-001 6.5489467646860131e-002
      -6.7607675832266192e-002 -2.5332179965272539e-001
      2.2438829839926738e-001 8.8907849705782263e-002
      1.3557084120485463e-001 -1.9901597349391772e-002
      4.6632977229553826e-002 -1.8224484544797961e-001
      2.6521353299882429e-002 -4.6984215634602899e-001
      3.9470031674397504e-001 -5.8394665405334091e-002
      5.8188207226272104e-002 -1.3603063153458311e-001
      4.3637385805473591e-002 2.9733338200143084e-002
      -7.2240024273303172e-002 -2.6531128260780827e-003
      -8.2171967813772489e-003 3.5560748398526382e-002
      1.4188137354597518e-003 3.5034850462227818e-002
      -8.3245241401234182e-002 -4.5053265919741674e-002
      -8.8944696476135593e-002 -7.5382011289443968e-002
      3.4229263951793681e-002 4.2269598661688911e-002
      6.0248077781965455e-002 4.0553653715917452e-002
      1.3601557031075176e-001 -1.9340436122891408e-002
      1.8398215840221464e-002 9.6485966525616581e-003
      -2.0216733208066922e-002 7.7495420458232461e-002
      2.5104713592933736e-001 2.4959826288160212e-002
      1.8577593818913808e-002 -1.1519339537922859e-002
      -2.7422193270113047e-002 -9.4913307530887600e-002
      1.2883171168489249e-001 -3.3501526523060182e-002
      1.3640235923108729e-001 -1.9508925281199468e-001
      1.7743136605985421e-002 -3.4805656069708701e-002
      -1.6925275851647692e-003 3.5870527640293741e-002
      6.2217179839402663e-002 7.5393267001520423e-002
      -4.7698720629150072e-002 -5.3367719951227438e-002
      -1.4124266316552292e-001 1.9513738075929861e-003
      -1.0843232193861104e-002 -8.1543222665378418e-002
      1.2933752248682892e-001 -3.9656901708447451e-001
      -7.5982485740885786e-002 -7.8494686292175805e-002
      6.7660605001338026e-002 2.1450730569992713e-001
      1.6578215777348768e-001 -3.7109462750942662e-001
      6.1037489405797403e-002 6.2405264545497233e-002
      1.5161322999792751e-001 -1.7871066765085413e-002
      -2.7611470153738737e-001 -1.1910329287988665e-002
      -5.8267251639433887e-002 1.4110854027058134e-001
      -3.7214141363116980e-002 9.3772127256772336e-002
      -4.0716265383645600e-001 -1.0593791502820084e-001
      3.1524331427867358e-001 -5.4087600015765298e-002
      -2.1622183080139620e-002 -4.1294579964520080e-002
      8.3805445824795766e-002 7.3516607865416500e-002
      -1.3644156570005447e-001 -5.7393251810866242e-001
      1.5331505546566887e-001 6.6561816649504918e-002
      5.3536600252188871e-002 -1.2745228936462907e-001
      -2.6281847491258489e-002 -6.1776125927388105e-002
      1.2877234056078232e-001 -8.9055179102392953e-002
      2.0283197708731265e-001 -3.8582721598712649e-002
      -3.4339186236158592e-001 -2.5362666781756588e-001
      -7.6005318314413733e-002 -3.9103432929471776e-001
      4.8623964704009114e-002 -6.9927762550600431e-002
      4.9636878767589619e-002 -1.0107370565708299e-001
      2.4452602561151901e-001 -1.5095476655084417e-001
      2.2549349175007768e-001 -9.2808680541863225e-002
      -1.0795953082810800e-002 1.9157492092116205e-004
      -4.0786815521021234e-003 9.9118513753347598e-002
      4.6902414193881116e-002 1.0838910510586522e-001
      8.9971332093689446e-002 -4.6849147825840751e-002
      -7.5796352298882971e-002 -2.2885712878617578e-001
      1.9502852557998634e-001 -9.3479903302145779e-004
      -5.2361547878555362e-002 1.0393422999403755e-001
      -9.5702494192351620e-002 9.5959376447883896e-002
      -5.3170475639563231e-002 -1.8903591349587262e-001
      2.5161435732306767e-002 1.6603268918928651e-001
      -6.0950796710991122e-002 6.2154884981785383e-003
      1.0371264134976568e-001 1.6215963124179655e-001
      5.1894346342442693e-002 -1.6602167834650222e-001
      1.7347488178647352e-001 -1.0080973619230316e-001
      -2.7529282270307764e-001 -3.4758085243792680e-001
      7.8926632092218021e-002 4.7299290801312288e-001
      3.8343255977497437e-002 -1.7671932126939585e-001
      -1.0516937179335671e-001 8.7998747648875580e-002
      -3.0783684438498532e-001 1.3378294271497998e-001
      -4.0586245978212987e-001 -2.3842426423372282e-001
      5.4413558010230805e-003 -8.9232872666362484e-002
      -6.8452966315859065e-002 1.3471981010805259e-001
      -7.0394545832777683e-002 1.1764576225087325e-001
      -1.0195583906492237e-001 -9.5812434352950224e-004
      4.4469033329369724e-002 -2.5488661125168486e-003
      2.1900427014504767e-001 1.4924031799601519e-002
      4.3319587065307374e-001 -3.9989080186391010e-002
      1.7441368251356562e-001 1.1869170474279733e-001
      8.1435504707307371e-002 4.5586775711560629e-001
      -9.3861318736107695e-003 -2.1457754247025765e-001
      1.3820818773332053e-001 8.8055758666545608e-002
      -1.4472430069621253e-001 1.0452906701433429e-001
      -3.4222805649455945e-001 -4.4814569642541979e-001
      2.6047311107547841e-003 7.2823089337629363e-002
      -2.2243681529307893e-001 -1.6772830676922426e-001
      -1.6031900964479127e-002 2.0197264883456453e-001
      -6.4784907639314909e-002 1.2853757736729957e-001
      7.1197757851426763e-002 -1.8301386843863629e-001
      1.4376839137387590e-001 1.1374954225710371e-001
      -1.5643541219081142e-001 -1.0162315317393789e-001
      -9.3223427883407109e-002 9.0779588543674586e-002
      8.5400337532861151e-002 3.1897694885293607e-002
      -1.2597687819047598e-001 -6.5125697362455617e-002
      3.2927930723948111e-002 -2.1364863954085139e-002
      2.0198965367312771e-001 1.2085817168873428e-001
      4.5852919064492043e-002 1.6843439059590640e-002
      2.4423163530879081e-002 -1.0574981589283694e-001
      -1.2698631405973456e-002 3.0575376149529807e-002
      -3.1651899286944346e-001 3.2211427864449743e-001
      2.8636212652214919e-002 -2.1309549233038283e-001
      -6.4543531610909430e-003 1.2443609964543302e-002
      -1.6187013348544149e-001 5.4966780945775368e-002
      -1.3307985811834697e-001 7.4980664622573620e-002
      3.5639220980093061e-004 3.6409311350820914e-003
      7.5442942811233482e-002 1.8009948746087789e-001
      -1.2782611031145444e-001 -3.0134342465196623e-001
      1.9154304033295938e-003 6.7492501096018939e-002
      -8.7860184979584293e-003 8.3935819213058580e-002
      1.6096493169777101e-001 -2.2228546731977983e-001
      1.6881353614725514e-001 4.2910479703177885e-002
      8.3814323376065300e-002 1.5070285425653393e-001
      8.0491827318399392e-002 3.7791570043957383e-002
      -1.0409355945240784e-001 -1.6938986098973530e-002
      5.9215868934044763e-002 -1.1217914582410159e-001
      -6.7917400927585511e-002 5.0044470247853801e-002
      8.7927437973083535e-003 1.0475218123940480e-001
      -1.0333097470376779e-001 9.2620297592483400e-002
      -2.7123376613623015e-002 -5.6433515921839872e-002
      1.2712554009795404e-001 -1.0933271272996559e-001
      -4.4935279041063696e-002 2.6185794303866416e-002
      -6.5052389618986718e-004 -1.1700232339993422e-001
      2.7164829167899979e-001 1.1584736390524999e-002
      5.6086508066619932e-002 -7.1852893877422400e-002
      -1.0824609184381273e-001 -3.0202894702537009e-002
      1.3335584809042599e-003 1.5148866867380267e-001
      -9.8996427992805808e-002 -2.1035208017854922e-002
      1.6536995076392408e-001 -1.4477007713312032e-001
      5.5882461246621988e-002 -1.4169024054777851e-001
      9.5243924716312794e-002 -4.1365533527093779e-001
      -5.3757949034094088e-002 -7.5404920001376496e-002
      -3.0963169961921032e-003 1.5183254923483469e-001
      -3.8151512490736345e-001 1.0855220761520259e-001
      -9.9402009482608786e-002 -7.1156736610366894e-002
      8.8995016533232219e-002 -1.8786108277920505e-001
      -3.1925524031536973e-001 -2.0114947033207475e-001
      2.8845935229579983e-001 6.9528229684674314e-002
      -1.1583769751017864e-001 2.3130249515968623e-001
      2.0283323902010125e-001 -5.3665507405114589e-002
      -1.3659384011889028e-001 -3.1016518395725245e-001
      -4.1485329829002703e-004 -7.9683133427722666e-002
      1.0204046792704027e-001 -1.7041839803737502e-001
      -4.8448299589313659e-003 5.4317981056247475e-004
      8.0651523859567503e-002 -2.0143910595450956e-001
      -6.3679596876092232e-002 5.6584075949761080e-002
      7.4196318979590004e-002 -1.3475405381882372e-001
      -2.9668939243812885e-002 -5.1889275026194122e-002
      -2.9199628152956954e-002 -7.6827937175366415e-002
      -5.9488228822734676e-002 1.4693798075495590e-001
      2.1239357790543828e-001 -4.8664066087899319e-002
      -6.4070125294110283e-002 6.3880572696465326e-002
      -6.8578072843461763e-002 2.4860015111326336e-001
      -1.2292999088609505e-001 3.2751171482702568e-002
      -2.3953521149022050e-002 -2.3496873467001508e-001
      2.4953657785173144e-001 -6.2914546057890569e-002
      -3.0243633538418514e-002 -1.7975354468012783e-001
      5.2656582915983900e-002 5.2565079796939501e-002
      9.9316993649184296e-002 2.5028829111879947e-001
      9.3713446982401583e-002 4.3804108731515197e-002
      3.5497331131958659e-002 -1.6508304834068604e-002
      6.0869014981605567e-002 1.1164088689156809e-002
      3.6145763007597281e-001 -5.6616234335731978e-002
      1.6240620280695880e-001 -7.4323101974180128e-002
      4.5103528843986773e-002 -7.2382303654654062e-002
      3.2968041701468925e-001 4.1134054481328669e-001
      -1.6352968326056957e-001 -1.5349375568667195e-001
      1.8707128515295410e-001 -4.3849088934512427e-002
      -1.2511918405023000e-002 4.8201547525776711e-002
      6.0138653648914742e-001 3.8716655438344677e-003
      4.6973387681447965e-001 2.1348264596568602e-002
      8.6709563424846644e-003 5.6221782611408557e-003
      2.1997713505868932e-001 2.8606159073296994e-001
      2.0539717685283884e-001 3.7071681488732675e-002
      -7.4654571452108714e-002 -2.1311565627029047e-001
      -7.2334130325815413e-002 8.9369297571528492e-002
      2.5564975203563267e-001 -5.6242880125143135e-001
      3.1115322131709755e-002 1.4505577621128568e-001
      -2.0694552995625514e-003 -5.4975311457727161e-001
      1.0194822334890063e-002 3.9575396365303543e-002
      -1.3066697917208270e-001 2.3768332707532237e-003
      -2.4516076967082027e-002 -1.0600014796294328e-001
      -4.8758395184993432e-003 6.1166101960783668e-002
      -7.4602661982333418e-001 -2.5148544306057400e-002
      2.6716845131751901e-002 -1.9908011420225621e-001
      -1.5598715127212620e-001 -2.2252876897900153e-001
      -1.2312205468813583e-004 -1.3784650108872670e-001
      -3.1651949462747138e-002 4.8395118643744695e-001
      -2.8133780428681861e-002 2.5959872211409128e-002
      2.2615402213965660e-001 -1.0139816298001866e-001
      4.4585090083438056e-001 -4.0025138036019314e-001
      -1.1577969876446845e-001 -1.4457067839954174e-001
      -2.6284585031691454e-002 1.3803259189664652e-001
      -2.7837565785925871e-003 9.6145335365050544e-002
      -2.2132579498179078e-001 -1.2244886380184972e-001
      3.1871786475710467e-001 -1.8050003518037698e-002
      -1.6368656952701369e-001 -7.6792144157851433e-002
      1.8890516465896809e-001 2.6027477891182099e-001
      -3.6974815960814596e-002 -1.9862316648598100e-001
      9.1659868177936032e-002 1.1934366945450736e-001
      2.1361225221408323e-001 1.0352271756837443e-001
      4.1113535600528626e-002 -4.2509459315174344e-002
      1.0778438592091873e-001 -4.6614205294553379e-001
      6.8634041748960969e-002 -6.6131749572763826e-002
      1.6856011249058112e-001 -2.1075106066817023e-001
      6.4731014404552922e-002 -1.6363247387547927e-001
      1.3296207716801023e-001 8.1668336519107335e-002
      1.4099753775321472e-002 5.3390081600332671e-003
      -1.4443898712736070e-001 7.0624381028300071e-002
      -1.1033011585806574e-001 -1.1530901884314167e-001
      1.5339108402220036e-002 -7.0564225513461379e-002
      8.8144828409934210e-003 8.7252036053029350e-002
      2.6718798384754158e-002 -6.7591726947839659e-002
      2.0917084959044679e-001 -7.4019653176254058e-002
      -7.5556155139345563e-002 -3.2865724396989759e-001
      -5.6296408126849301e-002 1.0642464145262136e-001
      3.8682085677314176e-001 1.7619106292781750e-001
      -1.4094798273231343e-001 -5.0347954130465243e-002
      -1.4262124802986630e-002 -2.8580324692501713e-001
      -1.1311621104336016e-001 4.0340845824861596e-002
      2.1667747103867965e-001 -1.1151091171278241e-001
      -7.4743292985165979e-002 8.4794951402337629e-002
      -1.2114498722022658e-003 5.9790187896673619e-002
      -1.0786720543826221e-001 -3.8971965610627220e-002
      -5.2604816350405375e-003 1.7607316211292415e-002
      -4.1249510673461796e-002 1.8007725888567952e-001
      -3.3447634233455450e-003 -3.6581597780086440e-002
      3.4694003286360030e-003 -1.5990533939042723e-001
      1.1043397605209056e-002 6.0039004219111625e-002
      -4.3163100392986521e-002 -1.1034159492765079e-002
      -1.0979195131017547e-001 -8.8667099236477087e-002
      1.1524458671174248e-001 -2.1275249892657569e-002
      8.4817549514363808e-002 7.5070715983967473e-002
      6.2971138079848374e-002 -5.7002202337600040e-002
      -5.7597058354715826e-002 -1.4355505886866687e-001
      1.0270237820138320e-001 -9.8696577997670107e-002
      -4.4296462701478162e-002 7.3924029862765847e-002
      -9.9692080301975197e-002 9.3895583546526537e-002
      -1.7041876799325575e-001 4.7540516477373937e-002
      1.0200955998338518e-001 9.1491271059494977e-002
      8.5121187734698608e-002 2.8194088654919458e-001
      1.1616073651092684e-001 1.0349370771231070e-001
      3.0141546916993632e-002 -1.4241765257866940e-001
      2.8878876416877924e-001 8.4932792574108532e-002
      3.4646987818348393e-002 -4.2879568995815194e-002
      -1.0020100253717114e-001 -1.4808079270881522e-002
      7.3158189065208462e-003 1.8185841036578609e-001
      -8.5984354281900995e-003 1.6690904260881845e-001
      1.3115255253943348e-001 -9.7177324558853737e-002
      1.6956813081437153e-002 -6.9280564755072639e-003
      5.9747627007612734e-002 -8.6717921659780178e-002
      6.8132898746567222e-002 1.6716498386973538e-001
      -4.4829777370689466e-002 1.2142226331620966e-001
      7.7938586971135121e-002 1.0226207420665520e-001
      -2.7370746021290798e-001 -1.0690268040264991e-001
      -1.5971862768925993e-001 2.2045455287845619e-001
      8.3491688420361837e-002 8.1635936462546577e-002
      -1.4973674563178729e-002 -2.6025330291630518e-002
      2.0948610789751614e-002 6.2906386563078356e-002
      -2.6824579203296700e-001 1.1088508902360254e-001
      2.1246328644509337e-002 3.9934179917928081e-002
      3.3383645300439489e-002 -1.3276723402583029e-001
      -2.0307617088310465e-001 -1.4083963040206957e-001
      -4.0726411123207976e-002 1.8714963385655289e-001
      -3.5447106794965128e-001 -1.9633813663563998e-001
      -5.8668604727902397e-002 -1.0217661467751993e-001
      -3.2774855543273029e-002 -2.7380006542136853e-001
      -5.3244105300000039e-002 -1.1391705226170543e-001
      -5.3482328842098179e-003 2.2049310502522935e-003
      8.6830626259759569e-002 -1.4152143817698562e-001
      -5.9402254406391554e-002 5.5968254217648554e-002
      -7.4344127745819208e-002 6.7059208724127128e-002
      -1.2366999727610768e-001 -6.1451600141166178e-002
      1.4013402413301103e-002 -1.3602273605997160e-002
      -3.8145812702286541e-001 -8.9370765918684841e-002
      -7.9888612991866781e-002 -2.5876649450498063e-001
      -9.0121712388136571e-002 -8.9722463240566805e-002
      2.5074779832810712e-001 -1.4999134769315262e-001
      -2.1707597966267012e-003 -9.5076776201615670e-003
      1.8149122925667286e-002 1.6140978923491364e-001
      -1.3121534212565194e-002 -1.3266601113460907e-001
      -4.1068955859257981e-002 2.6917055575610821e-001
      -3.6257482163914452e-002 1.3632227524251381e-001
      2.8503904218474785e-001 5.6437043884495428e-002
      2.4540947945841454e-001 -8.1163439333908557e-003
      -2.8195391209010812e-002 -5.4955323057618910e-002
      -2.3327469877859433e-001 5.8674330113746724e-002
      -1.1774740282812669e-001 -1.5901436934733193e-001
      -2.9459069936219585e-002 3.6276863125637882e-002
      -3.6312545566040876e-002 -1.0630560462204315e-001
      -4.3803197326802599e-003 -2.0583239613138218e-001
      1.8099361084838020e-002 -1.5822002378553057e-001
      -3.4017281126795751e-002 6.0086658235882939e-002
      7.4673272072644958e-002 5.8955654473539065e-002
      3.2034917285724863e-004 1.3301434661136985e-001
      -1.1220691378024113e-002 -2.8332296117404210e-001
      -7.0820103519141656e-002 2.8725430317130703e-002
      6.5890692171334128e-002 -2.7584718207839275e-002
      1.3102735171498729e-002 -4.2102727245115906e-002
      1.6497602233572886e-001 -9.2668581270713091e-002
      1.9849874257887458e-002 -2.7850529500210636e-001
      2.5022040554346182e-002 1.7505213404605865e-002
      5.7375716833408905e-002 -6.0779964863129213e-002
      9.1830147083031610e-002 -1.3853394514598494e-001
      1.0189237719121901e-002 -2.0745569892326293e-001
      2.0301676628987614e-001 -4.0274163432048017e-002
      -2.6059244241414820e-001 4.2064578164701361e-001
      1.4759956024589224e-001 7.6725762300044076e-002
      4.2026703120490727e-001 -1.9479047355417417e-001
      3.0949394015762789e-002 -1.2031797718537247e-002
      8.9133861874688775e-002 -8.4520039483649390e-002
      1.0325144608859488e-001 5.5224045965060718e-002
      4.2199404550902292e-002 1.9185802610812260e-002
      5.8944337689069766e-002 4.2999658246851494e-002
      -4.4870928741031696e-001 1.2944879144540708e-001
      -1.0419729989865420e-001 2.2339755762088626e-001
      1.4027244569450087e-001 2.7020199190497991e-002
      -5.6147147700412181e-002 6.8345476199528507e-002
      5.6421378738572170e-002 6.5626205280578859e-002
      1.0488044704090557e-001 3.2702986425755143e-002
      -1.1034532703143458e-001 2.2274455269610877e-001
      9.7022693988067732e-002 -3.5796927531655964e-001
      -2.2342583264409166e-001 1.4941965545066210e-001
      -2.6258541150001147e-001 1.1590530756372734e-001
      -1.5041710127648916e-001 1.4359190968068122e-001
      3.2853049264252310e-002 1.5799995947406487e-001
      -6.3065182599913658e-002 -1.3034449391077094e-001
      1.8779702148057978e-001 3.5237084781411923e-002
      3.2359120788860982e-002 -1.8476696767299883e-001
      7.2007149715133431e-002 2.6120289133314967e-001
      1.6747209419658359e-002 5.6421179331796530e-002
      -9.1748773627538846e-002 -1.6972667576784433e-002
      2.9260846364159487e-001 7.3902844305973936e-002
      -1.9238306617145073e-001 3.1125318159849744e-002
      2.0791521310106492e-001 3.9144644082987803e-002
      1.1008272557528054e-001 1.2118701102758347e-001
      -1.2749960817192582e-001 -2.3157934481882417e-001
      3.1880125858203693e-004 1.2061540730042776e-001
      1.4448111862703013e-002 2.0779204345648619e-001
      1.1483508038660135e-001 -4.7511039502250080e-002
      1.6347905901921508e-001 8.9997170106345496e-003
      1.0034767884014949e-001 -1.1635831578277962e-001
      1.4755446584708021e-001 1.9978429067390509e-002
      1.6570399105546366e-001 -1.3900697919989966e-001
      1.3402067253216909e-001 -5.7310750988304321e-002
      1.5065355618489148e-002 2.1527792451466699e-001
      -5.6155144003221524e-002 6.6906622676394217e-002
      1.9306869382980023e-003 3.4269961365195702e-002
      6.5974712731308366e-002 9.1187223832441405e-002
      1.6250975018560385e-003 6.0728085807945208e-003
      -1.2500857438940727e-001 1.1917539688606046e-001
      3.2195575625180411e-002 -4.9949748414363150e-002
      2.2387814082111343e-001 -2.6489447343091138e-002
      1.3892548455314502e-001 -2.7091508290625271e-002
      2.7296801860392444e-001 3.0617691368500316e-001
      -2.2463958523606198e-001 4.5886279735660930e-002
      -3.5405981406615397e-002 1.9043244671249177e-001
      -1.1804013867160408e-001 1.4548288614570049e-001
      4.3970778318167737e-002 -1.5770384378444036e-001
      4.0481071559166443e-002 2.6511985004715095e-002
      -1.4790331083189751e-001 9.7070712664524980e-002
      -3.4069721708893413e-002 -3.4483973938001518e-002
      -2.8172118565948234e-001 4.7479393806500944e-002
      6.2886112874467312e-002 4.1620604123489301e-002
      -1.1730776632804413e-001 8.4058053105721967e-002
      -3.4936094808108376e-001 -2.3763867777429493e-001
      -3.3061911455346066e-002 -1.0765393206614605e-001
      2.4160398859728383e-001 -5.3424361805418352e-001
      -3.6204808977487513e-002 5.0599260744330070e-002
      4.9424013300268460e-001 1.1742657193502756e-003
      8.2931430431902653e-001 -2.2765528217776151e-001
      -1.6974685501108460e-002 -9.4611115407392289e-003
      2.0307852810512578e-001 3.6583467257197561e-001
      5.1770250477925761e-001 4.9091579610452540e-001
      1.6847732478578514e-001 -5.6240429477773468e-001
      3.2425755565190884e-001 7.7610079752824052e-002
      3.9461022033352938e-001 4.9209351649793681e-001
      -1.1089946611519240e-001 1.3500879412562525e-001
      2.6021018605829643e-002 -7.9691614888999340e-001
      7.9474390697504040e-003 4.8134138394993711e-002
      5.5775248823603174e-001 5.5279090107352394e-002
      -3.0121828315113244e-002 1.3841209039409869e-001
      -1.2547670839787509e-002 4.4827075995471869e-003
      -7.3519079327903247e-001 -1.3248352244573328e-002
      9.9064433120294740e-002 -2.0610945638996464e-001
      -4.4987195719962841e-001 -5.0033485914524378e-001
      -1.6002027675172223e-001 3.9393655182586463e-003
      -1.6329096531676698e-001 3.4461994109145794e-001
      2.8057223171922351e-002 1.0537552182997749e-002
      2.3969704696276892e-002 -7.9797242149545963e-003
      3.1602462684039506e-001 -1.5178692183124010e-003
      2.2022863802590134e-001 2.9759678431876300e-002
      2.7173580378296780e-001 1.2169424557630316e-001
      -7.1741516237402853e-002 2.8446181473417920e-002
      -1.8759601212807987e-002 -1.2571036441694133e-002
      1.0908841108223163e-001 -1.2806062767914857e-002
      -1.1691821605295458e-001 -2.5820815444249534e-001
      9.4678847445470157e-002 4.6583482879400540e-001
      -1.0355748518344735e-002 -6.3336476068174774e-002
      -1.6298285032314064e-001 1.1320322241310267e-001
      -1.0657695276005760e-001 -5.5434849993245820e-002
      2.0811750987463639e-004 3.1878716938746388e-002
      -1.5955413487100512e-001 -1.8384115655187677e-001
      4.2999186229773123e-001 7.6006143087003306e-002
      9.1605652749757682e-002 2.3099887052339309e-002
      2.7772726977227341e-001 -2.2012588612385775e-001
      8.5784933382493905e-002 1.4366432714518376e-001
      -2.5441862632511875e-002 -1.1589993512571770e-003
      3.8480072003054061e-002 -3.9082564353433491e-002
      -6.2240080889261334e-002 -1.7058429998920344e-001
      -3.0039040820937453e-002 1.1992175564577517e-001
      -3.4490090603866333e-002 -3.3169542299411582e-002
      -1.3689907741993526e-001 -6.9852836628509052e-002
      6.5904922894680917e-001 -1.1377261288949438e-001
      -1.2194882754362132e-001 -1.0106700355696793e-001
      3.2183809679467157e-003 1.0629373034984306e-001
      5.9486805570788004e-001 4.8555500023927878e-001
      -3.1478116317253441e-001 -9.0622299704098477e-003
      -3.8349245889128233e-002 -5.4641594322480413e-001
      -1.3325613579571383e-001 1.2384138765994319e-001
      4.7038418797192166e-001 1.3276357351359427e-001
      -9.8631841618292380e-003 -7.3013449171174333e-002
      -5.0413821310315643e-001 -1.4470887720234143e-002
      -6.6176688335089287e-002 -9.6686388656630831e-002
      -5.9501334064129885e-002 7.4519308450556432e-002
      -3.8469144261835347e-001 -8.5410238193824584e-001
      1.7353721955247892e-001 5.2467053650283257e-002
      2.0414461183437094e-001 1.6211438583241389e-001
      3.1691260260271992e-001 3.8519836032779552e-002
      -3.4354523965544670e-002 -9.7330603050195474e-002
      -1.2353435289131783e-001 1.0169250642241437e-001
      -1.4853697787833176e-001 2.7703129013387420e-002
      -1.0750766616984511e-001 -6.8167737672027329e-002
      -4.5730734389268779e-002 -2.2874539736124513e-001
      -8.4176608237853862e-002 -6.1173427782456928e-002
      1.3453024974057790e-001 -9.5027583377737992e-002
      1.1818684097183726e-001 6.9528799204474065e-002
      -1.0177362307363429e-001 1.1544089199028260e-001
      1.1384984398176624e-001 -1.1604402024397488e-001
      -1.4778118675362215e-001 8.7187620182444719e-002
      7.7995111065863446e-002 -9.3710683471068451e-002
      2.1082310671486981e-001 -2.0755031516649705e-001
      -1.3846993479319539e-001 -2.5189361605942470e-002
      -1.7040481411371164e-001 1.2159118190252270e-001
      4.8504168509869522e-002 4.7483812808703549e-002
      -2.6009806906075000e-001 8.7356737730744802e-002
      1.2252700035182054e-001 1.1040942092631463e-001
      6.0244309068935235e-002 -1.8216793725533156e-001
      -8.8803240301856181e-003 3.4908328593656127e-002
      -1.2217526589099505e-001 1.9236248207170770e-001
      -2.7036520885686588e-001 5.3147546604162904e-002
      4.2157684212454895e-002 1.7412155763719878e-001
      -1.0172375159435507e-001 -9.1932967447800149e-002
      7.4609300367886305e-003 -3.1525362080533653e-001
      -3.3534375658623317e-001 -2.6582856583714837e-001
      4.9747292010122644e-002 -2.7496410379657998e-002
      1.3491104689116663e-002 1.2010676210047562e-001
      -1.6794892302604134e-001 -9.3215005139794263e-002
      -4.6088963161054430e-002 1.0829739213592333e-001
      -3.1267764746410742e-001 3.8055018496808862e-001
      3.1998189125856651e-003 6.9315469188899409e-003
      3.9290578175082962e-002 1.3586148185015098e-001
      1.8141181942910912e-002 -1.1719001005627573e-001
      -1.6582409911764040e-001 2.0903635926410799e-001
      -9.9086186612095062e-002 -9.8676028910078921e-003
      -3.6171893509359188e-001 1.1375175174507155e-002
      2.9646471454226231e-001 -1.1837128004221652e-001
      -6.7581708667226223e-002 -1.7453755061035517e-001
      3.0643340725843089e-002 -9.6270500355357350e-002
      -9.7290966993839281e-002 2.4029334852395581e-002
      3.2362947179706746e-002 1.4816825464103969e-001
      1.6971176247189698e-001 -1.2077007581599708e-002
      -9.7477821999037099e-003 -1.3350414121446857e-001
      -7.7264772729257331e-002 -1.1443990141548517e-001
      -1.6029122437364174e+000 -1.4477004598010312e-001
      1.1589174887642076e-001 1.0845483443551314e-001
      1.7324652257846582e-001 6.2584291759626126e-002
      2.9310449788440507e-001 -5.8799565902702973e-002
      -4.4684100011890004e-001 4.0576615125410199e-002
      -1.1638806136120378e-001 -8.4657409578344306e-002
      9.5928429416299477e-002 -2.2741140259555512e-002
      -2.4929601452863847e-003 -1.7518013241497439e-002
      9.6818105799744592e-002 1.4345240136836006e-002
      2.8161296774648614e-001 -8.7859645320587737e-002
      3.5254604558193664e-001 1.2767829718155804e-001
      5.8188725027335216e-003 9.7250073719974753e-002
      1.0490422478772916e-001 -1.9340360863845379e-001
      -9.5866373125399057e-002 2.2768281296016224e-001
      2.9558677822276636e-001 -1.1477009085636014e-001
      -2.4561987806305422e-002 3.6975171855091998e-002
      8.1417950474347522e-002 9.0506226107926996e-002
      -1.4014673072152606e-001 -2.3068139584933159e-001
      1.5270210676418683e-001 -1.5819038379348377e-001
      1.4230519650878856e-001 2.8285160470530563e-001
      -1.0168747019445391e-001 1.5461062066951128e-001
      -6.1611721472689459e-004 2.5203136567973791e-002
      -6.3012342527382068e-002 -6.6367813420698432e-002
      1.5103252541965718e-002 -4.4076336692728868e-002
      1.7224784297466900e-001 -3.8563089551910366e-002
      1.7986899184992869e-001 -1.1160102077454553e-001
      -2.2925303028378932e-001 1.7905079124265175e-001
      -1.1571026378333309e-001 -2.9836947954432791e-001
      -4.0887988027296915e-002 -1.0389716968942706e-002
      1.6947404787858128e-001 1.8074144816570512e-001
      3.6723644938983407e-001 -5.6194237226502346e-002
      1.3109719612081763e-001 -1.7341790215134972e-001
      -4.0615833715334682e-001 -9.3419017805963955e-002
      2.8943217110446218e-001 4.4795404034523351e-001
      2.4605000889315617e-001 -8.4042817020077275e-003
      6.3958083218121228e-002 2.1703193431237511e-001
      4.0788585463784797e-002 8.5862712083815865e-002
      1.2567837572479651e-001 -1.1226711100354987e-001
      2.1009059934615357e-001 -1.5193493781947612e-001
      -9.6039741951007937e-002 9.1510102982443664e-002
      3.8951245300809412e-001 -1.0626212027076991e-002
      -7.9347005341916924e-002 4.9455985960473148e-001
      -3.8402126519319568e-002 3.8008144124179660e-002
      -2.3766014105646136e-002 2.0763132577789270e-001
      -1.4349969740350066e-001 1.1303208027465921e-001
      -2.6734827057021675e-002 -4.5385337656043973e-001
      -6.7481158225051376e-003 7.5484883576802664e-002
      -1.9774793937066854e-002 -2.0449256063191232e-001
      1.7604871595360086e-001 3.6808137900524091e-002
      -5.9544395134546658e-002 2.0158089849846927e-001
      3.6510444357698658e-002 4.1273932100276522e-001
      2.2370373501293503e-001 -1.8001055986888270e-003
      -1.1940321270722802e-001 -1.2569591874693153e-001
      2.6764788947025520e-001 1.1427613540148135e-001
      3.6734875507756448e-001 7.3677083342544247e-002
      -8.5825856522306218e-002 -4.0084280327335763e-002
      -6.3194960902842115e-002 2.6451022077825076e-001
      -1.2146169706463895e-001 -1.4036586775480567e-001
      7.2502939536425184e-002 -1.6424956649473824e-001
      -2.1473446919878278e-001 4.8936071040839246e-002
      -2.6063288078932535e-002 2.1929425894539675e-001
      -1.1707082672064101e-001 4.1442259149978866e-001
      -1.4698810391991191e-001 2.5003285481419876e-002
      -4.9619169475463229e-002 1.1258321707141575e-001
      1.6646137097294143e-002 1.0163654712121972e-001
      -1.5896239171180529e-001 9.0684454963396027e-003
      7.7320285637797175e-003 5.0376892164095445e-002
      7.1561208183800740e-002 -1.8477538853188777e-001
      9.8310079283383776e-003 8.6937886463525002e-002
      -4.5155226686347816e-001 2.6649104966007781e-001
      -1.1174524304023138e-001 1.0411339636788605e-001
      9.5824041193521670e-002 -1.0773741040317364e-001
      -5.4737429504986591e-002 -6.1824366464362727e-002
      1.0438248833943230e-001 3.5872452370561657e-002
      -1.1135099228114349e-002 9.1464576875209175e-002
      -2.7691392410660087e-001 -1.5895294077032324e-001
      -4.8472443828106893e-001 5.8312850196554258e-002
      -3.7188719025020495e-002 -1.0485656683380608e-001
      -2.3614132560947745e-001 -3.1758328146282466e-001
      9.6307986422922387e-001 -9.7058297988113995e-002
      1.2358159630070571e-001 -4.3259706703693435e-001
      -5.6987766963533477e-002 5.3929109923261581e-002
      1.1688147216433238e+000 5.5815986771324455e-001
      -4.4372576423796528e-001 -5.2683347080207818e-002
      -8.2058575273494076e-003 -1.0990902823261588e+000
      -2.4446312918115762e-001 -5.7833703028303582e-002
      8.7410724154025177e-001 5.2576741463056260e-003
      -6.2182598392470138e-002 -8.4974295366177774e-002
      -4.0943987454138991e-001 3.3644246385297942e-002
      -2.4888970338929983e-001 -1.9819250628376691e-002
      -1.0616778783707873e-002 1.6979198989902716e-002
      -2.1679086235231804e-001 -9.1681744525641407e-001
      -3.1160073416957323e-002 -1.1454413638490446e-001
      2.2859213763019254e-001 -5.4985320530734283e-001
      1.1702661620625369e-001 -6.2902146107523919e-004
      4.2590354964994154e-001 -2.5596842393981887e-002
      8.7079265777904657e-001 1.9082940248266222e-001
      -2.8581200808047387e-002 1.7525622302254037e-003
      1.9667099748834374e-001 3.5398095674431157e-001
      2.3104229520996564e-001 4.7035349876867277e-001
      1.3784371252311675e-002 -1.2669771651057415e-001
      3.0571752525197660e-001 -4.0037190245308815e-002
      2.4192357730151506e-001 -2.9989060306415355e-001
      -1.2141777655796851e-001 2.4737039709900385e-001
      2.5115866545754660e-003 -9.6325728628679885e-001
      2.1645889025555847e-002 5.1441991697315254e-002
      6.0719006928417885e-001 -6.1509697555603517e-002
      -3.7473863692300914e-002 -1.0904622273851543e-002
      -3.2494405464897455e-003 4.0150697142066559e-002
      -5.4650933804952406e-001 -1.9602615390132857e-002
      1.5727402993228651e-001 -1.4488762253458976e-001
      -3.3528340363097087e-001 -5.0286169767268807e-001
      1.4945070362380256e-003 3.5724003237934049e-001
      -1.5225429528236276e-001 -3.5695633012897987e-001
      -1.1919324120081293e-001 4.0102573115152890e-002
      2.1516417340793148e-001 5.8694754877283178e-002
      3.8072186996975904e-001 -1.1390976412578284e-001
      5.1373660871218023e-002 -5.4012918977443695e-002
      -4.7961518164355968e-002 2.6299726966253328e-001
      4.0071297900064792e-002 2.2275787374628417e-001
      -1.0701369246481698e-001 -2.9056220202432495e-002
      2.4784564593505445e-001 -2.5428710264580427e-002
      2.2183214972029164e-001 4.6656074586347088e-002
      7.0842226831099003e-002 1.4449047885102984e-001
      9.9298835377676586e-002 -8.8144291417215054e-002
      -8.9241415326975215e-002 7.7618493214989093e-002
      2.2090308730915650e-001 2.3951754315189224e-003
      1.4567329671829485e-002 2.2992620814506246e-002
      -3.2646901709568715e-002 -1.8722563309067655e-001
      1.9485599583554081e-001 3.0545068810730651e-002
      3.2117909058663255e-002 -2.1377865745613064e-001
      -1.1953402689684411e-001 -6.6473557226986030e-002
      -5.9057078429860965e-002 7.1818644585694119e-002
      -3.1616118520601338e-002 9.3940350005262838e-002
      5.5753766627902414e-002 1.5996155721698266e-001
      -5.9256633332849806e-002 -3.3324511610267571e-001
      -9.9804862670670163e-003 -9.9717187496544638e-002
      -7.2634274561664672e-002 2.9313915496930711e-002
      -1.0206498042662790e-001 -4.2352840214748735e-002
      6.1714101394662380e-001 -1.0303735535053114e-001
      -1.5184790214035809e-001 -6.4276020173038101e-002
      3.2661422155944989e-002 -4.8229552354708709e-002
      2.9305587286417989e-001 4.8302767625793019e-001
      8.7893993298787648e-003 -5.0893719774467661e-002
      -5.5571795741443622e-002 -6.6900978304290393e-001
      -2.4537109020257306e-001 1.2781023066750000e-001
      5.9775303101667443e-001 1.0555298468462862e-001
      1.4914710682773020e-002 -8.4916087823281014e-002
      -5.0068548578809535e-001 -3.8107177106530658e-002
      5.7148974487299359e-002 -2.8456295132501506e-002
      -8.1261251695193437e-002 1.1566400455454849e-001
      -5.3503490212741900e-001 -9.3037627171782789e-001
      2.4299240113747633e-002 5.3403207735163091e-002
      3.3400249367216839e-001 -2.6580230074825981e-003
      2.6354908224199347e-001 -1.0287476980517217e-001
      -5.9187680056466782e-002 -9.5165285963928634e-002
      -1.2975634456782920e-001 8.3498697422043369e-002
      7.1199238776295123e-002 2.6034775590077604e-002
      -1.7477545078212611e-001 -6.8209937044543922e-002
      -4.2941959228808745e-002 -1.9434251256042379e-001
      -1.1159225142381175e-001 1.5027698524191625e-003
      1.3370226080052622e-001 -9.4113801657487492e-002
      1.6386647600482121e-001 7.2362555647411800e-002
      -8.4564276777778336e-002 3.0018770975402492e-001
      -1.7081115228307098e-001 -1.5276296848635276e-001
      -1.5036211345102010e-001 9.5843043297569291e-002
      8.7950544994520083e-002 1.0937926277002372e-001
      5.3942145975095441e-003 -1.9073052353729400e-001
      1.1794698463097464e-001 7.9559925813674007e-003
      -1.4964335221666963e-001 1.8259535128971680e-001
      4.5564695364789569e-002 -2.7264898143937599e-001
      4.5493042938129460e-002 8.5658344269097422e-002
      8.0637043095438829e-002 2.1683053696768237e-001
      1.1126061870358173e-001 -1.0665896569384604e-001
      -9.1337392469483331e-002 1.8215404323043669e-001
      -1.2978299196691601e-001 2.0227978547181769e-001
      -1.8364456104847726e-001 -1.5018402017276303e-001
      4.9062471363646568e-002 2.1876046361799797e-001
      -5.5047514355698920e-002 -2.1800739413691501e-002
      -4.6659648056915894e-002 -7.1408941947437951e-002
      1.0010273224830232e-001 4.6033409256449352e-002
      3.9844138166764631e-002 -9.7491601273310705e-002
      -1.7134280501814675e-002 5.3821608671057897e-002
      -8.7800631443504196e-002 1.2951283531175428e-001
      4.9919358945805077e-002 -1.5128428475882333e-001
      -2.0459786813899436e-001 2.7637250495795596e-001
      -4.3690504308505291e-003 1.9246742831389305e-001
      7.4792591285231178e-002 8.7762941915207435e-002
      1.7695570396918284e-002 1.0236368128723354e-001
      -1.7210195495156805e-001 -1.0816533405659755e-001
      -2.4822630047882981e-002 7.5312099077510936e-002
      2.7741352229530957e-003 7.0671380031381726e-003
      6.3005160503989438e-002 -1.6312379021416165e-001
      -2.4667370646930681e-001 -1.6057740516447558e-001
      -9.8332447541269838e-002 -8.5049644745413724e-002
      -3.0903351531479872e-001 2.3060811002742314e-002
      -1.0666881000493719e-002 1.0186410374865106e-001
      -2.4052710867528768e-001 -5.1342587204760162e-002
      -4.3732660280223577e-003 -2.1118088085622541e-001
      1.0034828115599868e-001 -8.6631064948512665e-002
      -5.5616558699156760e-001 -4.7078519906794847e-002
      5.1621668691888466e-002 2.8085341765210370e-001
      -6.8308408236121373e-002 5.9794707288302683e-002
      1.0624887856311210e-001 -6.7443426768712247e-002
      1.9439608959069993e-001 3.0211917824446459e-003
      1.7373175344475936e-001 2.1892400943247750e-001
      8.1709018642091610e-002 -1.5015668263971427e-001
      -3.6540367413537261e-001 -1.0117262698664979e-001
      -2.4949925234344014e-002 3.6879429945590902e-002
      -9.1238568681779823e-003 -1.0968460620430426e-001
      1.4926139357497609e-001 8.6141077126598506e-002
      8.1062471147354015e-002 5.4585276555275668e-002
      -1.0246062095003647e-001 -2.6312152014202850e-001
      -1.0097080022083701e-001 1.8299905826788576e-001
      6.1925135312084288e-002 -2.4597653896076530e-001
      1.8702873328150441e-001 -2.1800405246893831e-001
      1.3599872680684269e-001 4.6605542740971742e-002
      -8.4693562421468943e-002 -1.6175935877184763e-001
      -1.1032974108238400e-001 -1.4649164698840311e-001
      -9.0423546607236657e-002 2.4201833612249513e-001
      1.6462951734407696e-001 3.7496294608849318e-002
      1.1578359453295003e-001 2.0355471984878443e-002
      -2.4901325226111028e-002 -5.3071590293112737e-002
      7.9685220303506679e-002 -6.1652145870893987e-002
      1.1621206485759908e-001 -4.1779547266866807e-002
      2.5863668319523458e-001 2.2353687862458138e-001
      -6.3680874660751686e-003 1.4019290873158685e-001
      4.5525029119246288e-002 2.2740586819069746e-002
      1.7579082344773517e-001 1.0182486448325584e-001
      1.7110093514041186e-001 1.5943642217155052e-001
      1.0645300145853313e-001 -1.6574603009324645e-001
      2.0157619807275709e-001 1.0126321289241506e-001
      -1.5777194435343955e-001 -4.9085740366785935e-001
      1.7048372908036685e-001 2.7376724973583333e-001
      1.8325631765549905e-001 5.5809965765385061e-001
      1.4119910473142322e-002 -2.0050709133462311e-001
      2.5219755372253679e-002 2.6289099231797525e-001
      1.4589483034087014e-001 -4.7323284122375325e-002
      -8.6879915286517867e-002 -1.6178958494037854e-001
      -1.1901011851474873e-001 7.2665372615637889e-003
      9.8465579640888690e-001 -2.9541936696826471e-001
      -1.1870544396558561e-001 2.4487434479779160e-001
      -2.0989361201380510e-001 -2.2157396008125074e-001
      -1.6140804185958985e-001 -8.7242708998563581e-002
      -2.4871956566117438e-002 1.5185746179989193e-001
      7.1776441208285427e-002 -4.3145732946489553e-002
      -4.6407495177904309e-002 6.5778701109724030e-002
      5.3605419502296942e-002 3.5320785893629809e-002
      -1.2756870522795613e-001 3.0166044782233562e-002
      -4.8267121895340487e-001 2.5629756665119752e-001
      -1.5133537310792486e-001 -5.2178340670998399e-002
      4.4478955250785698e-002 1.6829790503351971e-001
      -1.0202193705531724e-001 -1.1713133500266364e-003
      1.1902847206968850e-001 2.4597156673723378e-001
      2.1385437112414801e-001 1.8608129426231212e-001
      -9.5708258394504434e-002 5.9679639117303784e-003
      -6.2701849266422000e-002 2.5433067085219468e-001
      8.2569304990795248e-002 1.0808769720884515e-001
      1.1367548314428373e-001 -1.5630752221715222e-001
      5.9996488986285554e-002 2.6877259349494964e-001
      -7.3494191223354891e-002 -2.4535440976503547e-001
      7.0540256373414087e-002 9.1519282813891045e-002
      -1.4288146594736406e-001 5.9412888820441254e-002
      -8.4489275010806594e-002 9.2295616922430018e-002
      2.2651285591435592e-002 1.0139080628233624e-001
      -2.5243446872698638e-002 6.8511081267805279e-002
      -3.1653502453463572e-001 1.3987037006826958e-002
      -4.9531109903609115e-002 -1.9495037993444639e-001
      1.5273173750341273e-001 1.7062449404995056e-001
      -2.6094829083668780e-001 3.4837749286386605e-001
      -1.3741741556962828e-001 1.0502012329160584e-001
      2.2325039213836687e-001 1.4950512976833349e-001
      -1.3163117229205279e-001 -5.1158175676175956e-002
      1.5174667050932289e-001 3.5778959750296706e-002
      -1.0509676807557601e-002 1.3490144444011742e-001
      -4.8881428248297054e-002 -1.9724683450471731e-001
      -4.8671618456452864e-001 3.8509594549280041e-001
      5.8357129205271183e-002 5.7309168555889078e-002
      -1.2868978895206673e-001 -4.3748344005998685e-001
      1.4009702405663311e+000 1.5893022211571923e-003
      -5.3294531646644709e-003 -4.3214559486436382e-001
      5.2823354152530415e-002 3.3265995567782120e-001
      1.2156124284435585e+000 1.1737394584789569e+000
      -1.2484490162849816e-001 -1.3137412561455453e-001
      2.1919570910320697e-002 -1.1598378617494707e+000
      1.3794367352514983e-001 1.9044189941099593e-001
      9.3877331307895362e-001 -4.3000229207208862e-002
      1.8450210056457257e-002 -8.2767130590240851e-002
      -4.8940136748661073e-001 5.0015202169679092e-002
      -1.4388027810484688e-001 2.6945798438469105e-002
      -1.3659763208999363e-002 -9.8952798602386077e-003
      -5.8487349932487154e-001 -7.7970925173364758e-001
      -1.0792279413483398e-001 -2.0169509472876782e-001
      2.2788950915097944e-001 -5.2551831517012981e-001
      -4.6733943632041441e-001 7.0334920749770061e-002
      7.1216807784758929e-001 1.1935485345282879e-001
      9.0562904288573554e-001 1.0497380094386324e-001
      -7.8270947197294286e-003 -2.2452503734794269e-002
      1.9923227305255095e-001 3.4251439941782963e-001
      4.5384004721140819e-001 4.8114888445086923e-001
      -4.1702034758912279e-002 -1.2359698029487076e-001
      3.1835508384433281e-001 -1.2628332927967556e-001
      -1.0934446069129340e-001 -1.3956282249606359e-002
      1.9349651017558457e-002 6.6234838162507625e-001
      -8.2648774044616000e-003 -9.9612699932243076e-001
      1.4166032391134996e-002 5.8794638936857206e-002
      7.0102719403382452e-001 -8.5955036060008802e-002
      -1.7377646089192463e-002 -6.3274871877475065e-003
