<?xml version="1.0"?>
<opencv_storage>
<opencv_ml_svm>
  <format>3</format>
  <svmType>C_SVC</svmType>
  <kernel>
    <type>LINEAR</type></kernel>
  <C>1.</C>
  <term_criteria><iterations>20000</iterations></term_criteria>
  <var_count>172</var_count>
  <class_count>2</class_count>
  <class_labels type_id="opencv-matrix">
    <rows>2</rows>
    <cols>1</cols>
    <dt>i</dt>
    <data>
      0 1</data></class_labels>
  <sv_total>1</sv_total>
  <support_vectors>
    <_>
      -6.60220981e-002 9.68523473e-002 -5.39255917e-001 -5.31545639e-001
      3.24080326e-002 5.21688879e-001 4.53872204e-001 -8.30124497e-001
      -1.61349773e-001 -1.37162417e-001 -3.69503289e-001
      -7.04810679e-001 8.06027532e-001 5.97210467e-001 3.15552562e-001
      -1.00251749e-001 -3.79261817e-003 -4.33121234e-001 2.42060404e-002
      -2.61759967e-001 -5.88732958e-001 3.30322608e-002 5.08578897e-001
      -4.83575225e-001 1.06067538e+000 -1.25538933e+000 -1.32515877e-001
      -1.17036808e+000 -4.21165019e-001 -9.52094257e-001
      -3.07067275e-001 4.84212160e-001 1.44296873e+000 1.07839775e+000
      -7.53321946e-002 -7.09593832e-001 9.19771492e-002 -2.33414114e-001
      3.24536055e-001 1.32918727e+000 6.48900032e-001 -5.05286992e-001
      -6.14085317e-001 -1.91693917e-001 3.72137010e-001 1.76554441e-001
      2.63840705e-001 2.84705371e-001 -4.48928237e-001 -4.49458152e-001
      -1.73275113e-001 6.14699841e-001 -1.60736874e-001 4.49545719e-002
      -3.87145370e-001 3.35396886e-001 2.78553843e-001 -1.41044155e-001
      4.26015317e-001 -7.89290488e-001 -2.21960753e-001 7.41242548e-004
      9.16815400e-002 5.01335740e-001 6.64762259e-001 -7.45668352e-001
      -1.06709391e-001 1.24458663e-001 -1.36006147e-001 -5.22491693e-001
      2.74126995e-002 -3.12966436e-001 2.32787415e-001 1.02457233e-001
      5.38221776e-001 -6.74038589e-001 -1.86910361e-001 -4.13336128e-001
      2.28227124e-001 9.33574200e-001 8.99037957e-001 4.62095112e-001
      -1.27387464e-001 -6.27556384e-001 1.82926059e-001 5.67043543e-001
      -9.02671278e-001 -2.02360183e-001 -5.13300747e-002
      -1.18694401e+000 -3.53378266e-001 -3.74030530e-001 4.06405151e-001
      -4.95755792e-001 -4.24662918e-001 3.12895805e-001 2.49942228e-001
      -1.70301303e-001 -1.37600198e-001 4.15386289e-001 9.12179589e-001
      1.34696946e-001 2.46038735e-001 7.49880195e-001 -1.52212754e-002
      -6.24832958e-002 -1.27360635e-002 -7.27743134e-002 2.54687518e-001
      4.10013229e-001 -5.50779812e-002 5.09964943e-001 -1.64280966e-001
      -6.24091178e-002 2.24650111e-002 -1.47760853e-001 -1.43935651e-001
      -7.74514437e-001 -4.58640277e-001 3.09277058e-001 1.71960101e-001
      -5.29550970e-001 -8.10997188e-001 -7.07338572e-001
      -4.01684642e-001 -1.60584189e-002 1.18856970e-002 -1.51258484e-001
      4.86172646e-001 2.47885719e-001 6.75881565e-001 4.60026383e-001
      -7.48031437e-001 -5.49857140e-001 -7.45531499e-001 1.69609582e+000
      5.59125781e-001 -4.87665683e-001 -6.45585731e-002 -3.65658641e-001
      7.41609693e-001 5.56120932e-001 3.52595337e-002 -7.69548237e-001
      6.92355514e-001 1.18633159e-001 -6.17266297e-001 -9.81376171e-002
      -5.31337298e-002 -8.49706605e-002 7.85447285e-002 -1.01620682e-001
      -5.57660699e-001 -3.06387156e-001 -2.08168998e-001
      -4.67459597e-002 -3.85605767e-002 -5.21066844e-001 3.01835053e-002
      -2.72106588e-001 2.17368037e-001 3.91524166e-001 4.84934688e-001
      1.90906569e-001 -1.32765412e-001 -2.30532270e-002 5.87242544e-001
      -1.87053144e-001 -7.29683042e-001 8.21150959e-001 -8.14370453e-001
      3.93944323e-001</_></support_vectors>
  <uncompressed_sv_total>115</uncompressed_sv_total>
  <uncompressed_support_vectors>
    <_>
      0. 3.84615399e-002 1.92307696e-001 2.30769232e-001 1.15384616e-001
      1.53846160e-001 1.92307696e-001 1.15384616e-001 7.69230798e-002 0.
      0. 0. 0. 0. 3.84615399e-002 0. 0. 0. 0. 0. 0. 0. 3.84615399e-002
      1.15384616e-001 3.46153855e-001 3.84615391e-001 4.61538464e-001
      4.61538464e-001 5.00000000e-001 3.07692319e-001 3.07692319e-001
      4.61538464e-001 5.76923072e-001 6.53846145e-001 8.46153855e-001 1.
      8.84615362e-001 8.07692289e-001 7.69230783e-001 6.92307711e-001
      4.61538464e-001 4.23076928e-001 5.76923072e-001 6.92307711e-001
      6.53846145e-001 6.92307711e-001 7.30769217e-001 6.15384638e-001
      3.84615391e-001 4.61538464e-001 5.00000000e-001 3.46153855e-001
      7.69230798e-002 7.69230798e-002 1.15384616e-001 1.15384616e-001
      1.92307696e-001 2.69230783e-001 1.92307696e-001 4.23076928e-001
      4.61538464e-001 3.84615391e-001 3.07692319e-001 3.84615391e-001
      3.46153855e-001 1.92307696e-001 1.92307696e-001 2.30769232e-001
      4.23076928e-001 5.76923072e-001 8.07692289e-001 9.61538434e-001
      7.69230783e-001 7.30769217e-001 8.46153855e-001 9.23076928e-001
      8.46153855e-001 8.46153855e-001 9.23076928e-001 8.07692289e-001
      6.53846145e-001 6.92307711e-001 6.53846145e-001 7.30769217e-001
      6.92307711e-001 5.38461566e-001 1.92307696e-001 1.92307696e-001
      2.69230783e-001 4.23076928e-001 4.23076928e-001 1.15384616e-001
      4.23076928e-001 5.38461566e-001 6.15384638e-001 5.38461566e-001
      5.38461566e-001 5.00000000e-001 4.61538464e-001 4.23076928e-001
      1.53846160e-001 1.92307696e-001 7.69230798e-002 3.84615399e-002
      3.84615399e-002 3.84615399e-002 3.84615399e-002 3.84615399e-002
      3.84615399e-002 3.84615399e-002 1.15384616e-001 1.53846160e-001
      1.15384616e-001 1.15384616e-001 1.15384616e-001 1.92307696e-001
      1.53846160e-001 2.30769232e-001 1.53846160e-001 1.53846160e-001
      3.84615391e-001 6.15384638e-001 6.15384638e-001 5.76923072e-001
      6.15384638e-001 6.53846145e-001 4.61538464e-001 5.76923072e-001
      6.15384638e-001 5.76923072e-001 6.53846145e-001 6.15384638e-001
      3.46153855e-001 1.15384616e-001 7.69230798e-002 0. 3.33333343e-001
      2.85714298e-001 5.07936537e-001 3.80952388e-001 1.42857149e-001
      1.26984134e-001 1.90476194e-001 3.49206358e-001 5.55555582e-001
      5.23809552e-001 5.55555582e-001 6.98412716e-001 8.25396836e-001
      7.93650806e-001 8.25396836e-001 8.25396836e-001 9.36507940e-001 1.
      9.36507940e-001 9.84126985e-001 9.52380955e-001 9.20634925e-001
      9.04761910e-001 8.09523821e-001 6.66666687e-001 5.55555582e-001
      5.55555582e-001 4.92063493e-001 4.44444448e-001 3.33333343e-001
      1.90476194e-001 1.74603179e-001 1.11111112e-001 3.96825403e-001
      6.03174627e-001 7.61904776e-001</_>
    <_>
      0. 0. 0. 0. 0. 0. 0. 0. 3.22580636e-002 3.22580636e-002
      1.29032254e-001 1.29032254e-001 1.61290318e-001 9.67741907e-002
      3.22580636e-002 0. 0. 0. 0. 0. 0. 0. 0. 0. 0. 0. 1.29032254e-001
      7.74193525e-001 8.70967746e-001 9.03225780e-001 8.70967746e-001
      6.12903237e-001 4.51612890e-001 4.19354826e-001 4.19354826e-001
      3.87096763e-001 3.22580636e-001 2.90322572e-001 2.58064508e-001
      2.58064508e-001 2.25806445e-001 2.58064508e-001 3.54838699e-001
      3.87096763e-001 3.54838699e-001 3.87096763e-001 4.51612890e-001
      4.51612890e-001 4.51612890e-001 4.51612890e-001 4.51612890e-001
      4.19354826e-001 3.87096763e-001 3.87096763e-001 3.54838699e-001
      3.54838699e-001 3.54838699e-001 3.22580636e-001 2.90322572e-001
      2.58064508e-001 2.58064508e-001 2.58064508e-001 2.90322572e-001
      2.58064508e-001 2.58064508e-001 2.90322572e-001 2.90322572e-001
      2.58064508e-001 3.22580636e-001 3.87096763e-001 5.16129017e-001
      6.12903237e-001 8.38709652e-001 1. 1. 9.67741907e-001
      8.38709652e-001 7.74193525e-001 7.41935492e-001 7.41935492e-001
      6.45161271e-001 7.41935492e-001 6.12903237e-001 5.48387110e-001
      2.58064508e-001 1.29032254e-001 9.67741907e-002 6.45161271e-002 0.
      0. 0. 0. 6.45161271e-002 9.67741907e-002 9.67741907e-002
      9.67741907e-002 9.67741907e-002 1.61290318e-001 1.61290318e-001
      1.29032254e-001 1.29032254e-001 1.61290318e-001 1.61290318e-001
      9.67741907e-002 6.45161271e-002 1.29032254e-001 1.93548381e-001
      1.29032254e-001 6.45161271e-002 9.67741907e-002 1.93548381e-001
      2.90322572e-001 4.19354826e-001 4.83870953e-001 6.45161271e-001
      6.45161271e-001 6.77419364e-001 6.77419364e-001 6.77419364e-001
      6.45161271e-001 5.80645144e-001 5.16129017e-001 3.87096763e-001
      2.90322572e-001 9.67741907e-002 1.29032254e-001 6.45161271e-002
      6.45161271e-002 3.22580636e-002 0. 0. 0. 0. 0. 0. 0.
      3.84615391e-001 5.76923072e-001 5.76923072e-001 5.19230783e-001
      5.57692289e-001 6.73076928e-001 7.88461566e-001 8.07692289e-001
      7.11538434e-001 4.80769217e-001 5.00000000e-001 5.57692289e-001
      6.53846145e-001 8.46153855e-001 8.26923072e-001 7.50000000e-001
      7.30769217e-001 7.69230783e-001 8.46153855e-001 9.42307711e-001
      7.11538434e-001 7.11538434e-001 8.26923072e-001 8.84615362e-001
      9.03846145e-001 1. 1. 1. 9.23076928e-001 9.03846145e-001
      5.19230783e-001 1.15384616e-001 0. 0. 0. 0.</_>
    <_>
      0. 0. 1.37931034e-001 3.79310340e-001 5.86206913e-001
      7.93103456e-001 8.27586234e-001 7.58620679e-001 4.13793117e-001
      3.79310340e-001 5.51724136e-001 8.96551728e-001 8.62068951e-001
      5.51724136e-001 3.79310340e-001 3.10344815e-001 0. 0. 0. 0.
      9.65517223e-001 1. 1. 1. 4.13793117e-001 3.79310340e-001
      3.79310340e-001 3.79310340e-001 3.79310340e-001 4.82758611e-001
      6.20689631e-001 1. 9.31034505e-001 7.24137902e-001 5.17241359e-001
      0. 0. 0. 1.03448279e-001 2.41379306e-001 2.75862068e-001
      2.75862068e-001 3.10344815e-001 0. 0. 0. 2.41379306e-001
      3.79310340e-001 5.51724136e-001 5.17241359e-001 6.20689631e-001
      5.51724136e-001 4.82758611e-001 5.17241359e-001 5.17241359e-001
      5.51724136e-001 5.86206913e-001 6.55172408e-001 5.86206913e-001
      5.51724136e-001 4.13793117e-001 0. 0. 0. 1.72413796e-001
      4.48275864e-001 5.51724136e-001 6.89655185e-001 6.55172408e-001
      5.86206913e-001 5.86206913e-001 4.82758611e-001 4.82758611e-001
      5.17241359e-001 5.51724136e-001 6.89655185e-001 6.20689631e-001
      5.51724136e-001 4.13793117e-001 1.03448279e-001 1.03448279e-001
      6.89655170e-002 0. 3.79310340e-001 5.51724136e-001 6.20689631e-001
      7.24137902e-001 6.55172408e-001 5.86206913e-001 5.51724136e-001
      5.17241359e-001 5.51724136e-001 5.17241359e-001 5.86206913e-001
      6.55172408e-001 4.82758611e-001 4.13793117e-001 2.75862068e-001 0.
      0. 0. 5.51724136e-001 7.24137902e-001 8.27586234e-001
      8.62068951e-001 6.55172408e-001 4.82758611e-001 3.79310340e-001
      4.48275864e-001 4.48275864e-001 5.51724136e-001 6.20689631e-001
      8.62068951e-001 8.27586234e-001 6.89655185e-001 4.82758611e-001
      1.03448279e-001 1.03448279e-001 6.89655170e-002 1.03448279e-001
      1.72413796e-001 3.79310340e-001 5.86206913e-001 7.24137902e-001
      8.62068951e-001 7.58620679e-001 5.86206913e-001 5.86206913e-001
      7.58620679e-001 7.93103456e-001 6.89655185e-001 5.86206913e-001
      3.79310340e-001 2.06896558e-001 0. 0. 0. 3.70370373e-002
      2.46913582e-002 0. 0. 2.46913582e-002 1.23456791e-001
      5.92592597e-001 7.40740716e-001 8.51851881e-001 8.76543224e-001
      7.16049373e-001 6.91358030e-001 6.04938269e-001 5.55555582e-001
      5.18518507e-001 5.55555582e-001 6.41975284e-001 7.53086448e-001
      9.25925910e-001 1. 9.75308657e-001 8.51851881e-001 7.77777791e-001
      6.91358030e-001 6.66666687e-001 6.91358030e-001 7.16049373e-001
      7.28395045e-001 7.16049373e-001 7.16049373e-001 7.65432119e-001
      9.50617313e-001 9.50617313e-001 8.39506149e-001 6.17283940e-001</_>
    <_>
      6.25000000e-001 6.66666687e-001 6.66666687e-001 7.08333313e-001
      7.50000000e-001 7.91666687e-001 8.33333313e-001 8.33333313e-001
      9.16666687e-001 9.16666687e-001 9.58333313e-001 1. 1. 1.
      9.58333313e-001 9.16666687e-001 9.16666687e-001 8.75000000e-001
      8.75000000e-001 9.58333313e-001 9.58333313e-001 1. 7.91666687e-001
      5.83333313e-001 4.16666657e-001 2.50000000e-001 2.50000000e-001
      2.08333328e-001 1.25000000e-001 8.33333358e-002 2.91666657e-001
      4.16666657e-001 4.16666657e-001 4.58333343e-001 4.58333343e-001
      4.16666657e-001 5.00000000e-001 5.00000000e-001 3.75000000e-001
      2.08333328e-001 1.66666672e-001 1.66666672e-001 2.08333328e-001
      1.66666672e-001 2.08333328e-001 2.08333328e-001 2.08333328e-001
      2.91666657e-001 3.33333343e-001 5.41666687e-001 5.41666687e-001
      4.58333343e-001 4.58333343e-001 4.16666657e-001 3.33333343e-001
      1.25000000e-001 1.66666672e-001 1.66666672e-001 8.33333358e-002 0.
      0. 0. 8.33333358e-002 3.33333343e-001 3.75000000e-001
      4.16666657e-001 3.33333343e-001 2.91666657e-001 1.25000000e-001 0.
      0. 0. 0. 0. 0. 0. 0. 0. 0. 0. 0. 0. 0. 0. 0. 0. 0. 8.33333358e-002
      1.25000000e-001 1.25000000e-001 1.25000000e-001 1.25000000e-001
      8.33333358e-002 0. 0. 0. 0. 0. 0. 0. 0. 0. 0. 0. 0. 0. 0. 0. 0. 0.
      0. 0. 0. 0. 0. 0. 0. 0. 0. 0. 0. 0. 0. 0. 0. 1.25000000e-001
      2.50000000e-001 2.91666657e-001 2.91666657e-001 3.33333343e-001
      2.91666657e-001 2.91666657e-001 2.08333328e-001 2.08333328e-001
      8.33333358e-002 0. 3.24999988e-001 5.50000012e-001 8.00000012e-001
      9.49999988e-001 9.49999988e-001 9.25000012e-001 9.25000012e-001
      8.24999988e-001 8.24999988e-001 8.99999976e-001 8.99999976e-001
      8.24999988e-001 8.24999988e-001 9.49999988e-001 1. 9.25000012e-001
      8.75000000e-001 9.25000012e-001 1. 9.75000024e-001 8.50000024e-001
      7.25000024e-001 5.50000012e-001 5.74999988e-001 4.74999994e-001
      4.00000006e-001 3.49999994e-001 3.00000012e-001 2.50000004e-002 0.
      0. 5.00000007e-002 7.50000030e-002 7.50000030e-002 5.00000007e-002
      0.</_>
    <_>
      5.83333313e-001 1. 6.11111104e-001 3.88888896e-001 1.38888896e-001
      5.55555560e-002 1.38888896e-001 1.38888896e-001 3.88888896e-001
      4.72222209e-001 1.66666672e-001 1.11111112e-001 1.11111112e-001
      4.16666657e-001 5.55555582e-001 6.38888896e-001 1. 1. 1.
      6.11111104e-001 2.77777780e-002 2.77777780e-002 2.77777780e-002
      2.77777780e-002 6.38888896e-001 6.38888896e-001 6.38888896e-001
      5.83333313e-001 6.11111104e-001 6.11111104e-001 5.55555582e-001
      5.55555560e-002 8.33333358e-002 1.38888896e-001 1.94444448e-001
      9.16666687e-001 9.44444418e-001 1. 8.88888896e-001 8.05555582e-001
      8.05555582e-001 8.88888896e-001 1. 1. 1. 6.94444418e-001
      5.55555582e-001 3.61111104e-001 3.05555552e-001 2.22222224e-001
      3.33333343e-001 3.33333343e-001 3.88888896e-001 3.61111104e-001
      4.16666657e-001 3.61111104e-001 3.05555552e-001 4.72222209e-001
      5.55555582e-001 6.66666687e-001 9.16666687e-001 1. 1. 1. 1. 1. 1.
      1. 1. 5.55555560e-002 2.77777780e-002 2.77777780e-002
      2.77777780e-002 9.44444418e-001 1. 1. 1. 1. 1. 1. 1.
      8.88888896e-001 6.11111104e-001 4.16666657e-001 3.33333343e-001
      2.50000000e-001 3.33333343e-001 3.61111104e-001 3.33333343e-001
      3.61111104e-001 3.61111104e-001 3.61111104e-001 2.77777791e-001
      3.61111104e-001 5.27777791e-001 6.66666687e-001 7.50000000e-001 1.
      1. 9.72222209e-001 8.61111104e-001 8.33333313e-001 8.33333313e-001
      7.77777791e-001 7.77777791e-001 5.55555582e-001 3.61111104e-001
      2.50000000e-001 1.66666672e-001 5.55555560e-002 2.77777791e-001
      5.27777791e-001 6.38888896e-001 7.50000000e-001 8.05555582e-001 1.
      1. 1. 7.22222209e-001 6.38888896e-001 5.55555582e-001
      5.55555582e-001 4.44444448e-001 4.44444448e-001 3.88888896e-001
      3.05555552e-001 3.05555552e-001 2.77777791e-001 5.55555560e-002
      1.11111112e-001 2.50000000e-001 3.88888896e-001 7.50000000e-001 1.
      8.05555582e-001 0. 5.34883738e-001 4.96124029e-001 4.72868204e-001
      4.57364351e-001 4.72868204e-001 5.03875971e-001 5.89147270e-001
      6.35658920e-001 6.89922452e-001 6.89922452e-001 7.20930219e-001
      7.28682160e-001 7.05426335e-001 6.43410861e-001 5.81395328e-001
      5.34883738e-001 5.34883738e-001 5.34883738e-001 5.34883738e-001
      5.34883738e-001 6.12403095e-001 6.20155036e-001 6.20155036e-001
      5.89147270e-001 5.89147270e-001 5.96899211e-001 5.81395328e-001
      5.58139563e-001 4.57364351e-001 4.80620146e-001 4.88372087e-001
      5.19379854e-001 5.58139563e-001 6.51162803e-001 8.60465109e-001 1.</_>
    <_>
      1.29032254e-001 9.67741907e-002 3.22580636e-002 6.45161271e-002
      9.67741907e-002 6.45161271e-002 9.67741907e-002 3.22580636e-002
      6.45161271e-002 6.45161271e-002 6.45161271e-002 6.45161271e-002
      9.67741907e-002 9.67741907e-002 9.67741907e-002 6.45161271e-002
      9.67741907e-002 9.67741907e-002 9.67741907e-002 9.67741907e-002
      9.67741907e-002 6.45161271e-002 9.67741907e-002 9.67741907e-002
      9.67741907e-002 9.67741907e-002 9.67741907e-002 1.29032254e-001
      1.29032254e-001 1.29032254e-001 1.29032254e-001 1.61290318e-001
      1.29032254e-001 1.29032254e-001 1.93548381e-001 1.61290318e-001
      1.29032254e-001 1.61290318e-001 1.61290318e-001 1.29032254e-001
      1.61290318e-001 1.61290318e-001 1.29032254e-001 1.93548381e-001
      1.61290318e-001 9.67741907e-002 1.29032254e-001 1.29032254e-001
      9.67741907e-002 9.67741907e-002 1.29032254e-001 1.29032254e-001
      9.67741907e-002 9.67741907e-002 1.29032254e-001 1.29032254e-001
      9.67741907e-002 1.29032254e-001 1.29032254e-001 6.45161271e-002
      6.45161271e-002 6.45161271e-002 1.93548381e-001 4.83870953e-001
      6.12903237e-001 5.80645144e-001 8.06451619e-001 8.70967746e-001
      8.70967746e-001 9.35483873e-001 1. 1. 1. 9.67741907e-001
      9.67741907e-001 9.67741907e-001 9.03225780e-001 9.67741907e-001
      9.67741907e-001 9.35483873e-001 8.70967746e-001 8.70967746e-001
      8.38709652e-001 7.74193525e-001 7.09677398e-001 8.06451619e-001
      8.70967746e-001 9.35483873e-001 9.03225780e-001 9.03225780e-001
      8.70967746e-001 8.38709652e-001 8.38709652e-001 8.06451619e-001
      7.74193525e-001 7.41935492e-001 7.09677398e-001 7.09677398e-001
      7.09677398e-001 7.09677398e-001 7.74193525e-001 8.06451619e-001
      8.06451619e-001 7.74193525e-001 7.74193525e-001 7.74193525e-001
      7.74193525e-001 8.06451619e-001 8.70967746e-001 8.70967746e-001
      9.35483873e-001 9.35483873e-001 9.67741907e-001 9.67741907e-001
      9.35483873e-001 9.67741907e-001 9.35483873e-001 9.67741907e-001
      9.03225780e-001 8.38709652e-001 8.06451619e-001 8.06451619e-001
      8.38709652e-001 8.38709652e-001 8.38709652e-001 7.74193525e-001
      8.06451619e-001 7.74193525e-001 7.09677398e-001 6.77419364e-001
      5.80645144e-001 4.83870953e-001 4.19354826e-001 1.93548381e-001 0.
      0. 1.63265303e-001 1.93877548e-001 2.44897962e-001 5.51020384e-001
      6.22448981e-001 6.63265288e-001 6.53061211e-001 6.53061211e-001
      7.04081655e-001 7.34693885e-001 6.83673441e-001 7.44897962e-001
      7.44897962e-001 7.44897962e-001 8.87755096e-001 1. 9.08163249e-001
      8.67346942e-001 8.87755096e-001 8.06122422e-001 7.14285731e-001
      6.93877578e-001 6.83673441e-001 6.83673441e-001 6.63265288e-001
      5.81632674e-001 5.00000000e-001 5.10204077e-001 4.79591846e-001
      4.59183663e-001 3.67346942e-001 2.75510192e-001 2.65306115e-001
      1.42857149e-001 5.10204099e-002 0.</_>
    <_>
      2.00000003e-001 3.66666675e-001 3.66666675e-001 2.66666681e-001
      2.33333334e-001 2.66666681e-001 4.00000006e-001 4.00000006e-001
      4.33333337e-001 4.66666669e-001 5.00000000e-001 4.33333337e-001
      3.33333343e-001 4.33333337e-001 5.00000000e-001 6.66666687e-001
      5.66666663e-001 4.66666669e-001 3.66666675e-001 2.66666681e-001
      2.00000003e-001 2.33333334e-001 1.33333340e-001 1.00000001e-001 0.
      0. 0. 0. 0. 0. 0. 0. 0. 3.33333351e-002 6.66666701e-002
      3.33333351e-002 6.66666701e-002 1.33333340e-001 1.33333340e-001
      1.00000001e-001 6.66666701e-002 0. 0. 0. 0. 3.33333351e-002
      2.66666681e-001 2.33333334e-001 2.00000003e-001 1.33333340e-001
      1.66666672e-001 1.66666672e-001 1.00000001e-001 1.00000001e-001
      1.00000001e-001 3.33333343e-001 4.00000006e-001 4.33333337e-001
      5.33333361e-001 4.33333337e-001 3.66666675e-001 3.00000012e-001
      2.33333334e-001 6.66666701e-002 0. 0. 1.33333340e-001
      2.00000003e-001 3.33333343e-001 4.33333337e-001 5.33333361e-001
      5.33333361e-001 5.00000000e-001 3.33333343e-001 2.33333334e-001
      2.00000003e-001 1.66666672e-001 6.66666701e-002 1.00000001e-001
      1.00000001e-001 6.66666701e-002 0. 0. 0. 1.00000001e-001
      2.00000003e-001 2.33333334e-001 3.00000012e-001 3.33333343e-001
      2.66666681e-001 2.66666681e-001 3.33333343e-001 2.66666681e-001
      2.33333334e-001 2.33333334e-001 2.00000003e-001 1.66666672e-001
      1.33333340e-001 1.33333340e-001 2.00000003e-001 2.66666681e-001
      3.00000012e-001 1.33333340e-001 2.66666681e-001 3.66666675e-001
      3.00000012e-001 3.00000012e-001 2.66666681e-001 2.66666681e-001
      3.00000012e-001 2.33333334e-001 1.33333340e-001 2.00000003e-001
      2.00000003e-001 3.00000012e-001 5.00000000e-001 5.33333361e-001
      6.33333325e-001 8.00000012e-001 1. 9.33333337e-001 8.66666675e-001
      5.66666663e-001 1.66666672e-001 1.00000001e-001 1.33333340e-001
      1.66666672e-001 3.33333343e-001 3.00000012e-001 3.00000012e-001
      4.33333337e-001 6.00000024e-001 6.66666687e-001 6.99999988e-001
      3.33333343e-001 0. 5.79999983e-001 8.19999993e-001 8.19999993e-001
      8.60000014e-001 9.20000017e-001 7.79999971e-001 5.79999983e-001
      4.60000008e-001 3.60000014e-001 2.39999995e-001 2.59999990e-001
      3.79999995e-001 8.00000012e-001 9.80000019e-001 9.39999998e-001
      8.99999976e-001 6.20000005e-001 5.79999983e-001 3.79999995e-001
      2.59999990e-001 3.00000012e-001 2.39999995e-001 3.40000004e-001
      4.39999998e-001 5.60000002e-001 7.79999971e-001 8.39999974e-001 1.
      1. 8.39999974e-001 6.00000024e-001 4.60000008e-001 3.79999995e-001
      3.60000014e-001 2.39999995e-001 2.59999990e-001</_>
    <_>
      2.66666681e-001 3.00000012e-001 3.00000012e-001 3.33333343e-001
      3.33333343e-001 3.66666675e-001 3.33333343e-001 3.66666675e-001
      3.66666675e-001 4.00000006e-001 4.00000006e-001 4.33333337e-001
      4.33333337e-001 4.33333337e-001 4.33333337e-001 4.33333337e-001
      4.33333337e-001 4.33333337e-001 4.33333337e-001 4.00000006e-001
      4.00000006e-001 4.00000006e-001 3.66666675e-001 3.33333343e-001
      3.33333343e-001 3.33333343e-001 3.33333343e-001 3.33333343e-001
      3.33333343e-001 3.33333343e-001 3.00000012e-001 3.00000012e-001
      3.00000012e-001 3.00000012e-001 3.00000012e-001 2.66666681e-001
      2.33333334e-001 2.00000003e-001 2.00000003e-001 1.33333340e-001
      1.00000001e-001 0. 0. 3.33333351e-002 1.00000001e-001
      1.66666672e-001 1.66666672e-001 2.00000003e-001 2.33333334e-001
      2.66666681e-001 3.33333343e-001 4.00000006e-001 4.00000006e-001
      4.00000006e-001 4.00000006e-001 4.33333337e-001 4.00000006e-001
      4.00000006e-001 4.33333337e-001 4.33333337e-001 4.33333337e-001
      4.33333337e-001 4.33333337e-001 4.33333337e-001 4.33333337e-001
      4.33333337e-001 4.00000006e-001 4.00000006e-001 4.00000006e-001
      3.66666675e-001 3.00000012e-001 3.00000012e-001 3.00000012e-001
      3.00000012e-001 2.66666681e-001 2.00000003e-001 1.66666672e-001
      1.66666672e-001 1.66666672e-001 4.00000006e-001 6.00000024e-001
      8.00000012e-001 9.66666639e-001 9.66666639e-001 1. 1.
      8.99999976e-001 9.66666639e-001 9.66666639e-001 9.66666639e-001 1.
      1. 1. 1. 1. 1. 9.66666639e-001 9.66666639e-001 9.66666639e-001
      9.66666639e-001 9.66666639e-001 9.66666639e-001 9.66666639e-001 1.
      9.66666639e-001 9.66666639e-001 9.66666639e-001 9.66666639e-001
      9.66666639e-001 9.66666639e-001 9.66666639e-001 9.66666639e-001
      9.66666639e-001 9.66666639e-001 9.66666639e-001 9.66666639e-001
      9.66666639e-001 1. 1. 9.66666639e-001 1. 1. 1. 9.66666639e-001 1.
      1. 1. 1. 1. 1. 1. 1. 6.99999988e-001 2.66666681e-001 0. 0. 0.
      1.57480314e-002 1.73228353e-001 2.91338593e-001 4.01574790e-001
      4.09448832e-001 4.09448832e-001 4.17322844e-001 4.17322844e-001
      4.09448832e-001 4.09448832e-001 4.09448832e-001 4.09448832e-001
      4.17322844e-001 4.17322844e-001 4.17322844e-001 4.17322844e-001
      4.25196856e-001 4.88188982e-001 6.06299222e-001 6.85039341e-001
      7.32283473e-001 8.50393713e-001 9.13385808e-001 9.37007844e-001
      9.52755928e-001 1. 9.92125988e-001 9.84251976e-001 9.68503952e-001
      9.52755928e-001 6.22047246e-001 1.65354326e-001 8.66141766e-002 0.
      0.</_>
    <_>
      0. 2.25806445e-001 2.90322572e-001 3.54838699e-001 4.19354826e-001
      5.80645144e-001 4.83870953e-001 2.90322572e-001 2.90322572e-001
      6.45161271e-001 7.74193525e-001 4.83870953e-001 2.58064508e-001
      1.61290318e-001 6.45161271e-002 0. 0. 0. 0. 9.35483873e-001 1. 1.
      5.16129017e-001 9.67741907e-002 1.29032254e-001 1.29032254e-001
      1.29032254e-001 1.29032254e-001 1.29032254e-001 1.29032254e-001
      1.29032254e-001 1.29032254e-001 9.67741907e-002 3.22580636e-002 0.
      0. 0. 0. 3.22580636e-002 9.67741907e-002 9.67741907e-002 0. 0. 0.
      0. 8.06451619e-001 1. 1. 8.70967746e-001 2.90322572e-001
      2.25806445e-001 2.25806445e-001 2.25806445e-001 1.93548381e-001
      1.61290318e-001 2.25806445e-001 5.80645144e-001 1. 1.
      9.67741907e-001 0. 0. 0. 0. 2.58064508e-001 4.51612890e-001
      5.80645144e-001 6.12903237e-001 4.83870953e-001 5.16129017e-001
      4.19354826e-001 4.19354826e-001 4.19354826e-001 4.51612890e-001
      4.51612890e-001 5.48387110e-001 3.87096763e-001 2.90322572e-001
      9.67741907e-002 0. 0. 0. 0. 7.09677398e-001 8.06451619e-001
      9.03225780e-001 2.58064508e-001 2.58064508e-001 2.25806445e-001
      2.58064508e-001 2.25806445e-001 2.25806445e-001 2.58064508e-001
      2.90322572e-001 8.70967746e-001 8.06451619e-001 7.41935492e-001
      3.22580636e-001 0. 0. 0. 6.45161271e-002 4.83870953e-001
      7.41935492e-001 8.38709652e-001 5.80645144e-001 4.83870953e-001
      3.54838699e-001 2.90322572e-001 3.22580636e-001 4.19354826e-001
      4.83870953e-001 7.74193525e-001 8.38709652e-001 6.12903237e-001
      3.54838699e-001 0. 0. 0. 0. 0. 6.45161271e-001 7.09677398e-001
      6.77419364e-001 3.54838699e-001 3.22580636e-001 2.90322572e-001
      2.90322572e-001 2.90322572e-001 3.22580636e-001 3.54838699e-001
      5.16129017e-001 5.80645144e-001 4.83870953e-001 1.61290318e-001 0.
      2.11267605e-001 6.47887349e-001 8.16901386e-001 9.71830964e-001
      7.74647892e-001 6.33802831e-001 5.91549277e-001 5.63380301e-001
      5.63380301e-001 5.63380301e-001 5.35211265e-001 5.21126747e-001
      7.04225361e-001 7.32394338e-001 7.88732409e-001 7.32394338e-001
      7.18309879e-001 6.19718313e-001 6.33802831e-001 6.05633795e-001
      5.77464759e-001 5.49295783e-001 5.35211265e-001 5.35211265e-001
      5.63380301e-001 5.91549277e-001 6.61971807e-001 9.29577470e-001 1.
      8.02816927e-001 5.07042229e-001 0. 0. 0. 0. 0.</_>
    <_>
      7.27272749e-001 6.96969688e-001 6.36363626e-001 4.84848499e-001
      5.45454562e-001 6.66666687e-001 5.75757563e-001 6.96969688e-001
      7.87878811e-001 7.57575750e-001 6.06060624e-001 6.36363626e-001
      7.27272749e-001 7.57575750e-001 6.96969688e-001 5.45454562e-001
      5.15151501e-001 3.93939406e-001 4.24242437e-001 5.15151501e-001
      6.06060624e-001 5.45454562e-001 5.15151501e-001 6.66666687e-001
      5.75757563e-001 6.66666687e-001 7.57575750e-001 7.27272749e-001
      6.96969688e-001 7.87878811e-001 8.48484874e-001 6.96969688e-001
      7.27272749e-001 6.06060624e-001 5.45454562e-001 5.45454562e-001
      4.84848499e-001 6.66666687e-001 8.18181813e-001 6.66666687e-001
      5.15151501e-001 4.84848499e-001 6.06060624e-001 6.96969688e-001
      6.96969688e-001 6.36363626e-001 5.45454562e-001 5.75757563e-001
      6.36363626e-001 6.36363626e-001 6.36363626e-001 5.15151501e-001
      3.63636374e-001 3.33333343e-001 3.63636374e-001 4.84848499e-001
      6.96969688e-001 6.96969688e-001 8.78787875e-001 9.09090936e-001
      7.87878811e-001 7.57575750e-001 6.66666687e-001 5.45454562e-001
      7.87878811e-001 7.87878811e-001 6.66666687e-001 6.96969688e-001
      5.75757563e-001 6.36363626e-001 6.66666687e-001 6.36363626e-001
      7.27272749e-001 7.87878811e-001 7.27272749e-001 6.36363626e-001
      6.36363626e-001 6.66666687e-001 7.27272749e-001 7.87878811e-001
      6.96969688e-001 6.96969688e-001 5.45454562e-001 6.66666687e-001
      6.66666687e-001 6.96969688e-001 8.18181813e-001 8.18181813e-001
      8.48484874e-001 9.39393938e-001 9.09090936e-001 8.48484874e-001
      8.18181813e-001 6.96969688e-001 6.66666687e-001 5.45454562e-001
      3.33333343e-001 3.33333343e-001 3.03030312e-001 3.93939406e-001
      3.33333343e-001 3.63636374e-001 3.93939406e-001 5.75757563e-001
      7.57575750e-001 7.57575750e-001 8.18181813e-001 9.39393938e-001
      9.39393938e-001 1. 9.39393938e-001 8.18181813e-001 8.18181813e-001
      7.27272749e-001 6.96969688e-001 6.66666687e-001 5.45454562e-001
      6.06060624e-001 5.45454562e-001 4.54545468e-001 3.63636374e-001
      3.93939406e-001 5.15151501e-001 6.66666687e-001 6.66666687e-001
      6.06060624e-001 5.15151501e-001 5.75757563e-001 6.66666687e-001
      6.36363626e-001 6.66666687e-001 8.48484874e-001 4.84848499e-001
      3.93939406e-001 3.63636374e-001 6.06060624e-001 3.10000002e-001
      3.10000002e-001 3.49999994e-001 5.19999981e-001 5.60000002e-001
      6.49999976e-001 6.70000017e-001 6.99999988e-001 7.59999990e-001
      8.29999983e-001 8.10000002e-001 8.89999986e-001 9.39999998e-001 1.
      9.49999988e-001 9.39999998e-001 8.99999976e-001 8.60000014e-001
      8.19999993e-001 8.70000005e-001 8.79999995e-001 8.60000014e-001
      8.29999983e-001 8.39999974e-001 9.49999988e-001 9.70000029e-001
      9.10000026e-001 8.79999995e-001 8.19999993e-001 8.39999974e-001
      8.19999993e-001 9.10000026e-001 9.59999979e-001 9.10000026e-001
      9.10000026e-001 8.70000005e-001</_>
    <_>
      0. 0. 0. 0. 4.09090906e-001 4.54545468e-001 4.54545468e-001
      4.54545468e-001 4.09090906e-001 3.18181813e-001 3.18181813e-001
      4.09090906e-001 5.00000000e-001 5.00000000e-001 5.90909064e-001
      5.45454562e-001 5.00000000e-001 4.54545468e-001 5.00000000e-001
      4.54545468e-001 4.09090906e-001 3.63636374e-001 3.63636374e-001
      3.18181813e-001 1.81818187e-001 2.72727281e-001 3.18181813e-001
      2.72727281e-001 3.18181813e-001 4.54545468e-001 5.00000000e-001
      5.90909064e-001 6.36363626e-001 4.54545468e-001 4.09090906e-001
      4.54545468e-001 4.09090906e-001 2.27272734e-001 1.81818187e-001
      1.36363640e-001 2.27272734e-001 2.72727281e-001 2.72727281e-001
      2.72727281e-001 2.72727281e-001 2.72727281e-001 1.36363640e-001
      9.09090936e-002 4.54545468e-002 4.54545468e-002 4.54545468e-002
      4.54545468e-002 9.09090936e-002 0. 1.36363640e-001 2.27272734e-001
      3.18181813e-001 3.63636374e-001 2.72727281e-001 2.27272734e-001
      3.18181813e-001 3.63636374e-001 2.72727281e-001 3.18181813e-001
      3.18181813e-001 4.09090906e-001 4.54545468e-001 5.00000000e-001
      5.00000000e-001 5.00000000e-001 4.54545468e-001 4.54545468e-001
      3.63636374e-001 4.09090906e-001 3.63636374e-001 3.63636374e-001
      3.63636374e-001 3.63636374e-001 3.63636374e-001 4.09090906e-001
      4.09090906e-001 4.54545468e-001 4.54545468e-001 4.54545468e-001
      5.45454562e-001 5.45454562e-001 5.00000000e-001 5.45454562e-001
      5.90909064e-001 6.36363626e-001 6.36363626e-001 6.36363626e-001
      5.90909064e-001 5.45454562e-001 4.54545468e-001 4.54545468e-001
      4.54545468e-001 3.63636374e-001 3.63636374e-001 3.63636374e-001
      3.63636374e-001 4.54545468e-001 5.00000000e-001 4.54545468e-001
      5.45454562e-001 7.27272749e-001 7.27272749e-001 7.27272749e-001
      9.09090936e-001 9.54545438e-001 9.54545438e-001 1. 9.09090936e-001
      9.09090936e-001 9.09090936e-001 7.72727251e-001 6.81818187e-001
      5.90909064e-001 5.45454562e-001 6.36363626e-001 6.36363626e-001
      5.00000000e-001 6.36363626e-001 6.81818187e-001 6.81818187e-001
      7.27272749e-001 8.18181813e-001 8.63636374e-001 8.63636374e-001
      9.54545438e-001 9.54545438e-001 8.63636374e-001 6.81818187e-001
      5.00000000e-001 1.81818187e-001 1.81818187e-001 3.33333343e-001
      7.03703701e-001 1. 9.87654328e-001 4.93827164e-001 4.44444448e-001
      3.95061731e-001 7.40740716e-001 8.51851881e-001 9.75308657e-001
      6.54321015e-001 6.54321015e-001 4.93827164e-001 4.44444448e-001
      6.79012358e-001 9.62962985e-001 8.88888896e-001 7.77777791e-001
      5.67901254e-001 2.09876537e-001 2.46913582e-001 2.71604925e-001
      7.03703701e-001 6.04938269e-001 5.80246925e-001 3.58024687e-001
      3.82716060e-001 1.72839507e-001 0. 0. 0. 0. 0. 0. 0. 0.</_>
    <_>
      0. 3.99999991e-002 3.99999991e-002 0. 0. 1.19999997e-001
      2.00000003e-001 2.39999995e-001 4.00000006e-001 5.19999981e-001
      5.60000002e-001 2.39999995e-001 2.39999995e-001 5.19999981e-001
      7.59999990e-001 2.80000001e-001 2.39999995e-001 2.00000003e-001 0.
      0. 0. 0. 4.79999989e-001 1. 1. 3.60000014e-001 3.60000014e-001
      3.60000014e-001 2.80000001e-001 3.19999993e-001 3.19999993e-001
      4.39999998e-001 5.19999981e-001 8.79999995e-001 7.20000029e-001
      4.00000006e-001 0. 0. 0. 0. 3.99999991e-002 7.99999982e-002
      7.99999982e-002 0. 0. 0. 0. 6.39999986e-001 8.00000012e-001
      8.79999995e-001 2.80000001e-001 2.39999995e-001 2.39999995e-001
      2.00000003e-001 2.00000003e-001 2.39999995e-001 2.39999995e-001
      3.19999993e-001 8.39999974e-001 7.59999990e-001 4.39999998e-001 0.
      0. 0. 0. 2.80000001e-001 3.60000014e-001 4.79999989e-001
      4.00000006e-001 4.00000006e-001 4.00000006e-001 4.00000006e-001
      4.00000006e-001 4.39999998e-001 5.19999981e-001 6.39999986e-001
      5.19999981e-001 2.80000001e-001 0. 0. 0. 0. 6.80000007e-001
      8.00000012e-001 8.79999995e-001 2.39999995e-001 2.39999995e-001
      2.39999995e-001 2.00000003e-001 2.39999995e-001 2.39999995e-001
      2.39999995e-001 4.79999989e-001 8.39999974e-001 7.59999990e-001
      2.80000001e-001 0. 0. 0. 0. 1.59999996e-001 2.00000003e-001
      1.59999996e-001 2.80000001e-001 3.19999993e-001 3.60000014e-001
      4.00000006e-001 5.19999981e-001 4.79999989e-001 5.60000002e-001
      7.20000029e-001 5.60000002e-001 2.39999995e-001 0. 0. 0. 0.
      9.20000017e-001 9.59999979e-001 1. 2.80000001e-001 2.39999995e-001
      2.39999995e-001 2.39999995e-001 2.80000001e-001 2.39999995e-001
      3.19999993e-001 2.80000001e-001 2.00000003e-001 2.00000003e-001
      3.99999991e-002 0. 3.99999991e-002 0. 7.99999982e-002 0.
      6.34920672e-002 0. 0. 0. 0. 4.44444448e-001 9.20634925e-001 1.
      7.46031761e-001 7.14285731e-001 5.87301612e-001 5.07936537e-001
      4.44444448e-001 4.76190478e-001 5.39682567e-001 6.82539701e-001
      9.20634925e-001 9.04761910e-001 6.19047642e-001 4.60317463e-001
      4.60317463e-001 5.07936537e-001 5.39682567e-001 5.55555582e-001
      4.92063493e-001 5.23809552e-001 5.55555582e-001 7.61904776e-001
      9.36507940e-001 7.30158746e-001 1.58730164e-001 0. 0. 0. 0. 0.</_>
    <_>
      8.33333313e-001 8.33333313e-001 3.33333343e-001 0. 0.
      2.22222224e-001 4.44444448e-001 8.88888896e-001 9.44444418e-001
      9.72222209e-001 1. 9.72222209e-001 2.50000000e-001 1.11111112e-001
      8.33333358e-002 4.72222209e-001 9.44444418e-001 6.38888896e-001
      1.94444448e-001 2.22222224e-001 4.16666657e-001 6.38888896e-001
      7.50000000e-001 7.50000000e-001 7.22222209e-001 6.11111104e-001
      5.83333313e-001 7.77777791e-001 7.50000000e-001 6.11111104e-001
      4.16666657e-001 3.88888896e-001 1.66666672e-001 5.55555560e-002
      5.55555560e-002 1.11111112e-001 3.05555552e-001 5.00000000e-001
      7.22222209e-001 8.33333313e-001 7.50000000e-001 6.66666687e-001
      7.77777791e-001 7.77777791e-001 6.94444418e-001 5.55555582e-001
      4.16666657e-001 3.05555552e-001 1.38888896e-001 1.38888896e-001
      1.11111112e-001 1.94444448e-001 1.94444448e-001 2.22222224e-001
      1.38888896e-001 1.38888896e-001 5.00000000e-001 6.66666687e-001
      7.22222209e-001 7.50000000e-001 4.72222209e-001 3.88888896e-001
      4.44444448e-001 3.88888896e-001 3.88888896e-001 5.27777791e-001
      7.50000000e-001 7.50000000e-001 6.94444418e-001 4.16666657e-001
      1.38888896e-001 3.33333343e-001 7.77777791e-001 7.50000000e-001
      7.77777791e-001 7.22222209e-001 3.88888896e-001 3.88888896e-001
      3.33333343e-001 4.44444448e-001 4.44444448e-001 7.22222209e-001
      7.22222209e-001 6.66666687e-001 5.83333313e-001 1.11111112e-001
      1.11111112e-001 2.77777791e-001 4.72222209e-001 5.55555582e-001
      6.66666687e-001 6.38888896e-001 6.11111104e-001 6.11111104e-001
      6.11111104e-001 5.27777791e-001 5.00000000e-001 5.27777791e-001
      4.72222209e-001 4.44444448e-001 3.61111104e-001 2.50000000e-001
      3.61111104e-001 5.55555582e-001 5.55555582e-001 5.83333313e-001
      6.11111104e-001 6.38888896e-001 5.55555582e-001 5.27777791e-001
      5.83333313e-001 6.11111104e-001 6.38888896e-001 5.83333313e-001
      4.44444448e-001 3.33333343e-001 8.33333358e-002 1.11111112e-001
      2.22222224e-001 4.72222209e-001 5.83333313e-001 5.55555582e-001
      5.27777791e-001 5.55555582e-001 5.83333313e-001 5.83333313e-001
      6.38888896e-001 6.66666687e-001 6.38888896e-001 5.27777791e-001
      4.72222209e-001 2.22222224e-001 1.66666672e-001 7.50000000e-001
      7.50000000e-001 3.33333343e-001 1. 8.27868879e-001 6.88524604e-001
      4.83606547e-001 4.01639342e-001 3.93442631e-001 5.16393423e-001
      5.65573752e-001 5.90163946e-001 5.81967235e-001 6.14754081e-001
      5.73770463e-001 5.32786906e-001 5.32786906e-001 5.49180329e-001
      5.81967235e-001 5.73770463e-001 5.90163946e-001 6.39344275e-001
      5.90163946e-001 5.40983617e-001 5.00000000e-001 5.65573752e-001
      6.14754081e-001 6.31147563e-001 6.63934410e-001 7.04918027e-001
      6.55737698e-001 5.00000000e-001 4.26229507e-001 3.19672137e-001
      2.29508191e-001 1.96721315e-001 3.52459013e-001 4.83606547e-001
      7.29508221e-001</_>
    <_>
      2.22222224e-001 0. 0. 0. 0. 0. 0. 5.55555560e-002 3.33333343e-001
      5.83333313e-001 6.94444418e-001 6.66666687e-001 6.66666687e-001
      4.44444448e-001 3.33333343e-001 3.61111104e-001 8.05555582e-001
      8.61111104e-001 4.44444448e-001 2.50000000e-001 2.50000000e-001 0.
      0. 0. 3.61111104e-001 1. 1. 1. 6.11111104e-001 3.05555552e-001
      3.05555552e-001 3.33333343e-001 3.61111104e-001 2.77777791e-001
      2.77777791e-001 5.00000000e-001 9.44444418e-001 9.44444418e-001
      9.44444418e-001 1.66666672e-001 0. 0. 2.77777780e-002
      1.38888896e-001 1.94444448e-001 1.38888896e-001 0. 0. 0.
      6.66666687e-001 9.72222209e-001 1. 8.88888896e-001 3.33333343e-001
      1.38888896e-001 1.66666672e-001 2.22222224e-001 2.22222224e-001
      2.22222224e-001 3.05555552e-001 9.16666687e-001 1. 1.
      4.72222209e-001 0. 0. 0. 8.33333358e-002 1.94444448e-001
      2.77777791e-001 2.22222224e-001 1.66666672e-001 1.11111112e-001
      1.38888896e-001 1.38888896e-001 1.38888896e-001 1.66666672e-001
      7.22222209e-001 9.44444418e-001 8.88888896e-001 8.33333313e-001 0.
      0. 0. 0. 3.33333343e-001 4.16666657e-001 4.72222209e-001
      4.72222209e-001 4.16666657e-001 4.44444448e-001 4.72222209e-001
      5.27777791e-001 6.38888896e-001 6.66666687e-001 7.77777791e-001
      6.66666687e-001 5.27777791e-001 1.94444448e-001 0. 0. 0.
      1.94444448e-001 3.05555552e-001 3.33333343e-001 3.88888896e-001
      3.88888896e-001 3.61111104e-001 3.61111104e-001 3.61111104e-001
      4.44444448e-001 8.61111104e-001 9.72222209e-001 9.72222209e-001
      3.33333343e-001 8.33333358e-002 0. 0. 0. 5.55555560e-002
      4.72222209e-001 6.66666687e-001 8.33333313e-001 7.22222209e-001
      5.00000000e-001 3.88888896e-001 3.61111104e-001 3.88888896e-001
      4.44444448e-001 6.11111104e-001 8.61111104e-001 7.22222209e-001
      5.27777791e-001 1.38888896e-001 0. 5.55555560e-002 5.62500000e-001
      7.50000000e-001 8.59375000e-001 8.90625000e-001 9.53125000e-001
      9.21875000e-001 8.59375000e-001 8.59375000e-001 8.12500000e-001
      7.65625000e-001 7.50000000e-001 7.50000000e-001 7.34375000e-001
      6.87500000e-001 7.96875000e-001 8.75000000e-001 9.84375000e-001
      9.06250000e-001 8.75000000e-001 8.12500000e-001 7.03125000e-001
      7.34375000e-001 7.50000000e-001 7.65625000e-001 7.81250000e-001
      8.75000000e-001 9.21875000e-001 1. 9.84375000e-001 8.75000000e-001
      8.59375000e-001 9.06250000e-001 8.28125000e-001 7.50000000e-001
      5.31250000e-001 2.96875000e-001</_>
    <_>
      1. 5.41666687e-001 2.08333328e-001 8.33333358e-002 0.
      4.16666679e-002 8.33333358e-002 4.16666679e-002 2.50000000e-001
      6.66666687e-001 4.16666657e-001 4.16666679e-002 1.66666672e-001
      7.50000000e-001 6.66666687e-001 4.16666657e-001 3.33333343e-001
      2.50000000e-001 2.50000000e-001 4.58333343e-001 4.16666657e-001
      4.16666679e-002 4.16666679e-002 8.33333358e-002 4.16666679e-002
      2.08333328e-001 4.58333343e-001 5.83333313e-001 6.66666687e-001
      7.08333313e-001 5.41666687e-001 5.41666687e-001 6.66666687e-001
      6.66666687e-001 4.58333343e-001 4.16666657e-001 1.66666672e-001 0.
      8.33333358e-002 4.16666679e-002 4.16666679e-002 8.33333358e-002
      1.66666672e-001 1.66666672e-001 0. 0. 4.16666679e-002
      4.16666679e-002 2.08333328e-001 4.58333343e-001 6.25000000e-001
      5.83333313e-001 5.00000000e-001 5.00000000e-001 4.58333343e-001
      5.00000000e-001 4.58333343e-001 4.58333343e-001 5.83333313e-001
      4.16666657e-001 3.33333343e-001 8.33333358e-002 4.16666679e-002
      4.16666679e-002 8.33333358e-002 2.91666657e-001 4.16666657e-001
      4.16666657e-001 3.33333343e-001 4.16666657e-001 5.00000000e-001
      5.83333313e-001 6.25000000e-001 5.83333313e-001 6.25000000e-001
      7.50000000e-001 6.25000000e-001 2.91666657e-001 4.16666679e-002
      4.16666679e-002 0. 8.33333358e-002 3.33333343e-001 4.58333343e-001
      5.83333313e-001 6.66666687e-001 6.66666687e-001 4.58333343e-001
      4.16666657e-001 5.83333313e-001 6.66666687e-001 6.25000000e-001
      5.00000000e-001 2.50000000e-001 0. 0. 4.16666679e-002 0.
      4.16666679e-002 1.66666672e-001 2.50000000e-001 2.08333328e-001
      1.66666672e-001 1.25000000e-001 5.00000000e-001 6.66666687e-001
      6.66666687e-001 5.00000000e-001 4.16666657e-001 2.91666657e-001
      2.08333328e-001 8.33333358e-002 0. 0. 0. 1.25000000e-001
      4.16666657e-001 5.00000000e-001 5.00000000e-001 5.00000000e-001
      4.16666657e-001 4.58333343e-001 5.00000000e-001 5.00000000e-001
      5.00000000e-001 5.41666687e-001 5.00000000e-001 3.33333343e-001 0.
      4.16666679e-002 8.33333358e-002 1.25000000e-001 0. 2.08333328e-001
      3.75000000e-001 1. 1.75824180e-001 5.49450554e-002 4.39560451e-002
      1. 1.97802201e-001 5.49450554e-002 3.29670347e-002 3.29670347e-002
      2.19780225e-002 4.61538464e-001 6.26373649e-001 6.37362659e-001
      3.84615391e-001 4.28571433e-001 4.28571433e-001 4.17582422e-001
      3.95604402e-001 3.73626381e-001 4.28571433e-001 4.94505495e-001
      5.05494535e-001 5.38461566e-001 4.61538464e-001 3.95604402e-001
      3.51648360e-001 3.84615391e-001 4.39560443e-001 4.50549453e-001
      3.95604402e-001 5.71428597e-001 4.72527474e-001 2.52747267e-001 0.
      0. 0. 0.</_>
    <_>
      0. 0. 2.41379306e-001 3.79310340e-001 4.13793117e-001
      4.82758611e-001 6.55172408e-001 5.51724136e-001 3.44827592e-001
      2.41379306e-001 7.24137902e-001 7.93103456e-001 5.17241359e-001
      2.06896558e-001 2.06896558e-001 6.89655170e-002 0. 0. 0. 0.
      9.65517223e-001 1. 1. 3.44827592e-001 3.10344815e-001
      3.10344815e-001 3.10344815e-001 3.10344815e-001 3.10344815e-001
      3.44827592e-001 3.44827592e-001 3.44827592e-001 2.06896558e-001
      1.72413796e-001 6.89655170e-002 1.03448279e-001 6.89655170e-002 0.
      0. 1.03448279e-001 1.03448279e-001 6.89655170e-002 0. 0. 0. 0.
      2.06896558e-001 5.86206913e-001 7.58620679e-001 7.24137902e-001
      5.17241359e-001 3.79310340e-001 3.10344815e-001 3.44827592e-001
      3.44827592e-001 3.79310340e-001 5.86206913e-001 8.62068951e-001
      7.24137902e-001 5.17241359e-001 6.89655170e-002 0. 0. 0.
      3.44827585e-002 1.37931034e-001 2.06896558e-001 2.75862068e-001
      3.44827592e-001 3.10344815e-001 3.10344815e-001 3.10344815e-001
      2.75862068e-001 3.44827592e-001 9.31034505e-001 9.65517223e-001
      9.65517223e-001 2.06896558e-001 1.03448279e-001 0. 0. 0. 0. 0.
      1.72413796e-001 2.06896558e-001 2.06896558e-001 1.37931034e-001
      1.37931034e-001 1.37931034e-001 1.37931034e-001 1.03448279e-001
      1.03448279e-001 1.37931034e-001 1.72413796e-001 8.96551728e-001
      8.62068951e-001 7.58620679e-001 0. 0. 0. 0. 1.72413796e-001
      3.44827592e-001 4.82758611e-001 4.82758611e-001 4.13793117e-001
      4.13793117e-001 4.48275864e-001 4.48275864e-001 4.13793117e-001
      4.82758611e-001 5.17241359e-001 5.86206913e-001 4.82758611e-001
      3.44827592e-001 0. 0. 0. 0. 0. 2.41379306e-001 3.79310340e-001
      5.17241359e-001 4.13793117e-001 3.79310340e-001 3.79310340e-001
      3.79310340e-001 3.79310340e-001 4.48275864e-001 4.82758611e-001
      5.51724136e-001 5.51724136e-001 3.79310340e-001 2.06896558e-001 0.
      3.07692308e-002 9.23076943e-002 6.15384616e-002 0. 0.
      9.23076943e-002 3.69230777e-001 6.76923096e-001 8.92307699e-001
      7.53846169e-001 5.84615409e-001 5.53846180e-001 4.46153849e-001
      4.61538464e-001 4.76923078e-001 5.53846180e-001 6.15384638e-001
      6.92307711e-001 8.61538470e-001 1. 8.92307699e-001 7.23076940e-001
      5.69230795e-001 5.38461566e-001 5.38461566e-001 4.76923078e-001
      4.61538464e-001 4.61538464e-001 6.30769253e-001 6.76923096e-001
      6.76923096e-001 7.53846169e-001 7.84615397e-001 6.30769253e-001
      3.84615391e-001 1.23076923e-001</_>
    <_>
      8.33333358e-002 3.33333343e-001 1.66666672e-001 2.77777780e-002
      2.22222224e-001 9.44444418e-001 2.77777791e-001 1.11111112e-001
      2.50000000e-001 7.77777791e-001 3.61111104e-001 3.88888896e-001
      7.77777791e-001 2.77777780e-002 0. 0. 0. 0. 1.11111112e-001
      2.77777791e-001 4.44444448e-001 5.00000000e-001 6.38888896e-001
      5.83333313e-001 4.72222209e-001 4.72222209e-001 6.38888896e-001
      6.38888896e-001 5.55555582e-001 3.88888896e-001 2.77777791e-001
      2.77777780e-002 0. 0. 0. 0. 0. 8.33333358e-002 8.33333358e-002 0.
      0. 0. 0. 0. 2.77777780e-002 1.11111112e-001 1.94444448e-001
      2.77777791e-001 2.50000000e-001 4.72222209e-001 7.50000000e-001
      7.50000000e-001 7.77777791e-001 2.50000000e-001 2.77777791e-001
      1.94444448e-001 1.38888896e-001 8.33333358e-002 0. 0. 0. 0.
      1.66666672e-001 3.05555552e-001 3.88888896e-001 5.00000000e-001
      3.88888896e-001 4.44444448e-001 3.61111104e-001 3.88888896e-001
      4.16666657e-001 4.16666657e-001 3.88888896e-001 5.55555582e-001
      5.00000000e-001 3.33333343e-001 5.55555560e-002 0. 0. 0.
      1.94444448e-001 3.33333343e-001 4.16666657e-001 4.72222209e-001
      5.00000000e-001 4.72222209e-001 4.72222209e-001 4.44444448e-001
      4.44444448e-001 4.44444448e-001 5.27777791e-001 4.16666657e-001
      3.88888896e-001 2.50000000e-001 8.33333358e-002 0. 0. 0. 0. 0. 0.
      0. 0. 0. 6.94444418e-001 1. 9.72222209e-001 3.88888896e-001 0. 0.
      0. 0. 0. 0. 0. 0. 0. 8.33333358e-002 6.66666687e-001
      7.22222209e-001 6.38888896e-001 3.88888896e-001 3.33333343e-001
      3.05555552e-001 3.05555552e-001 3.33333343e-001 3.33333343e-001
      3.88888896e-001 6.38888896e-001 5.55555582e-001 4.16666657e-001 0.
      0. 0. 0. 0. 7.58620679e-001 9.31034505e-001 9.65517223e-001 1.
      6.20689631e-001 5.34482777e-001 4.65517253e-001 5.51724136e-001
      6.20689631e-001 5.86206913e-001 6.03448272e-001 5.51724136e-001
      5.17241359e-001 6.03448272e-001 6.55172408e-001 6.37931049e-001
      6.55172408e-001 5.68965495e-001 5.17241359e-001 4.48275864e-001
      4.82758611e-001 4.82758611e-001 4.48275864e-001 4.65517253e-001
      4.31034476e-001 5.17241359e-001 6.20689631e-001 6.37931049e-001
      6.20689631e-001 6.20689631e-001 5.51724136e-001 7.24137902e-001
      9.65517223e-001 9.31034505e-001 8.27586234e-001 3.10344815e-001</_>
    <_>
      9.13043499e-001 9.13043499e-001 9.13043499e-001 9.13043499e-001
      9.13043499e-001 9.13043499e-001 9.13043499e-001 9.13043499e-001
      9.13043499e-001 9.56521749e-001 8.69565189e-001 4.34782617e-002 0.
      0. 0. 0. 0. 0. 0. 3.04347813e-001 4.34782594e-001 4.78260875e-001
      3.91304344e-001 5.65217376e-001 3.47826093e-001 2.60869563e-001
      8.26086938e-001 5.65217376e-001 2.17391297e-001 2.17391297e-001
      4.34782617e-002 0. 0. 0. 1. 1. 3.91304344e-001 3.47826093e-001
      3.47826093e-001 3.91304344e-001 4.78260875e-001 4.78260875e-001
      7.82608688e-001 7.39130437e-001 5.21739125e-001 4.34782617e-002 0.
      0. 0. 0. 0. 0. 0. 0. 0. 4.78260875e-001 6.95652187e-001
      7.39130437e-001 3.47826093e-001 3.47826093e-001 3.47826093e-001
      3.47826093e-001 3.91304344e-001 3.91304344e-001 6.08695626e-001
      5.21739125e-001 3.04347813e-001 0. 0. 0. 8.69565234e-002
      3.47826093e-001 5.21739125e-001 6.08695626e-001 6.95652187e-001
      5.21739125e-001 5.21739125e-001 6.08695626e-001 5.65217376e-001
      5.21739125e-001 3.04347813e-001 8.69565234e-002 0. 0. 0.
      6.95652187e-001 7.82608688e-001 8.69565189e-001 2.60869563e-001
      2.17391297e-001 2.60869563e-001 2.17391297e-001 2.60869563e-001
      3.04347813e-001 8.69565189e-001 7.82608688e-001 6.95652187e-001 0.
      0. 0. 1.73913047e-001 3.91304344e-001 4.34782594e-001
      4.34782594e-001 3.47826093e-001 3.91304344e-001 4.34782594e-001
      3.47826093e-001 4.34782594e-001 4.78260875e-001 3.91304344e-001
      2.60869563e-001 0. 0. 0. 1.73913047e-001 3.04347813e-001
      3.47826093e-001 3.47826093e-001 3.91304344e-001 4.34782594e-001
      4.78260875e-001 6.08695626e-001 4.78260875e-001 6.95652187e-001
      5.65217376e-001 2.60869563e-001 0. 0. 2.60869563e-001 0. 0. 0.
      4.34782617e-002 8.69565234e-002 9.13043499e-001 2.27272734e-001
      1.96969703e-001 2.42424250e-001 1.81818187e-001 1.66666672e-001
      1.81818187e-001 1.81818187e-001 1.81818187e-001 1.81818187e-001
      1.81818187e-001 3.78787875e-001 8.63636374e-001 1. 8.48484874e-001
      7.72727251e-001 6.36363626e-001 6.06060624e-001 5.90909064e-001
      5.90909064e-001 7.42424250e-001 9.09090936e-001 7.12121189e-001
      5.45454562e-001 4.54545468e-001 4.24242437e-001 4.54545468e-001
      4.84848499e-001 6.06060624e-001 5.90909064e-001 5.45454562e-001
      5.90909064e-001 8.63636374e-001 7.87878811e-001 2.57575750e-001 0.
      0.</_>
    <_>
      0. 2.85714287e-002 8.85714293e-001 1. 8.00000012e-001
      6.00000024e-001 4.85714287e-001 3.71428579e-001 3.42857152e-001
      3.42857152e-001 3.71428579e-001 4.28571433e-001 5.14285743e-001
      3.71428579e-001 3.42857152e-001 3.71428579e-001 6.57142878e-001
      7.42857158e-001 7.42857158e-001 9.14285719e-001 9.71428573e-001
      8.00000012e-001 2.28571430e-001 2.00000003e-001 2.28571430e-001
      2.28571430e-001 6.28571451e-001 6.28571451e-001 5.71428597e-001
      4.28571433e-001 3.71428579e-001 4.00000006e-001 3.71428579e-001
      3.71428579e-001 3.14285725e-001 3.71428579e-001 5.71428597e-001
      8.00000012e-001 9.42857146e-001 9.71428573e-001 8.85714293e-001
      8.57142866e-001 8.85714293e-001 8.85714293e-001 9.42857146e-001 1.
      8.28571439e-001 7.71428585e-001 7.14285731e-001 6.85714304e-001
      6.00000024e-001 6.00000024e-001 6.00000024e-001 5.71428597e-001
      4.00000006e-001 2.28571430e-001 2.28571430e-001 2.28571430e-001
      2.57142872e-001 8.57142866e-001 8.85714293e-001 1. 1.
      8.28571439e-001 2.28571430e-001 2.28571430e-001 2.28571430e-001
      2.28571430e-001 5.71428597e-001 6.57142878e-001 6.28571451e-001
      6.28571451e-001 6.00000024e-001 5.71428597e-001 3.42857152e-001
      2.85714298e-001 3.42857152e-001 4.28571433e-001 5.71428597e-001 1.
      1. 7.14285731e-001 4.28571433e-001 3.42857152e-001 3.14285725e-001
      2.85714298e-001 6.85714304e-001 7.42857158e-001 7.14285731e-001
      7.14285731e-001 7.14285731e-001 6.85714304e-001 2.85714298e-001
      2.85714298e-001 2.85714298e-001 4.00000006e-001 4.85714287e-001
      9.42857146e-001 8.85714293e-001 5.42857170e-001 4.57142860e-001
      3.71428579e-001 3.71428579e-001 3.14285725e-001 3.71428579e-001
      2.57142872e-001 2.57142872e-001 2.85714298e-001 4.28571433e-001
      3.14285725e-001 2.85714298e-001 3.71428579e-001 4.28571433e-001
      6.28571451e-001 9.71428573e-001 9.14285719e-001 8.28571439e-001
      4.57142860e-001 3.71428579e-001 3.71428579e-001 2.57142872e-001
      3.71428579e-001 3.71428579e-001 4.28571433e-001 4.00000006e-001
      4.57142860e-001 3.71428579e-001 3.14285725e-001 3.71428579e-001
      5.14285743e-001 6.00000024e-001 6.57142878e-001 8.57142866e-001
      6.85714304e-001 0. 0. 2.60869563e-002 8.95652175e-001
      9.47826087e-001 9.91304338e-001 9.91304338e-001 6.43478274e-001
      4.86956507e-001 3.91304344e-001 3.56521726e-001 4.69565213e-001
      6.00000024e-001 7.21739113e-001 7.82608688e-001 7.21739113e-001
      6.95652187e-001 6.26086950e-001 4.60869551e-001 4.17391300e-001
      3.91304344e-001 4.26086962e-001 5.56521714e-001 6.00000024e-001
      6.00000024e-001 5.39130449e-001 5.73913038e-001 5.82608700e-001
      5.04347801e-001 4.43478256e-001 4.00000006e-001 4.26086962e-001
      5.13043463e-001 6.86956525e-001 9.82608676e-001 9.73913014e-001 1.
      5.39130449e-001</_>
    <_>
      0. 0. 1.25000000e-001 1.87500000e-001 1.87500000e-001
      1.87500000e-001 2.50000000e-001 2.50000000e-001 3.12500000e-001
      3.12500000e-001 3.12500000e-001 3.12500000e-001 3.12500000e-001
      3.12500000e-001 3.12500000e-001 3.75000000e-001 3.12500000e-001
      3.12500000e-001 3.12500000e-001 3.12500000e-001 3.75000000e-001
      3.75000000e-001 3.75000000e-001 3.75000000e-001 3.75000000e-001
      3.75000000e-001 3.75000000e-001 3.75000000e-001 3.75000000e-001
      3.12500000e-001 3.75000000e-001 3.75000000e-001 3.75000000e-001
      3.75000000e-001 3.12500000e-001 3.12500000e-001 3.12500000e-001
      3.75000000e-001 3.75000000e-001 3.12500000e-001 3.12500000e-001
      3.12500000e-001 3.12500000e-001 3.75000000e-001 3.75000000e-001
      3.75000000e-001 3.12500000e-001 3.12500000e-001 2.50000000e-001
      1.87500000e-001 0. 0. 0. 0. 0. 6.25000000e-002 4.37500000e-001
      8.12500000e-001 9.37500000e-001 8.75000000e-001 6.87500000e-001
      7.50000000e-001 6.25000000e-001 6.87500000e-001 6.25000000e-001
      4.37500000e-001 6.25000000e-001 5.00000000e-001 3.75000000e-001
      5.00000000e-001 5.62500000e-001 6.25000000e-001 3.12500000e-001
      3.75000000e-001 3.75000000e-001 3.75000000e-001 5.62500000e-001
      6.25000000e-001 5.00000000e-001 3.75000000e-001 4.37500000e-001
      3.75000000e-001 4.37500000e-001 5.00000000e-001 3.75000000e-001
      5.62500000e-001 1. 8.75000000e-001 8.75000000e-001 6.25000000e-001
      1.87500000e-001 1.25000000e-001 1.87500000e-001 1.87500000e-001
      6.25000000e-002 1.25000000e-001 2.50000000e-001 3.12500000e-001
      3.12500000e-001 3.75000000e-001 3.75000000e-001 3.12500000e-001
      3.75000000e-001 3.75000000e-001 3.75000000e-001 3.12500000e-001
      3.12500000e-001 3.75000000e-001 3.75000000e-001 3.75000000e-001
      3.12500000e-001 3.12500000e-001 3.12500000e-001 3.75000000e-001
      4.37500000e-001 4.37500000e-001 4.37500000e-001 4.37500000e-001
      5.00000000e-001 5.00000000e-001 5.00000000e-001 4.37500000e-001
      5.00000000e-001 5.62500000e-001 5.00000000e-001 4.37500000e-001
      5.00000000e-001 5.00000000e-001 4.37500000e-001 4.37500000e-001
      3.75000000e-001 3.75000000e-001 3.12500000e-001 2.50000000e-001
      2.50000000e-001 2.50000000e-001 2.50000000e-001 4.00000006e-001
      6.25000000e-001 7.25000024e-001 8.00000012e-001 8.00000012e-001
      7.50000000e-001 6.49999976e-001 8.50000024e-001 8.99999976e-001
      9.49999988e-001 1. 8.99999976e-001 7.50000000e-001 6.25000000e-001
      4.25000012e-001 3.75000000e-001 3.24999988e-001 2.24999994e-001
      3.75000000e-001 2.50000000e-001 2.50000000e-001 2.00000003e-001
      2.50000000e-001 4.74999994e-001 6.00000024e-001 6.25000000e-001
      7.50000000e-001 8.00000012e-001 8.24999988e-001 8.75000000e-001
      7.50000000e-001 6.49999976e-001 3.49999994e-001 1.00000001e-001
      1.00000001e-001</_>
    <_>
      0. 0. 3.44827585e-002 6.89655170e-002 6.89655170e-002
      1.03448279e-001 1.03448279e-001 1.03448279e-001 1.72413796e-001
      1.37931034e-001 1.37931034e-001 1.72413796e-001 2.06896558e-001
      2.06896558e-001 2.41379306e-001 2.75862068e-001 2.75862068e-001
      3.10344815e-001 2.06896558e-001 1.72413796e-001 1.72413796e-001
      2.06896558e-001 2.06896558e-001 3.44827592e-001 3.44827592e-001
      4.13793117e-001 4.48275864e-001 5.17241359e-001 5.51724136e-001
      5.51724136e-001 5.51724136e-001 5.17241359e-001 4.82758611e-001
      5.51724136e-001 5.51724136e-001 5.51724136e-001 5.86206913e-001
      6.20689631e-001 5.86206913e-001 6.20689631e-001 5.17241359e-001
      6.20689631e-001 6.55172408e-001 6.55172408e-001 6.20689631e-001
      6.55172408e-001 6.89655185e-001 6.89655185e-001 6.55172408e-001
      6.89655185e-001 6.55172408e-001 5.86206913e-001 5.86206913e-001
      6.20689631e-001 7.93103456e-001 8.27586234e-001 8.27586234e-001
      8.96551728e-001 8.62068951e-001 8.62068951e-001 8.27586234e-001
      8.62068951e-001 8.27586234e-001 7.93103456e-001 7.93103456e-001
      7.93103456e-001 7.58620679e-001 8.62068951e-001 8.27586234e-001
      8.27586234e-001 7.93103456e-001 7.58620679e-001 8.27586234e-001
      7.93103456e-001 9.65517223e-001 9.65517223e-001 9.65517223e-001
      9.31034505e-001 8.96551728e-001 7.58620679e-001 6.89655185e-001
      7.93103456e-001 7.58620679e-001 7.24137902e-001 6.89655185e-001
      7.58620679e-001 6.89655185e-001 8.27586234e-001 8.96551728e-001
      8.27586234e-001 8.62068951e-001 8.96551728e-001 8.96551728e-001
      8.96551728e-001 8.27586234e-001 8.62068951e-001 9.31034505e-001
      8.27586234e-001 8.27586234e-001 8.62068951e-001 8.96551728e-001
      8.96551728e-001 8.62068951e-001 8.27586234e-001 8.27586234e-001
      8.96551728e-001 8.96551728e-001 9.31034505e-001 9.31034505e-001
      8.62068951e-001 8.27586234e-001 8.96551728e-001 9.31034505e-001
      8.27586234e-001 7.58620679e-001 7.58620679e-001 8.62068951e-001
      8.62068951e-001 9.31034505e-001 1. 1. 1. 9.65517223e-001
      9.31034505e-001 7.58620679e-001 7.24137902e-001 7.58620679e-001
      7.58620679e-001 7.24137902e-001 6.20689631e-001 5.17241359e-001
      2.75862068e-001 1.72413796e-001 3.44827585e-002 0. 0. 0.
      1.46551728e-001 3.18965524e-001 3.79310340e-001 5.00000000e-001
      5.25862098e-001 5.51724136e-001 5.86206913e-001 6.20689631e-001
      5.51724136e-001 5.60344815e-001 5.94827592e-001 5.94827592e-001
      6.89655185e-001 7.32758641e-001 7.06896544e-001 7.58620679e-001
      6.89655185e-001 6.89655185e-001 7.24137902e-001 5.68965495e-001
      5.94827592e-001 6.03448272e-001 6.55172408e-001 6.55172408e-001
      6.98275864e-001 8.62068951e-001 8.79310369e-001 8.18965495e-001
      7.32758641e-001 9.31034505e-001 9.13793087e-001 1. 6.63793087e-001
      6.03448264e-002 0.</_>
    <_>
      0. 0. 0. 0. 9.09090936e-002 9.09090936e-002 0. 0. 0. 0. 0. 0. 0.
      0. 0. 0. 0. 0. 0. 0. 0. 0. 0. 1. 0. 0. 3.03030312e-002
      2.42424250e-001 3.63636374e-001 4.24242437e-001 5.45454562e-001
      3.03030312e-001 1.51515156e-001 6.06060624e-001 5.75757563e-001
      2.42424250e-001 2.12121218e-001 9.09090936e-002 0. 0. 0.
      7.27272749e-001 7.27272749e-001 6.66666687e-001 2.72727281e-001
      2.72727281e-001 2.72727281e-001 2.72727281e-001 3.03030312e-001
      2.72727281e-001 2.72727281e-001 1.81818187e-001 3.03030312e-002 0.
      0. 0. 6.06060624e-002 6.06060624e-002 0. 0. 0. 9.09090936e-002
      2.72727281e-001 3.33333343e-001 3.33333343e-001 3.03030312e-001
      3.03030312e-001 3.03030312e-001 3.33333343e-001 4.24242437e-001
      4.84848499e-001 3.63636374e-001 1.21212125e-001 0. 0. 0.
      5.45454562e-001 6.36363626e-001 6.66666687e-001 1.81818187e-001
      1.81818187e-001 1.51515156e-001 1.81818187e-001 2.12121218e-001
      2.12121218e-001 6.36363626e-001 5.75757563e-001 9.09090936e-002 0.
      0. 0. 3.03030312e-001 4.54545468e-001 4.84848499e-001
      3.63636374e-001 3.33333343e-001 3.33333343e-001 3.33333343e-001
      3.33333343e-001 3.33333343e-001 3.03030312e-001 2.12121218e-001 0.
      0. 6.06060624e-002 7.27272749e-001 7.57575750e-001 7.27272749e-001
      1.81818187e-001 1.51515156e-001 1.51515156e-001 1.51515156e-001
      1.51515156e-001 2.12121218e-001 7.57575750e-001 7.57575750e-001
      4.84848499e-001 0. 0. 0. 1.81818187e-001 2.72727281e-001
      2.72727281e-001 3.33333343e-001 3.33333343e-001 4.24242437e-001
      4.84848499e-001 4.54545468e-001 5.45454562e-001 4.84848499e-001
      2.72727281e-001 0. 0. 2.42424250e-001 6.06060624e-001 0.
      1.81818176e-002 5.45454547e-002 1.81818176e-002 1.81818176e-002
      1.81818176e-002 2.54545450e-001 7.63636351e-001 1. 1.
      7.81818211e-001 7.09090889e-001 7.45454550e-001 6.54545426e-001
      6.18181825e-001 6.18181825e-001 7.09090889e-001 9.45454538e-001
      9.45454538e-001 9.09090936e-001 6.18181825e-001 6.18181825e-001
      6.72727287e-001 6.90909088e-001 7.09090889e-001 6.54545426e-001
      6.90909088e-001 7.81818211e-001 1. 8.54545474e-001 5.45454562e-001
      3.63636352e-002 3.63636352e-002 1.81818176e-002 1.81818176e-002
      3.63636352e-002 0.</_>
    <_>
      0. 0. 0. 0. 0. 0. 2.00000003e-001 3.19999993e-001 3.60000014e-001
      4.79999989e-001 5.19999981e-001 4.00000006e-001 2.39999995e-001
      2.39999995e-001 8.00000012e-001 4.00000006e-001 1.59999996e-001
      2.00000003e-001 3.99999991e-002 0. 0. 3.99999991e-002
      3.99999991e-002 1. 9.59999979e-001 9.20000017e-001 2.00000003e-001
      2.00000003e-001 1.59999996e-001 2.00000003e-001 2.80000001e-001
      3.19999993e-001 3.19999993e-001 6.39999986e-001 1. 8.39999974e-001
      0. 0. 0. 0. 0. 1.19999997e-001 7.99999982e-002 0. 0. 0. 0.
      3.99999991e-002 1.59999996e-001 1.59999996e-001 1.59999996e-001
      1.59999996e-001 1.19999997e-001 1.19999997e-001 7.99999982e-002
      7.99999982e-002 1.59999996e-001 2.00000003e-001 9.59999979e-001
      8.79999995e-001 6.39999986e-001 0. 0. 0. 0. 2.00000003e-001
      3.19999993e-001 2.80000001e-001 2.39999995e-001 3.19999993e-001
      3.19999993e-001 3.60000014e-001 4.00000006e-001 5.19999981e-001
      5.19999981e-001 7.20000029e-001 5.60000002e-001 2.39999995e-001 0.
      0. 0. 0. 7.99999982e-002 6.39999986e-001 6.80000007e-001
      4.00000006e-001 3.60000014e-001 2.39999995e-001 2.80000001e-001
      2.39999995e-001 2.80000001e-001 3.19999993e-001 4.39999998e-001
      5.60000002e-001 4.00000006e-001 0. 0. 0. 3.99999991e-002
      7.99999982e-002 3.19999993e-001 4.79999989e-001 5.19999981e-001
      5.60000002e-001 5.60000002e-001 3.19999993e-001 3.60000014e-001
      3.19999993e-001 4.79999989e-001 5.60000002e-001 6.00000024e-001
      4.39999998e-001 2.39999995e-001 3.99999991e-002 3.99999991e-002 0.
      0. 9.59999979e-001 9.59999979e-001 8.79999995e-001 2.00000003e-001
      1.59999996e-001 1.59999996e-001 1.59999996e-001 1.59999996e-001
      2.00000003e-001 2.39999995e-001 2.80000001e-001 8.79999995e-001
      7.59999990e-001 3.99999991e-002 0. 0. 0. 0. 0. 3.17460336e-002
      1.58730168e-002 0. 0. 0. 3.17460336e-002 9.04761910e-001 1.
      7.93650806e-001 6.03174627e-001 4.60317463e-001 4.28571433e-001
      3.80952388e-001 3.80952388e-001 4.12698418e-001 6.82539701e-001
      7.61904776e-001 6.50793672e-001 5.55555582e-001 4.44444448e-001
      4.28571433e-001 4.28571433e-001 3.96825403e-001 4.12698418e-001
      4.92063493e-001 4.92063493e-001 5.23809552e-001 6.50793672e-001
      9.84126985e-001 7.46031761e-001 1.58730168e-002 0. 0.
      1.90476194e-001 2.06349209e-001 3.80952388e-001</_>
    <_>
      0. 2.22222224e-001 4.16666657e-001 2.50000000e-001 2.22222224e-001
      3.88888896e-001 1. 8.05555582e-001 3.33333343e-001 4.16666657e-001
      8.61111104e-001 8.33333313e-001 8.05555582e-001 8.05555582e-001
      1.38888896e-001 0. 0. 0. 0. 1. 1. 1. 5.00000000e-001
      3.05555552e-001 3.05555552e-001 3.05555552e-001 3.05555552e-001
      3.61111104e-001 5.00000000e-001 6.11111104e-001 9.44444418e-001
      8.61111104e-001 6.38888896e-001 2.22222224e-001 0. 0. 0. 0.
      5.55555560e-002 1.11111112e-001 8.33333358e-002 0. 0. 0. 0.
      1.38888896e-001 3.33333343e-001 4.44444448e-001 5.55555582e-001
      4.72222209e-001 4.16666657e-001 3.61111104e-001 3.88888896e-001
      3.88888896e-001 4.72222209e-001 5.83333313e-001 6.38888896e-001
      6.38888896e-001 5.00000000e-001 3.05555552e-001 0. 0. 0. 0.
      7.50000000e-001 8.61111104e-001 9.44444418e-001 3.33333343e-001
      2.77777791e-001 2.22222224e-001 1.94444448e-001 1.94444448e-001
      1.94444448e-001 2.50000000e-001 3.05555552e-001 9.72222209e-001
      9.16666687e-001 8.33333313e-001 2.77777791e-001 0. 0. 0.
      1.66666672e-001 1. 1. 9.72222209e-001 3.61111104e-001
      3.05555552e-001 3.33333343e-001 3.33333343e-001 3.05555552e-001
      3.33333343e-001 3.33333343e-001 3.88888896e-001 1. 1. 1. 0. 0. 0.
      0. 8.33333358e-002 2.77777791e-001 3.05555552e-001 3.33333343e-001
      3.61111104e-001 3.61111104e-001 3.88888896e-001 4.44444448e-001
      5.00000000e-001 6.11111104e-001 5.83333313e-001 8.05555582e-001
      6.94444418e-001 5.55555582e-001 2.77777791e-001 0. 0. 0. 0.
      8.33333358e-002 2.77777791e-001 3.05555552e-001 2.77777791e-001
      3.33333343e-001 3.88888896e-001 4.44444448e-001 4.72222209e-001
      5.27777791e-001 5.83333313e-001 5.83333313e-001 7.77777791e-001
      6.94444418e-001 5.00000000e-001 8.33333358e-002 0. 8.66666675e-001
      9.33333337e-001 1. 6.80000007e-001 5.86666644e-001 6.00000024e-001
      6.13333344e-001 6.13333344e-001 6.39999986e-001 6.66666687e-001
      7.33333349e-001 7.06666648e-001 7.33333349e-001 7.46666670e-001
      8.00000012e-001 8.53333354e-001 8.53333354e-001 8.39999974e-001
      7.20000029e-001 6.93333328e-001 5.73333323e-001 5.60000002e-001
      5.60000002e-001 5.73333323e-001 5.46666682e-001 5.60000002e-001
      5.60000002e-001 6.13333344e-001 6.39999986e-001 6.13333344e-001
      6.66666687e-001 7.59999990e-001 8.79999995e-001 8.79999995e-001
      7.46666670e-001 6.00000024e-001</_>
    <_>
      3.75000000e-001 1.66666672e-001 8.33333358e-002 4.16666679e-002
      6.25000000e-001 8.75000000e-001 0. 9.16666687e-001 6.25000000e-001
      8.33333358e-002 8.33333358e-002 2.08333328e-001 6.66666687e-001
      6.25000000e-001 1.66666672e-001 1.66666672e-001 8.33333313e-001
      6.66666687e-001 5.00000000e-001 3.75000000e-001 2.08333328e-001
      2.91666657e-001 4.58333343e-001 4.16666657e-001 4.16666679e-002
      4.16666679e-002 4.16666679e-002 9.58333313e-001 1. 1.
      4.16666657e-001 4.16666657e-001 3.75000000e-001 3.75000000e-001
      3.75000000e-001 3.75000000e-001 4.16666657e-001 3.75000000e-001
      2.50000000e-001 1.66666672e-001 0. 0. 0. 0. 8.33333358e-002
      8.33333358e-002 0. 0. 0. 4.16666679e-002 1.25000000e-001
      2.08333328e-001 2.91666657e-001 3.33333343e-001 2.91666657e-001
      7.50000000e-001 7.91666687e-001 7.91666687e-001 3.33333343e-001
      2.91666657e-001 2.50000000e-001 1.66666672e-001 4.16666679e-002
      4.16666679e-002 4.16666679e-002 4.16666679e-002 4.16666657e-001
      6.66666687e-001 8.75000000e-001 6.66666687e-001 4.58333343e-001
      4.16666657e-001 3.75000000e-001 4.16666657e-001 5.41666687e-001
      8.33333313e-001 8.33333313e-001 5.83333313e-001 1.66666672e-001
      4.16666679e-002 4.16666679e-002 4.16666679e-002 2.50000000e-001
      4.16666657e-001 5.00000000e-001 5.00000000e-001 4.58333343e-001
      4.16666657e-001 4.16666657e-001 5.00000000e-001 5.41666687e-001
      5.41666687e-001 6.25000000e-001 4.58333343e-001 1.25000000e-001
      4.16666679e-002 4.16666679e-002 4.16666679e-002 2.50000000e-001
      6.66666687e-001 8.75000000e-001 6.25000000e-001 4.58333343e-001
      4.16666657e-001 3.75000000e-001 4.16666657e-001 5.41666687e-001
      7.08333313e-001 8.33333313e-001 6.25000000e-001 1.66666672e-001
      4.16666679e-002 4.16666679e-002 4.16666679e-002 8.33333358e-002
      7.08333313e-001 7.08333313e-001 5.00000000e-001 3.33333343e-001
      2.91666657e-001 2.91666657e-001 3.33333343e-001 3.33333343e-001
      4.16666657e-001 5.83333313e-001 5.00000000e-001 2.08333328e-001 0.
      0. 1.25000000e-001 2.50000000e-001 4.16666679e-002 4.16666679e-002
      4.16666679e-002 8.33333358e-002 1.66666672e-001 1. 6.57894760e-002
      1.31578952e-001 3.42105269e-001 2.63157897e-002 2.63157897e-002
      5.26315793e-002 5.26315793e-002 3.94736826e-002 5.52631557e-001
      7.63157904e-001 7.36842096e-001 5.26315808e-001 5.52631557e-001
      5.00000000e-001 5.52631557e-001 5.00000000e-001 5.52631557e-001
      6.84210539e-001 7.89473712e-001 8.42105269e-001 6.57894731e-001
      4.47368413e-001 3.94736856e-001 4.21052635e-001 4.34210539e-001
      4.34210539e-001 4.47368413e-001 5.00000000e-001 7.23684192e-001
      6.44736826e-001 4.21052635e-001 7.89473653e-002 3.94736826e-002
      2.63157897e-002 2.63157897e-002</_>
    <_>
      0. 0. 0. 0. 2.30769232e-001 3.84615391e-001 6.15384638e-001
      8.07692289e-001 8.46153855e-001 7.30769217e-001 8.07692289e-001
      9.23076928e-001 8.84615362e-001 7.30769217e-001 5.76923072e-001
      5.76923072e-001 6.53846145e-001 6.92307711e-001 7.30769217e-001
      8.46153855e-001 7.69230783e-001 8.07692289e-001 5.00000000e-001
      3.07692319e-001 4.61538464e-001 3.84615391e-001 1.53846160e-001
      7.69230798e-002 3.07692319e-001 4.23076928e-001 5.00000000e-001
      6.92307711e-001 7.30769217e-001 6.15384638e-001 4.61538464e-001
      1.92307696e-001 0. 0. 0. 7.69230798e-002 1.15384616e-001
      1.92307696e-001 3.46153855e-001 3.07692319e-001 5.00000000e-001
      5.76923072e-001 7.30769217e-001 9.61538434e-001 1. 9.23076928e-001
      1.92307696e-001 1.53846160e-001 1.53846160e-001 6.15384638e-001
      6.15384638e-001 6.53846145e-001 6.92307711e-001 6.53846145e-001
      6.15384638e-001 5.38461566e-001 1.15384616e-001 7.69230798e-002
      7.69230798e-002 7.69230798e-002 7.69230798e-002 2.30769232e-001
      3.84615391e-001 3.46153855e-001 2.30769232e-001 7.69230798e-002 0.
      3.84615399e-002 1.15384616e-001 1.92307696e-001 3.07692319e-001
      3.46153855e-001 3.84615391e-001 3.07692319e-001 0. 0. 0. 0. 0. 0.
      0. 0. 0. 0. 0. 0. 0. 0. 0. 0. 0. 0. 7.69230798e-002
      1.15384616e-001 1.15384616e-001 1.15384616e-001 1.15384616e-001 0.
      0. 0. 0. 1.92307696e-001 2.69230783e-001 3.07692319e-001
      2.30769232e-001 3.84615399e-002 0. 0. 0. 0. 0. 0. 0. 0. 0. 0.
      7.69230798e-002 1.15384616e-001 1.53846160e-001 1.53846160e-001
      2.30769232e-001 2.30769232e-001 1.92307696e-001 1.92307696e-001
      1.92307696e-001 1.53846160e-001 1.15384616e-001 7.69230798e-002
      3.84615399e-002 0. 0. 0. 0. 1.04166664e-001 4.16666657e-001
      5.62500000e-001 5.41666687e-001 6.66666687e-001 6.04166687e-001
      6.04166687e-001 6.66666687e-001 7.08333313e-001 8.12500000e-001
      7.91666687e-001 9.37500000e-001 1. 9.79166687e-001 9.37500000e-001
      8.54166687e-001 8.33333313e-001 7.50000000e-001 6.66666687e-001
      6.04166687e-001 5.83333313e-001 5.20833313e-001 4.58333343e-001
      3.75000000e-001 3.75000000e-001 3.54166657e-001 2.91666657e-001
      2.29166672e-001 2.70833343e-001 2.50000000e-001 2.91666657e-001
      3.54166657e-001 3.75000000e-001 3.33333343e-001 3.54166657e-001</_>
    <_>
      1.11111112e-001 2.77777791e-001 4.44444448e-001 5.55555582e-001
      5.83333313e-001 5.83333313e-001 6.94444418e-001 6.66666687e-001
      5.27777791e-001 2.77777791e-001 2.22222224e-001 4.16666657e-001
      8.61111104e-001 8.61111104e-001 7.22222209e-001 2.50000000e-001
      1.94444448e-001 1.38888896e-001 2.77777780e-002 0. 0. 0. 0.
      1.38888896e-001 1. 1. 1. 1. 5.83333313e-001 1.38888896e-001
      1.38888896e-001 1.38888896e-001 1.38888896e-001 1.38888896e-001
      1.38888896e-001 1.66666672e-001 1.66666672e-001 2.22222224e-001
      4.16666657e-001 9.44444418e-001 9.16666687e-001 8.33333313e-001
      7.22222209e-001 0. 0. 0. 0. 0. 1.11111112e-001 1.38888896e-001
      1.66666672e-001 1.66666672e-001 8.33333358e-002 0. 0. 0. 0. 0.
      1.11111112e-001 1.38888896e-001 1.38888896e-001 1.11111112e-001
      1.11111112e-001 1.11111112e-001 1.11111112e-001 1.38888896e-001
      4.44444448e-001 6.38888896e-001 7.22222209e-001 8.33333313e-001
      5.83333313e-001 5.55555582e-001 4.44444448e-001 3.33333343e-001
      2.50000000e-001 1.94444448e-001 0. 0. 0. 0. 0. 2.77777780e-002
      5.83333313e-001 7.22222209e-001 8.05555582e-001 8.33333313e-001
      6.11111104e-001 3.88888896e-001 3.33333343e-001 3.33333343e-001
      3.05555552e-001 3.33333343e-001 3.33333343e-001 3.88888896e-001
      3.88888896e-001 4.72222209e-001 6.94444418e-001 6.94444418e-001
      5.83333313e-001 4.72222209e-001 1.94444448e-001 0. 0. 0. 0.
      3.33333343e-001 7.77777791e-001 8.88888896e-001 9.16666687e-001 1.
      4.44444448e-001 3.05555552e-001 2.22222224e-001 1.94444448e-001
      1.66666672e-001 1.94444448e-001 1.94444448e-001 2.50000000e-001
      2.50000000e-001 3.33333343e-001 9.44444418e-001 9.16666687e-001
      8.61111104e-001 7.77777791e-001 6.11111104e-001 0. 0. 0. 0.
      8.33333358e-002 1. 1. 1. 9.44444418e-001 1.66666672e-001
      1.11111112e-001 8.29268277e-001 9.02438998e-001 1. 9.26829278e-001
      6.70731723e-001 5.85365832e-001 5.48780501e-001 4.63414639e-001
      4.51219499e-001 3.90243888e-001 3.78048778e-001 4.02439028e-001
      4.51219499e-001 5.12195110e-001 6.34146333e-001 6.95121944e-001
      7.07317054e-001 6.82926834e-001 6.09756112e-001 5.73170722e-001
      5.12195110e-001 4.39024389e-001 4.87804890e-001 5.24390221e-001
      5.48780501e-001 5.12195110e-001 5.73170722e-001 5.60975611e-001
      5.36585391e-001 5.36585391e-001 5.36585391e-001 5.97561002e-001
      6.70731723e-001 7.43902445e-001 7.68292665e-001 7.19512224e-001</_>
    <_>
      0. 0. 2.33333334e-001 7.66666651e-001 0. 0. 6.00000024e-001
      7.66666651e-001 7.66666651e-001 7.66666651e-001 6.66666687e-001
      5.66666663e-001 5.66666663e-001 8.99999976e-001 7.66666651e-001
      6.99999988e-001 7.33333349e-001 7.33333349e-001 5.00000000e-001
      2.00000003e-001 1.33333340e-001 1.66666672e-001 4.66666669e-001
      7.66666651e-001 8.33333313e-001 8.66666675e-001 8.33333313e-001
      4.33333337e-001 1.00000001e-001 1.00000001e-001 5.33333361e-001
      6.33333325e-001 6.33333325e-001 6.33333325e-001 6.33333325e-001
      6.00000024e-001 5.33333361e-001 4.33333337e-001 5.66666663e-001
      6.66666687e-001 7.33333349e-001 7.33333349e-001 5.66666663e-001
      5.66666663e-001 3.66666675e-001 7.33333349e-001 8.33333313e-001 1.
      8.99999976e-001 7.66666651e-001 3.00000012e-001 3.33333343e-001
      8.33333313e-001 8.00000012e-001 8.00000012e-001 7.33333349e-001
      2.00000003e-001 6.66666701e-002 1.33333340e-001 7.66666651e-001
      8.99999976e-001 9.33333337e-001 6.99999988e-001 7.66666651e-001
      7.66666651e-001 7.33333349e-001 6.66666687e-001 8.00000012e-001
      6.99999988e-001 6.00000024e-001 6.33333325e-001 6.00000024e-001
      5.66666663e-001 5.33333361e-001 6.00000024e-001 5.33333361e-001
      5.66666663e-001 6.33333325e-001 6.66666687e-001 6.00000024e-001
      5.33333361e-001 6.99999988e-001 6.99999988e-001 6.99999988e-001
      7.66666651e-001 8.33333313e-001 7.33333349e-001 7.66666651e-001
      5.66666663e-001 5.66666663e-001 5.66666663e-001 7.33333349e-001
      7.66666651e-001 8.00000012e-001 6.99999988e-001 2.00000003e-001
      1.00000001e-001 3.33333343e-001 5.66666663e-001 6.33333325e-001
      6.99999988e-001 6.99999988e-001 2.66666681e-001 2.33333334e-001
      4.00000006e-001 6.33333325e-001 5.66666663e-001 5.66666663e-001
      8.00000012e-001 7.66666651e-001 6.33333325e-001 5.66666663e-001
      2.33333334e-001 2.00000003e-001 2.33333334e-001 7.33333349e-001
      7.33333349e-001 7.66666651e-001 6.99999988e-001 7.66666651e-001
      6.66666687e-001 6.00000024e-001 5.33333361e-001 6.00000024e-001
      7.66666651e-001 8.33333313e-001 8.33333313e-001 7.33333349e-001
      4.00000006e-001 6.66666701e-002 2.00000003e-001 9.33333337e-001
      9.33333337e-001 0. 0. 0. 7.84313753e-002 1.76470593e-001
      4.90196086e-002 5.88235296e-002 2.54901975e-001 6.56862736e-001
      9.11764681e-001 9.80392158e-001 1. 1. 9.21568632e-001
      9.01960790e-001 8.82352948e-001 9.21568632e-001 8.82352948e-001
      9.01960790e-001 9.50980365e-001 9.41176474e-001 9.50980365e-001
      8.82352948e-001 7.94117630e-001 7.25490212e-001 6.56862736e-001
      6.66666687e-001 8.13725471e-001 8.82352948e-001 8.43137264e-001
      7.25490212e-001 4.60784316e-001 2.74509817e-001 2.05882356e-001
      4.80392158e-001 7.94117630e-001 3.23529422e-001 0. 0.</_>
    <_>
      0. 1.29032254e-001 2.25806445e-001 4.19354826e-001 5.16129017e-001
      7.09677398e-001 8.06451619e-001 1. 9.35483873e-001 8.70967746e-001
      8.70967746e-001 9.03225780e-001 7.41935492e-001 5.48387110e-001
      5.80645144e-001 4.19354826e-001 3.54838699e-001 2.90322572e-001
      1.61290318e-001 0. 0. 0. 0. 0. 0. 0. 0. 0. 0. 0. 0. 0. 0. 0. 0. 0.
      0. 0. 0. 0. 0. 0. 0. 0. 0. 6.45161271e-002 1.29032254e-001
      1.93548381e-001 3.22580636e-001 3.22580636e-001 2.90322572e-001
      3.22580636e-001 3.87096763e-001 4.19354826e-001 4.51612890e-001
      5.80645144e-001 7.41935492e-001 8.70967746e-001 9.03225780e-001
      9.03225780e-001 9.03225780e-001 8.38709652e-001 9.67741907e-001
      9.03225780e-001 8.70967746e-001 8.06451619e-001 6.77419364e-001
      4.19354826e-001 2.58064508e-001 3.22580636e-002 3.22580636e-002 0.
      0. 0. 0. 0. 0. 0. 0. 0. 0. 0. 0. 1.29032254e-001 3.22580636e-001
      3.54838699e-001 3.22580636e-001 1.61290318e-001 4.51612890e-001
      4.83870953e-001 4.83870953e-001 5.16129017e-001 5.16129017e-001
      4.83870953e-001 4.51612890e-001 4.19354826e-001 4.19354826e-001
      4.19354826e-001 4.51612890e-001 4.51612890e-001 3.87096763e-001
      1.61290318e-001 2.25806445e-001 4.19354826e-001 4.19354826e-001
      4.19354826e-001 2.58064508e-001 0. 0. 3.22580636e-001
      5.80645144e-001 6.12903237e-001 5.48387110e-001 6.45161271e-002 0.
      0. 3.22580636e-002 1.93548381e-001 0. 0. 0. 0. 0. 0. 0. 0. 0.
      6.45161271e-002 0. 0. 0. 2.25806445e-001 3.22580636e-001
      2.58064508e-001 0. 0. 2.19999999e-001 3.00000012e-001
      4.00000006e-001 4.60000008e-001 4.19999987e-001 2.80000001e-001
      3.19999993e-001 4.19999987e-001 4.79999989e-001 5.00000000e-001
      6.20000005e-001 7.20000029e-001 7.59999990e-001 5.60000002e-001
      5.79999983e-001 6.20000005e-001 6.60000026e-001 6.20000005e-001
      6.60000026e-001 7.20000029e-001 7.79999971e-001 8.39999974e-001
      8.60000014e-001 9.39999998e-001 9.80000019e-001 9.59999979e-001 1.
      8.99999976e-001 8.79999995e-001 8.60000014e-001 8.19999993e-001
      7.59999990e-001 7.20000029e-001 5.00000000e-001 2.39999995e-001
      2.39999995e-001</_>
    <_>
      0. 0. 0. 0. 0. 1.72413796e-001 4.13793117e-001 5.86206913e-001
      6.20689631e-001 3.79310340e-001 3.44827592e-001 4.13793117e-001
      4.82758611e-001 5.17241359e-001 6.20689631e-001 5.51724136e-001
      4.13793117e-001 2.41379306e-001 0. 0. 0. 0. 9.31034505e-001
      9.65517223e-001 9.65517223e-001 9.31034505e-001 5.51724136e-001
      4.13793117e-001 3.79310340e-001 4.13793117e-001 4.48275864e-001
      3.79310340e-001 4.13793117e-001 3.79310340e-001 3.44827592e-001
      1.72413796e-001 1.03448279e-001 0. 0. 1.03448279e-001
      2.06896558e-001 1.72413796e-001 1.37931034e-001 1.03448279e-001 0.
      6.89655170e-002 9.65517223e-001 9.65517223e-001 9.65517223e-001
      9.65517223e-001 6.20689631e-001 2.75862068e-001 1.03448279e-001
      1.03448279e-001 1.03448279e-001 1.37931034e-001 5.51724136e-001
      9.31034505e-001 9.65517223e-001 1. 1. 2.06896558e-001 0. 0.
      1.72413796e-001 6.55172408e-001 8.62068951e-001 8.96551728e-001
      7.58620679e-001 4.82758611e-001 4.48275864e-001 4.48275864e-001
      4.82758611e-001 5.51724136e-001 7.93103456e-001 8.27586234e-001
      7.24137902e-001 4.82758611e-001 0. 0. 0. 3.10344815e-001
      7.24137902e-001 8.27586234e-001 8.96551728e-001 5.17241359e-001
      3.10344815e-001 2.41379306e-001 2.41379306e-001 2.75862068e-001
      3.79310340e-001 3.79310340e-001 4.82758611e-001 4.82758611e-001
      3.79310340e-001 2.06896558e-001 0. 0. 2.41379306e-001
      5.86206913e-001 7.24137902e-001 7.93103456e-001 8.62068951e-001
      2.75862068e-001 2.75862068e-001 2.41379306e-001 2.75862068e-001
      3.10344815e-001 3.10344815e-001 6.55172408e-001 8.62068951e-001
      7.93103456e-001 6.20689631e-001 3.44827585e-002 0. 0. 0.
      7.93103456e-001 8.62068951e-001 8.96551728e-001 4.48275864e-001
      3.79310340e-001 3.10344815e-001 2.75862068e-001 2.75862068e-001
      2.75862068e-001 3.44827592e-001 8.27586234e-001 8.27586234e-001
      7.58620679e-001 4.13793117e-001 0. 0. 0. 0. 0. 0. 0.
      2.87499994e-001 6.12500012e-001 8.75000000e-001 9.37500000e-001 1.
      8.62500012e-001 6.12500012e-001 5.50000012e-001 5.12499988e-001
      5.50000012e-001 6.62500024e-001 7.87500024e-001 8.50000024e-001
      8.62500012e-001 8.24999988e-001 7.37500012e-001 5.74999988e-001
      5.62500000e-001 5.50000012e-001 5.37500024e-001 5.37500024e-001
      5.62500000e-001 6.25000000e-001 7.87500024e-001 9.37500000e-001 1.
      8.50000024e-001 5.62500000e-001 1.00000001e-001 0. 0. 0.
      2.50000004e-002 2.00000003e-001</_>
    <_>
      0. 0. 9.14285719e-001 9.71428573e-001 9.71428573e-001
      7.42857158e-001 6.85714304e-001 4.85714287e-001 5.14285743e-001
      4.57142860e-001 5.42857170e-001 6.57142878e-001 7.42857158e-001
      3.71428579e-001 3.42857152e-001 5.14285743e-001 7.42857158e-001
      8.00000012e-001 9.14285719e-001 9.71428573e-001 9.71428573e-001
      9.71428573e-001 2.85714298e-001 2.57142872e-001 2.57142872e-001
      3.71428579e-001 7.71428585e-001 8.00000012e-001 6.57142878e-001
      6.28571451e-001 5.71428597e-001 5.14285743e-001 5.42857170e-001
      8.57142881e-002 5.71428575e-002 8.57142881e-002 8.85714293e-001
      9.71428573e-001 9.71428573e-001 9.71428573e-001 8.85714293e-001
      8.85714293e-001 9.14285719e-001 9.71428573e-001 9.71428573e-001
      9.71428573e-001 9.71428573e-001 8.85714293e-001 8.28571439e-001
      8.28571439e-001 8.28571439e-001 8.57142866e-001 8.85714293e-001
      9.14285719e-001 8.85714293e-001 8.85714293e-001 8.57142866e-001
      2.85714298e-001 3.14285725e-001 3.42857152e-001 4.00000006e-001
      9.71428573e-001 9.42857146e-001 9.42857146e-001 7.71428585e-001
      6.57142878e-001 5.71428597e-001 5.42857170e-001 5.42857170e-001
      5.14285743e-001 4.57142860e-001 5.14285743e-001 4.57142860e-001
      4.28571433e-001 3.71428579e-001 4.28571433e-001 5.42857170e-001
      7.14285731e-001 1. 1. 1. 1. 8.00000012e-001 7.14285731e-001
      6.00000024e-001 6.28571451e-001 6.85714304e-001 6.85714304e-001
      6.85714304e-001 6.85714304e-001 5.71428597e-001 6.00000024e-001
      5.14285743e-001 6.00000024e-001 6.85714304e-001 9.14285719e-001 1.
      8.85714293e-001 8.57142866e-001 6.28571451e-001 4.85714287e-001
      4.28571433e-001 3.71428579e-001 4.00000006e-001 4.57142860e-001
      6.00000024e-001 6.57142878e-001 6.28571451e-001 6.57142878e-001
      5.42857170e-001 5.71428597e-001 6.57142878e-001 7.14285731e-001
      9.71428573e-001 9.71428573e-001 9.71428573e-001 8.85714293e-001
      6.85714304e-001 6.00000024e-001 5.14285743e-001 5.42857170e-001
      6.00000024e-001 6.28571451e-001 6.57142878e-001 6.57142878e-001
      6.00000024e-001 6.00000024e-001 6.00000024e-001 7.14285731e-001
      7.71428585e-001 9.42857146e-001 1. 1. 8.57142881e-002
      5.71428575e-002 0. 1.75572515e-001 6.03053451e-001 8.09160292e-001
      8.01526725e-001 8.39694679e-001 8.39694679e-001 6.64122164e-001
      5.72519064e-001 4.88549620e-001 5.41984737e-001 6.03053451e-001
      6.33587778e-001 6.71755731e-001 6.87022924e-001 7.17557251e-001
      6.64122164e-001 6.25954211e-001 5.64885497e-001 6.18320584e-001
      6.18320584e-001 6.64122164e-001 6.79389298e-001 7.02290058e-001
      6.56488538e-001 6.56488538e-001 6.71755731e-001 6.41221344e-001
      5.64885497e-001 4.96183217e-001 5.64885497e-001 7.70992339e-001 1.
      9.92366433e-001 9.08396959e-001 9.00763333e-001 4.04580146e-001</_>
    <_>
      0. 0. 0. 5.75757563e-001 9.69696999e-001 8.18181813e-001
      3.63636374e-001 3.33333343e-001 5.15151501e-001 3.93939406e-001
      4.54545468e-001 5.75757563e-001 4.84848499e-001 3.03030312e-001
      3.63636374e-001 3.03030312e-001 3.33333343e-001 3.63636374e-001
      6.36363626e-001 9.09090936e-001 9.69696999e-001 1. 1.
      1.81818187e-001 1.51515156e-001 1.51515156e-001 3.33333343e-001
      7.87878811e-001 7.57575750e-001 6.36363626e-001 3.93939406e-001
      1.81818187e-001 0. 1.51515156e-001 2.72727281e-001 4.24242437e-001
      4.24242437e-001 4.54545468e-001 5.45454562e-001 4.54545468e-001
      3.03030312e-001 3.63636374e-001 3.03030312e-001 3.63636374e-001
      6.36363626e-001 7.57575750e-001 7.87878811e-001 5.75757563e-001
      5.15151501e-001 4.54545468e-001 3.03030312e-001 3.33333343e-001
      4.54545468e-001 4.24242437e-001 3.93939406e-001 3.63636374e-001
      3.93939406e-001 3.63636374e-001 4.54545468e-001 5.15151501e-001
      6.36363626e-001 9.09090936e-001 1. 9.69696999e-001 1.
      8.78787875e-001 8.48484874e-001 8.18181813e-001 8.18181813e-001
      8.48484874e-001 5.45454562e-001 4.54545468e-001 3.63636374e-001
      3.93939406e-001 5.45454562e-001 6.36363626e-001 6.66666687e-001
      7.87878811e-001 8.48484874e-001 1. 1. 1. 7.57575750e-001
      4.84848499e-001 3.33333343e-001 2.72727281e-001 4.54545468e-001
      6.36363626e-001 6.36363626e-001 6.36363626e-001 5.75757563e-001
      4.84848499e-001 3.03030312e-001 3.33333343e-001 4.54545468e-001
      7.27272749e-001 1. 8.78787875e-001 7.57575750e-001 3.93939406e-001
      2.42424250e-001 1.81818187e-001 1.51515156e-001 2.12121218e-001
      2.72727281e-001 3.03030312e-001 4.54545468e-001 5.15151501e-001
      5.15151501e-001 4.84848499e-001 5.75757563e-001 6.66666687e-001
      7.57575750e-001 9.69696999e-001 9.69696999e-001 1. 9.09090936e-001
      8.48484874e-001 8.48484874e-001 8.48484874e-001 8.48484874e-001
      8.18181813e-001 5.75757563e-001 4.24242437e-001 3.33333343e-001
      3.03030312e-001 4.84848499e-001 6.66666687e-001 6.66666687e-001
      7.87878811e-001 8.78787875e-001 1. 9.69696999e-001 0. 0. 0.
      1.78571437e-002 0. 6.51785731e-001 8.03571403e-001 8.21428597e-001
      8.39285731e-001 6.51785731e-001 4.73214298e-001 4.10714298e-001
      4.19642866e-001 4.37500000e-001 6.69642866e-001 7.05357134e-001
      7.41071403e-001 7.05357134e-001 7.05357134e-001 7.05357134e-001
      5.53571403e-001 5.44642866e-001 5.26785731e-001 5.44642866e-001
      6.51785731e-001 6.69642866e-001 6.51785731e-001 6.42857134e-001
      6.33928597e-001 6.16071403e-001 6.25000000e-001 5.71428597e-001
      6.07142866e-001 6.78571403e-001 7.76785731e-001 9.46428597e-001 1.
      9.55357134e-001 2.67857146e-002</_>
    <_>
      0. 0. 0. 0. 0. 0. 1.51515156e-001 2.72727281e-001 3.03030312e-001
      4.54545468e-001 6.66666687e-001 4.84848499e-001 2.72727281e-001
      3.33333343e-001 6.66666687e-001 7.27272749e-001 3.33333343e-001
      2.42424250e-001 1.81818187e-001 0. 0. 0. 0. 5.45454562e-001
      9.69696999e-001 1. 5.15151501e-001 3.33333343e-001 3.33333343e-001
      3.33333343e-001 3.33333343e-001 3.33333343e-001 3.33333343e-001
      3.33333343e-001 3.33333343e-001 1.81818187e-001 9.09090936e-002 0.
      0. 0. 0. 6.06060624e-002 9.09090936e-002 6.06060624e-002 0. 0. 0.
      3.03030312e-002 8.78787875e-001 1. 8.18181813e-001 5.15151501e-001
      1.81818187e-001 1.81818187e-001 2.12121218e-001 3.33333343e-001
      5.75757563e-001 7.57575750e-001 6.96969688e-001 4.24242437e-001
      1.51515156e-001 9.09090936e-002 0. 0. 0. 6.06060624e-002
      1.51515156e-001 3.33333343e-001 2.72727281e-001 2.42424250e-001
      3.33333343e-001 3.93939406e-001 4.24242437e-001 4.84848499e-001
      5.45454562e-001 5.75757563e-001 7.57575750e-001 5.75757563e-001
      4.24242437e-001 0. 0. 0. 0. 0. 6.36363626e-001 1. 1.
      5.15151501e-001 3.33333343e-001 3.03030312e-001 4.84848499e-001
      7.27272749e-001 5.45454562e-001 5.45454562e-001 8.18181813e-001
      7.87878811e-001 4.54545468e-001 1.21212125e-001 0. 0. 0.
      9.09090936e-002 6.66666687e-001 7.27272749e-001 6.66666687e-001
      2.72727281e-001 3.03030312e-001 2.72727281e-001 3.03030312e-001
      3.03030312e-001 3.33333343e-001 4.84848499e-001 5.75757563e-001
      5.15151501e-001 1.21212125e-001 0. 0. 0. 0. 0. 0. 0. 0. 0.
      6.96969688e-001 1. 6.66666687e-001 6.06060624e-002 0. 0. 0. 0. 0.
      0. 0. 0. 2.87878782e-001 6.36363626e-001 8.93939376e-001 1.
      8.48484874e-001 5.75757563e-001 5.00000000e-001 4.54545468e-001
      4.24242437e-001 4.09090906e-001 3.78787875e-001 4.54545468e-001
      5.00000000e-001 6.06060624e-001 8.33333313e-001 8.63636374e-001
      9.09090936e-001 8.33333313e-001 6.06060624e-001 5.90909064e-001
      6.06060624e-001 5.45454562e-001 5.00000000e-001 4.84848499e-001
      4.54545468e-001 4.69696969e-001 5.60606062e-001 5.15151501e-001
      5.15151501e-001 4.69696969e-001 6.21212125e-001 7.42424250e-001
      6.21212125e-001 2.87878782e-001 1.51515156e-002 0.</_>
    <_>
      5.00000000e-001 5.00000000e-001 5.00000000e-001 5.00000000e-001
      5.00000000e-001 6.66666687e-001 5.00000000e-001 5.00000000e-001
      5.00000000e-001 5.00000000e-001 5.00000000e-001 5.00000000e-001
      5.00000000e-001 5.00000000e-001 5.00000000e-001 5.00000000e-001
      5.00000000e-001 5.00000000e-001 5.00000000e-001 5.00000000e-001
      5.00000000e-001 5.00000000e-001 5.00000000e-001 6.66666687e-001
      6.66666687e-001 6.66666687e-001 5.00000000e-001 5.00000000e-001
      5.00000000e-001 5.00000000e-001 5.00000000e-001 5.00000000e-001
      5.00000000e-001 5.00000000e-001 5.00000000e-001 5.00000000e-001
      5.00000000e-001 6.66666687e-001 6.66666687e-001 6.66666687e-001
      6.66666687e-001 6.66666687e-001 5.00000000e-001 5.00000000e-001
      5.00000000e-001 5.00000000e-001 5.00000000e-001 5.00000000e-001
      5.00000000e-001 5.00000000e-001 5.00000000e-001 5.00000000e-001
      5.00000000e-001 5.00000000e-001 5.00000000e-001 5.00000000e-001
      5.00000000e-001 3.33333343e-001 3.33333343e-001 3.33333343e-001
      3.33333343e-001 3.33333343e-001 3.33333343e-001 3.33333343e-001
      3.33333343e-001 3.33333343e-001 1.66666672e-001 1.66666672e-001
      1.66666672e-001 1.66666672e-001 1.66666672e-001 1.66666672e-001
      3.33333343e-001 3.33333343e-001 3.33333343e-001 3.33333343e-001
      3.33333343e-001 3.33333343e-001 3.33333343e-001 5.00000000e-001
      5.00000000e-001 5.00000000e-001 5.00000000e-001 6.66666687e-001 1.
      1. 8.33333313e-001 1. 8.33333313e-001 8.33333313e-001
      8.33333313e-001 1. 6.66666687e-001 5.00000000e-001 6.66666687e-001
      6.66666687e-001 8.33333313e-001 6.66666687e-001 3.33333343e-001
      5.00000000e-001 5.00000000e-001 5.00000000e-001 5.00000000e-001
      6.66666687e-001 6.66666687e-001 6.66666687e-001 8.33333313e-001 1.
      1. 8.33333313e-001 1. 1. 5.00000000e-001 3.33333343e-001
      1.66666672e-001 0. 1.66666672e-001 5.00000000e-001 5.00000000e-001
      6.66666687e-001 8.33333313e-001 8.33333313e-001 6.66666687e-001
      6.66666687e-001 5.00000000e-001 6.66666687e-001 6.66666687e-001
      6.66666687e-001 5.00000000e-001 5.00000000e-001 5.00000000e-001
      6.66666687e-001 5.00000000e-001 3.33333343e-001 1.66666672e-001 0.
      0. 0. 0. 3.61445770e-002 1.32530123e-001 1.08433738e-001
      9.63855386e-002 0. 0. 0. 0. 0. 0. 1.20481923e-002 0.
      2.40963846e-002 8.43373463e-002 8.43373463e-002 7.22891539e-002
      7.22891539e-002 7.22891539e-002 6.02409653e-002 6.02409653e-002
      6.02409653e-002 6.02409653e-002 6.02409653e-002 7.22891539e-002
      7.22891539e-002 1.44578308e-001 3.97590369e-001 5.66265047e-001
      7.71084309e-001 1. 6.74698770e-001 3.61445785e-001 3.61445770e-002</_>
    <_>
      0. 1.81818187e-001 2.42424250e-001 3.03030312e-001 3.33333343e-001
      3.03030312e-001 3.33333343e-001 3.33333343e-001 3.33333343e-001
      3.03030312e-001 2.12121218e-001 1.81818187e-001 1.81818187e-001
      1.81818187e-001 1.51515156e-001 1.51515156e-001 1.51515156e-001
      1.81818187e-001 2.12121218e-001 2.42424250e-001 1. 1. 1.
      9.69696999e-001 9.69696999e-001 9.69696999e-001 9.39393938e-001
      8.78787875e-001 8.18181813e-001 1.51515156e-001 0. 0. 0. 0. 0. 0.
      0. 0. 0. 0. 0. 0. 0. 0. 0. 9.09090936e-002 1.51515156e-001
      2.12121218e-001 2.72727281e-001 3.03030312e-001 3.63636374e-001
      4.54545468e-001 4.84848499e-001 5.75757563e-001 6.36363626e-001
      6.36363626e-001 6.66666687e-001 6.96969688e-001 7.27272749e-001
      7.87878811e-001 8.48484874e-001 7.87878811e-001 6.96969688e-001
      6.36363626e-001 5.45454562e-001 5.45454562e-001 5.75757563e-001
      6.36363626e-001 6.66666687e-001 7.57575750e-001 8.48484874e-001
      8.18181813e-001 7.57575750e-001 6.96969688e-001 6.36363626e-001
      6.36363626e-001 6.36363626e-001 6.36363626e-001 5.75757563e-001
      5.15151501e-001 4.54545468e-001 3.93939406e-001 3.33333343e-001
      2.72727281e-001 2.12121218e-001 1.21212125e-001 9.09090936e-002 0.
      0. 0. 0. 0. 0. 0. 0. 0. 0. 1.21212125e-001 1.81818187e-001
      4.24242437e-001 5.45454562e-001 6.06060624e-001 6.66666687e-001
      7.27272749e-001 7.87878811e-001 8.48484874e-001 8.48484874e-001
      8.78787875e-001 9.39393938e-001 9.39393938e-001 7.27272749e-001
      6.06060624e-001 5.45454562e-001 4.84848499e-001 4.24242437e-001
      4.24242437e-001 4.24242437e-001 3.93939406e-001 4.24242437e-001
      4.24242437e-001 4.84848499e-001 5.15151501e-001 5.75757563e-001
      6.36363626e-001 6.66666687e-001 6.66666687e-001 6.06060624e-001
      5.75757563e-001 5.15151501e-001 4.84848499e-001 4.84848499e-001
      3.93939406e-001 3.63636374e-001 3.03030312e-001 1.81818187e-001 0.
      3.52941185e-001 4.94117647e-001 5.41176498e-001 6.00000024e-001
      6.23529434e-001 6.58823550e-001 6.94117665e-001 6.47058845e-001
      6.47058845e-001 6.47058845e-001 5.52941203e-001 4.94117647e-001
      4.58823532e-001 4.82352942e-001 4.94117647e-001 5.05882382e-001
      4.94117647e-001 4.94117647e-001 5.05882382e-001 5.05882382e-001
      6.47058845e-001 7.41176486e-001 8.35294127e-001 8.82352948e-001
      9.41176474e-001 9.76470590e-001 1. 1. 8.23529422e-001
      8.00000012e-001 7.29411781e-001 6.58823550e-001 5.05882382e-001
      4.35294122e-001 4.70588244e-002 0.</_>
    <_>
      0. 0. 1.11111112e-001 2.22222224e-001 3.05555552e-001
      4.16666657e-001 2.50000000e-001 2.22222224e-001 1.94444448e-001
      5.55555582e-001 5.55555582e-001 3.05555552e-001 2.77777791e-001
      1.38888896e-001 0. 0. 0. 0. 0. 9.72222209e-001 1. 1.
      3.88888896e-001 3.33333343e-001 2.77777791e-001 2.77777791e-001
      3.05555552e-001 3.05555552e-001 3.05555552e-001 3.05555552e-001
      3.05555552e-001 1.94444448e-001 8.33333358e-002 0. 0. 0. 0. 0.
      8.33333358e-002 8.33333358e-002 2.77777780e-002 0. 0. 0. 0. 1. 1.
      1. 3.05555552e-001 2.22222224e-001 2.22222224e-001 2.22222224e-001
      2.77777791e-001 4.16666657e-001 5.55555582e-001 6.66666687e-001
      7.77777791e-001 5.83333313e-001 4.44444448e-001 1.66666672e-001 0.
      0. 0. 0. 3.88888896e-001 6.38888896e-001 8.61111104e-001
      7.50000000e-001 5.27777791e-001 3.61111104e-001 3.33333343e-001
      3.33333343e-001 3.88888896e-001 4.72222209e-001 6.38888896e-001
      8.88888896e-001 7.50000000e-001 5.00000000e-001 0. 0. 0. 0. 0.
      1.11111112e-001 1.11111112e-001 1.11111112e-001 1.11111112e-001
      8.33333358e-002 2.22222224e-001 5.27777791e-001 6.66666687e-001
      7.50000000e-001 5.83333313e-001 5.00000000e-001 3.88888896e-001
      2.77777791e-001 1.94444448e-001 0. 0. 0. 0. 0. 2.77777780e-002
      5.55555560e-002 8.33333358e-002 8.33333358e-002 8.33333358e-002
      3.33333343e-001 5.27777791e-001 6.94444418e-001 6.38888896e-001
      4.72222209e-001 4.72222209e-001 3.33333343e-001 2.50000000e-001
      1.66666672e-001 0. 0. 0. 0. 0. 2.22222224e-001 4.16666657e-001
      5.55555582e-001 6.38888896e-001 6.94444418e-001 5.27777791e-001
      5.00000000e-001 5.55555582e-001 6.94444418e-001 6.38888896e-001
      5.83333313e-001 3.61111104e-001 1.11111112e-001 0. 0.
      8.00000012e-001 8.93333316e-001 1. 7.73333311e-001 6.00000024e-001
      5.73333323e-001 4.79999989e-001 4.26666677e-001 4.39999998e-001
      4.13333327e-001 4.00000006e-001 4.26666677e-001 4.39999998e-001
      4.53333348e-001 5.33333361e-001 7.46666670e-001 7.86666691e-001
      7.59999990e-001 6.80000007e-001 5.86666644e-001 4.66666669e-001
      4.53333348e-001 4.39999998e-001 4.39999998e-001 4.26666677e-001
      3.73333335e-001 4.13333327e-001 4.39999998e-001 4.53333348e-001
      4.79999989e-001 5.06666660e-001 4.13333327e-001 5.06666660e-001
      5.86666644e-001 5.46666682e-001 4.53333348e-001</_>
    <_>
      0. 0. 0. 1.25000000e-001 1.25000000e-001 6.25000000e-002 0. 0. 0.
      0. 0. 0. 0. 1.25000000e-001 1.25000000e-001 1.25000000e-001 0. 0.
      0. 0. 0. 0. 6.25000000e-002 6.25000000e-002 2.50000000e-001
      2.50000000e-001 3.12500000e-001 2.50000000e-001 3.12500000e-001
      2.50000000e-001 1.87500000e-001 1.25000000e-001 0. 0. 0. 0. 0. 0.
      6.25000000e-002 1.87500000e-001 1.87500000e-001 2.50000000e-001
      3.12500000e-001 2.50000000e-001 3.12500000e-001 3.12500000e-001
      3.12500000e-001 2.50000000e-001 1.25000000e-001 1.25000000e-001
      1.87500000e-001 1.25000000e-001 3.12500000e-001 4.37500000e-001
      9.37500000e-001 7.50000000e-001 5.00000000e-001 4.37500000e-001
      3.12500000e-001 1.25000000e-001 6.25000000e-002 2.50000000e-001
      1.25000000e-001 2.50000000e-001 3.12500000e-001 1.87500000e-001
      3.75000000e-001 5.00000000e-001 5.62500000e-001 6.87500000e-001
      7.50000000e-001 9.37500000e-001 9.37500000e-001 1. 7.50000000e-001
      5.00000000e-001 4.37500000e-001 7.50000000e-001 6.25000000e-001
      6.25000000e-001 6.25000000e-001 4.37500000e-001 5.00000000e-001
      6.25000000e-001 8.12500000e-001 8.75000000e-001 7.50000000e-001
      8.12500000e-001 7.50000000e-001 3.75000000e-001 3.12500000e-001
      4.37500000e-001 3.12500000e-001 2.50000000e-001 2.50000000e-001
      2.50000000e-001 2.50000000e-001 2.50000000e-001 1.87500000e-001
      1.25000000e-001 1.25000000e-001 0. 1.25000000e-001 2.50000000e-001
      1.87500000e-001 1.87500000e-001 1.25000000e-001 1.25000000e-001
      1.87500000e-001 1.87500000e-001 1.87500000e-001 1.87500000e-001
      1.87500000e-001 1.25000000e-001 0. 0. 0. 0. 0. 0. 0. 0.
      1.25000000e-001 1.87500000e-001 1.87500000e-001 6.25000000e-002 0.
      0. 0. 0. 0. 1.87500000e-001 1.87500000e-001 1.87500000e-001 0. 0.
      1.11111112e-001 1.11111112e-001 4.44444448e-001 5.92592597e-001
      6.66666687e-001 6.66666687e-001 8.88888896e-001 7.40740716e-001
      7.40740716e-001 6.29629612e-001 4.07407403e-001 5.55555582e-001 1.
      6.66666687e-001 7.77777791e-001 8.88888896e-001 4.81481493e-001
      6.29629612e-001 7.03703701e-001 6.66666687e-001 8.14814806e-001
      6.29629612e-001 5.18518507e-001 4.07407403e-001 3.70370358e-001
      3.70370358e-001 1.48148149e-001 1.48148149e-001 4.81481493e-001
      4.44444448e-001 5.92592597e-001 8.88888896e-001 7.03703701e-001
      2.59259254e-001 1.48148149e-001 7.40740746e-002</_>
    <_>
      0. 0. 0. 6.25000000e-002 1.25000000e-001 2.18750000e-001
