<?xml version="1.0"?>
<opencv_storage>
<opencv_ml_ann_mlp>
  <format>3</format>
  <layer_sizes>
    140 40 35</layer_sizes>
  <activation_function>SIGMOID_SYM</activation_function>
  <f_param1>1.</f_param1>
  <f_param2>1.</f_param2>
  <min_val>-9.4999999999999996e-001</min_val>
  <max_val>9.4999999999999996e-001</max_val>
  <min_val1>-9.7999999999999998e-001</min_val1>
  <max_val1>9.7999999999999998e-001</max_val1>
  <training_params>
    <train_method>RPROP</train_method>
    <dw0>1.0000000000000001e-001</dw0>
    <dw_plus>1.2000000000000000e+000</dw_plus>
    <dw_minus>5.0000000000000000e-001</dw_minus>
    <dw_min>1.1920928955078125e-007</dw_min>
    <dw_max>50.</dw_max>
    <term_criteria>
      <epsilon>1.0000000000000000e-002</epsilon>
      <iterations>1000</iterations></term_criteria></training_params>
  <input_scale>
    6.9265250849190592e+000 -2.3922328849971941e+000
    6.6990748204756239e+000 -2.4665618667194651e+000
    6.4642108566158711e+000 -2.3818791478339687e+000
    6.1104976077692701e+000 -2.2958948495295619e+000
    4.7566868220173575e+000 -2.1369222371017296e+000
    3.8019131885922279e+000 -2.4296618088633077e+000
    3.6073699050048087e+000 -2.7326163836606585e+000
    3.6683764897737765e+000 -2.8977187316015076e+000
    6.2830707563838626e+000 -5.0881424582714283e+000
    6.7869840120088982e+000 -5.3536559425641466e+000
    6.5993781691395279e+000 -5.3728398369991330e+000
    6.5188862675081705e+000 -5.6658045626445661e+000
    5.3589681672864362e+000 -4.6804428670129665e+000
    4.9230951814342561e+000 -3.9503910673499969e+000
    5.2362541087014058e+000 -3.5163725647875341e+000
    6.2072320907357028e+000 -2.8675008504356985e+000
    4.6249050579318398e+000 -2.7818684023569096e-001
    4.9645434472811587e+000 -2.5897122995463984e-001
    5.1095576958460374e+000 -2.4745811461846076e-001
    5.1257233718435655e+000 -2.4845034435175814e-001
    6.8084932673056242e+000 -4.9877705097037088e+000
    7.1404324537489607e+000 -5.7095665686390742e+000
    7.1578136605598708e+000 -5.9487973671441452e+000
    6.9783536684954575e+000 -5.7798752308020447e+000
    6.8273808243396825e+000 -5.3614761402091267e+000
    7.1421040361051027e+000 -5.3420657383395822e+000
    7.3852446930771656e+000 -5.4936831326695366e+000
    7.2686922107894310e+000 -5.3930691025263977e+000
    6.1048977860405769e+000 -4.5511351154083108e+000
    5.9523771455243102e+000 -4.6122556352368402e+000
    5.8527863784862291e+000 -4.5088424359768497e+000
    5.9348641466705496e+000 -4.4269123634070935e+000
    6.0446794451079073e+000 -4.3921515887258531e+000
    5.9738158998370832e+000 -4.3313014740667599e+000
    5.9126673224891553e+000 -4.3923242502374347e+000
    5.6952434618477072e+000 -4.3407061947506058e+000
    5.2538959225590363e+000 -4.1514841211809506e+000
    5.3148458701483232e+000 -4.2379904510251105e+000
    5.5284127503432687e+000 -4.1663792116323695e+000
    5.6985811902224004e+000 -4.0517696685997553e+000
    2.0068064692474072e-001 -1.7926889442242272e-001
    1.1805051029354419e-001 -1.6440329979184842e-001
    2.5971483386057790e-002 -4.5976413682394246e-001
    1.1587155435966870e-002 -1.2079599466208126e+000
    1.2125112239012760e-002 -2.1831955190561305e+000
    1.4937753316265042e-002 -2.8172992434997162e+000
    1.2681810324835761e-002 -1.2584364397065837e+000
    2.8475875991239033e-002 -4.0149004217143297e-001
    1.1405927381270295e-001 -7.5720480515050495e-002
    2.0056119044441065e-001 -3.9371033689413658e-002
    1.9929360042480662e-001 -1.9680676288907098e-001
    9.2518124967269105e-002 -1.7589304567146852e-001
    1.9228918512503468e-002 -7.2211360937926661e-001
    1.1083733739998582e-002 -1.9447760170934989e+000
    1.1530448953829009e-002 -2.0384635586326225e+000
    1.2719489685891457e-002 -2.4532743382727684e+000
    1.2227341047038971e-002 -2.1029123388691882e+000
    2.1224611729286337e-002 -6.0754528265876517e-001
    9.7962552469285077e-002 -9.3204979812407190e-002
    2.0006598639642717e-001 -4.0256755871420212e-002
    1.9946877452717882e-001 -1.9750010444814969e-001
    7.7449499015835407e-002 -1.7679363466649525e-001
    1.6665464725744643e-002 -8.1579116378992600e-001
    1.0237410374952464e-002 -1.5566841527377120e+000
    1.3513595885044928e-002 -9.3976836051426615e-001
    1.1354409603786296e-002 -1.0481161707958404e+000
    1.0213524596169888e-002 -1.6336843437974489e+000
    1.8128889937822915e-002 -7.3040745810664331e-001
    8.1504084538202196e-002 -1.0461935164440624e-001
    1.9946136264462022e-001 -4.0586051181600982e-002
    1.9857582248305258e-001 -1.8007373606647947e-001
    7.1333922843964337e-002 -1.6719120777172111e-001
    1.5759897098316489e-002 -7.4846081043823887e-001
    9.2767557032862134e-003 -1.1855758322752499e+000
    1.0961589796533111e-002 -9.3607592226474157e-001
    1.1005595413021121e-002 -1.2694566720559664e+000
    1.0202216265975110e-002 -1.4598803701096450e+000
    1.7736425087254478e-002 -6.5003766600112611e-001
    8.0834435876949454e-002 -1.0449783834475383e-001
    1.9818908485217787e-001 -4.1119926648460557e-002
    1.9626994324478450e-001 -1.6869828295678890e-001
    7.2699322648308765e-002 -1.6058964288999891e-001
    1.6322594169950921e-002 -6.9505083397887224e-001
    9.1285238323177663e-003 -1.2268136723200869e+000
    9.8986191403732798e-003 -1.3672880847396016e+000
    1.0864977182262538e-002 -1.9078517295900075e+000
    1.1204445401316550e-002 -1.7355676183643334e+000
    1.8074430069162463e-002 -5.9088298106277426e-001
    8.1055085187625539e-002 -1.0382451585707114e-001
    1.9822881500948758e-001 -4.2188263020497468e-002
    1.9730221543539725e-001 -1.8396287000052583e-001
    7.8379990334231903e-002 -1.6710613939258243e-001
    1.7181520356626352e-002 -6.5937520672624961e-001
    9.5700293452162140e-003 -1.1916525644781397e+000
    1.1072092969244005e-002 -1.2155790917445890e+000
    1.0980519421400329e-002 -1.5499050904695353e+000
    1.0120182378496212e-002 -1.6130316688723887e+000
    1.6773272027504543e-002 -7.6406921430543018e-001
    7.6344922205615437e-002 -1.1098892016474624e-001
    1.9796425799769080e-001 -4.2424601203070345e-002
    1.9831356952013873e-001 -1.8517313995715215e-001
    7.2995155272376641e-002 -1.6761909242219880e-001
    1.6237114717927017e-002 -7.2220215400056209e-001
    9.6694893169417314e-003 -1.1172111140291316e+000
    1.0930292983994786e-002 -8.3742107035785229e-001
    1.1667666860976048e-002 -9.3016111356305253e-001
    9.7097023662432082e-003 -1.4510576047427950e+000
    1.5000799937811941e-002 -9.5334062077821879e-001
    6.8571096980920912e-002 -1.1963867611945110e-001
    1.9841616849911428e-001 -4.2245390310441853e-002
    1.9838274417711016e-001 -1.6893584467186432e-001
    6.8782396123616391e-002 -1.7149245676994704e-001
    1.6317248694178204e-002 -9.1768774212534532e-001
    1.0622273841155765e-002 -1.7024406034439032e+000
    1.0928198145541955e-002 -9.3741703581219049e-001
    1.1788790586266230e-002 -9.4160555794073009e-001
    9.4923128485648166e-003 -1.5053066544770717e+000
    1.5438939240190649e-002 -9.6331798395751822e-001
    7.2719062190493872e-002 -1.1787443811243445e-001
    1.9886299430145407e-001 -4.1735290151874729e-002
    1.9785431810550430e-001 -1.7115258752291798e-001
    7.8058095790538240e-002 -1.6648094916995926e-001
    1.8695102014098394e-002 -7.6275772368364747e-001
    1.0906289174614473e-002 -1.9193366617837264e+000
    1.1749067117159794e-002 -2.0174517261897020e+000
    1.2116873502791317e-002 -2.1281728918715199e+000
    1.0468482709879798e-002 -1.7605812294219856e+000
    2.0115398032568271e-002 -6.7526778987565472e-001
    8.9474522584225169e-002 -1.0048766925535306e-001
    2.0031285238777530e-001 -3.8817147090970193e-002
    2.0134292786107741e-001 -1.8587453857714159e-001
    1.1033257545986364e-001 -1.6775348538397528e-001
    2.7470060301962126e-002 -4.0773093895933638e-001
    1.2250482039093135e-002 -1.1675902473680435e+000
    1.0937345835729778e-002 -1.8686032132614163e+000
    1.1791124282696745e-002 -2.0637030782606844e+000
    1.2540341816299551e-002 -1.1855889959965922e+000
    3.0553696735848009e-002 -3.7022977072104801e-001
    1.0694092921845519e-001 -7.8629480609273730e-002
    2.0068511528031624e-001 -3.8060368384901712e-002</input_scale>
  <output_scale>
    5.2631578947368418e-001 4.9999999999999994e-001
    5.2631578947368418e-001 4.9999999999999994e-001
    5.2631578947368418e-001 4.9999999999999994e-001
    5.2631578947368418e-001 4.9999999999999994e-001
    5.2631578947368418e-001 4.9999999999999994e-001
    5.2631578947368418e-001 4.9999999999999994e-001
    5.2631578947368418e-001 4.9999999999999994e-001
    5.2631578947368418e-001 4.9999999999999994e-001
    5.2631578947368418e-001 4.9999999999999994e-001
    5.2631578947368418e-001 4.9999999999999994e-001
    5.2631578947368418e-001 4.9999999999999994e-001
    5.2631578947368418e-001 4.9999999999999994e-001
    5.2631578947368418e-001 4.9999999999999994e-001
    5.2631578947368418e-001 4.9999999999999994e-001
    5.2631578947368418e-001 4.9999999999999994e-001
    5.2631578947368418e-001 4.9999999999999994e-001
    5.2631578947368418e-001 4.9999999999999994e-001
    5.2631578947368418e-001 4.9999999999999994e-001
    5.2631578947368418e-001 4.9999999999999994e-001
    5.2631578947368418e-001 4.9999999999999994e-001
    5.2631578947368418e-001 4.9999999999999994e-001 1. 0.
    5.2631578947368418e-001 4.9999999999999994e-001
    5.2631578947368418e-001 4.9999999999999994e-001
    5.2631578947368418e-001 4.9999999999999994e-001
    5.2631578947368418e-001 4.9999999999999994e-001
    5.2631578947368418e-001 4.9999999999999994e-001
    5.2631578947368418e-001 4.9999999999999994e-001
    5.2631578947368418e-001 4.9999999999999994e-001
    5.2631578947368418e-001 4.9999999999999994e-001
    5.2631578947368418e-001 4.9999999999999994e-001
    5.2631578947368418e-001 4.9999999999999994e-001
    5.2631578947368418e-001 4.9999999999999994e-001
    5.2631578947368418e-001 4.9999999999999994e-001
    5.2631578947368418e-001 4.9999999999999994e-001</output_scale>
  <inv_output_scale>
    1.8999999999999999e+000 -9.4999999999999996e-001
    1.8999999999999999e+000 -9.4999999999999996e-001
    1.8999999999999999e+000 -9.4999999999999996e-001
    1.8999999999999999e+000 -9.4999999999999996e-001
    1.8999999999999999e+000 -9.4999999999999996e-001
    1.8999999999999999e+000 -9.4999999999999996e-001
    1.8999999999999999e+000 -9.4999999999999996e-001
    1.8999999999999999e+000 -9.4999999999999996e-001
    1.8999999999999999e+000 -9.4999999999999996e-001
    1.8999999999999999e+000 -9.4999999999999996e-001
    1.8999999999999999e+000 -9.4999999999999996e-001
    1.8999999999999999e+000 -9.4999999999999996e-001
    1.8999999999999999e+000 -9.4999999999999996e-001
    1.8999999999999999e+000 -9.4999999999999996e-001
    1.8999999999999999e+000 -9.4999999999999996e-001
    1.8999999999999999e+000 -9.4999999999999996e-001
    1.8999999999999999e+000 -9.4999999999999996e-001
    1.8999999999999999e+000 -9.4999999999999996e-001
    1.8999999999999999e+000 -9.4999999999999996e-001
    1.8999999999999999e+000 -9.4999999999999996e-001
    1.8999999999999999e+000 -9.4999999999999996e-001 1. 0.
    1.8999999999999999e+000 -9.4999999999999996e-001
    1.8999999999999999e+000 -9.4999999999999996e-001
    1.8999999999999999e+000 -9.4999999999999996e-001
    1.8999999999999999e+000 -9.4999999999999996e-001
    1.8999999999999999e+000 -9.4999999999999996e-001
    1.8999999999999999e+000 -9.4999999999999996e-001
    1.8999999999999999e+000 -9.4999999999999996e-001
    1.8999999999999999e+000 -9.4999999999999996e-001
    1.8999999999999999e+000 -9.4999999999999996e-001
    1.8999999999999999e+000 -9.4999999999999996e-001
    1.8999999999999999e+000 -9.4999999999999996e-001
    1.8999999999999999e+000 -9.4999999999999996e-001
    1.8999999999999999e+000 -9.4999999999999996e-001</inv_output_scale>
  <weights>
    <_>
      -3.9468169591994999e-002 1.1896202414062456e-002
      1.2357996258222839e-001 -4.0147804254422895e-002
      -4.1369010033738807e-001 4.5557196969008323e-001
      4.2015009688691579e-001 -2.0091380801885397e-001
      4.5687806108478474e-002 1.0619194328959766e-001
      3.4752113823208780e-001 5.7572247303760052e-002
      -3.0653703874951033e-001 6.4354069912608711e-002
      1.1710234441695479e-002 -1.0807006088551402e-001
      5.0433625763909612e-002 -1.4622009969352492e-001
      -9.2751070483132214e-001 7.4636414827078434e-001
      8.6121310968367143e-004 1.0123044654302699e-001
      -1.1441799111575637e-001 -6.0050950780210721e-001
      2.0734609922917926e-001 1.0139192420051253e-001
      -3.0612641300287735e-001 3.4366804014877139e-001
      1.3191297793934770e-001 -1.6911571054070063e-001
      -1.9538332186693144e-001 -3.4611268009235663e-001
      3.6095446289778767e-002 -1.4693115254200517e-001
      -1.5961164147749674e-001 -3.3611160852903492e-002
      -1.5610089948553010e-001 2.5367736686660057e-002
      3.3720256928458997e-001 -9.5230604692085288e-002
      3.1369703479549108e-002 2.1663629958147999e-002
      1.4848983427418364e-001 -2.5599267661659952e-001
      -5.8142700498495758e-001 4.3199091846538767e-001
      -4.0076023763728019e-001 -2.2345951998306268e-001
      4.4739015415598909e-002 1.0280685677991677e-001
      4.7229617106776539e-001 5.6988783798304007e-002
      -2.4987542997665427e-001 2.6236554883316367e-002
      6.3125168309922736e-002 1.5264367767877959e-003
      3.2903805640668457e-002 -1.4611287906096318e-001
      -1.0795658652178381e+000 7.2264550402528827e-001
      1.0711070178441011e-001 3.4126842265031737e-001
      -1.9162259258948128e-001 -4.3426646511782363e-001
      1.4120586140515246e-001 1.1870462636549832e-002
      -4.8706169523174864e-001 2.0335186273782091e-001
      8.6463391493005706e-002 -1.5236383739187109e-001
      -2.1510725044212489e-001 -2.7327361317857113e-001
      6.7795726144742385e-002 -1.4416763051035872e-001
      -9.8896005646625887e-002 -6.5999950715098371e-002
      -9.5497939193943532e-002 9.6117745998377288e-002
      4.5602991530992915e-001 -8.1268963773292277e-002
      -1.5869041999372568e-001 5.0903789377139630e-002
      2.0685166791127818e-001 -1.2389198001318899e-001
      -3.6174757409681763e-001 4.1757389182482962e-001
      -5.5621791257965469e-001 -2.3800932956018564e-001
      6.3271615554564495e-002 -7.4084077761513531e-002
      2.2637017750856878e-001 9.4999712394710056e-002
      -3.2468021894706056e-001 1.0543330552970112e-001
      5.9141699337489098e-002 2.0150657879309572e-002
      8.1273057510462723e-002 -1.7240137273065484e-001
      -5.3449145374907414e-001 3.7131482033339075e-001
      2.2225097331289170e-001 2.1641631122465896e-001
      1.2780999843767554e-001 -6.1624435924672083e-001
      7.3740336670315085e-002 1.7702865664349657e-002
      -2.7248659634038525e-001 -5.2330504806348065e-002
      1.2755865585273754e-001 -1.6334397301222706e-001
      -8.9994056101320594e-002 -3.1326861461336114e-001
      1.8870577836682050e-002 -1.5136923695159513e-001
      -9.8160148175141237e-002 -9.9442817226982505e-002
      -2.0345232500905691e-001 3.7449438245411509e-001
      1.2601106754188016e-001 -8.8509470574289678e-002
      2.3439515359208282e-002 -2.4339819850996855e-002
      2.2878109007329558e-001 1.5994857521002576e-001
      -6.2926761779701057e-001 1.7428127566161480e-001
      -5.8347643961813611e-001 -1.3643703051516465e-001
      5.3675622879401620e-002 -5.7619912843992455e-002
      1.6121225285082447e-001 5.7626309547897658e-002
      -4.1580119492051815e-001 4.0716199458313868e-002
      3.9713878605451836e-002 1.9336388051665393e-001
      1.2946498317260479e-002 -8.0389733630674531e-002
      -5.6472306825021712e-001 2.2172138292973648e-001
      1.1243096549695078e-001 4.2112276633840495e-001
      2.0556242279299614e-001 -4.4571141636173550e-001
      7.0979460156687116e-002 9.4912213967352999e-002
      -2.2507534966863582e-001 -1.3746414378154845e-001
      2.4504011075349277e-001 -1.6613596136609618e-001
      -3.7040122847615230e-002 -3.1813884667566350e-001
      4.4084170384637210e-002 1.3863853368015491e-001
      3.4431148503563727e-002 1.0960792320429527e-001
      -1.8164579242464185e-001 5.5663535559387113e-002
      4.1957301036268831e-002 -1.2147849133659579e-001
      6.1207470757546111e-003 -1.1042883816883539e-001
      1.0059826753902615e-001 2.7548281850319195e-001
      -4.7383114559290790e-001 -2.2890479981094372e-001
      -3.6568560475005840e-001 -2.2059283857837005e-002
      1.8388089469120372e-001 1.0391258475036977e-001
      7.3209634154833308e-002 1.1094747751740942e-001
      -3.0800973272350196e-001 -1.9210132864089099e-001
      -9.5248310905789065e-003 -1.0463872099110261e-001
      -4.3532155581479824e-003 -2.3903710053121263e-001
      -8.6390488100333812e-002 -3.4863085481735501e-002
      1.6175753386884487e-001 1.0820881339600905e-001
      -2.8271353380717185e-001 2.7265575489953875e-001
      2.8690737737103511e-001 -1.2361319622810124e-001
      -1.0380884217832730e-001 -3.6827548117447650e-004
      2.2811895073676192e-001 -1.3726703073050706e-001
      -1.4011264504617787e-001 -2.3612022716713285e-001
      -2.4349833583744065e-001 5.1323619742902400e-002
      8.3335901698410291e-004 -1.0822003100682084e-001
      -1.6186072579157301e-001 2.6773910707092910e-002
      4.8001661293458724e-003 -5.8546014941244090e-002
      -1.7322874665204031e-003 -9.5841849176021995e-002
      1.2915780246623071e-001 -2.5067692246556406e-001
      -5.9702468194714942e-001 2.0463466890234119e-001
      -7.2188837507037407e-001 -1.9612296169822466e-001
      2.8704413344876950e-001 -7.3080805339545168e-002
      2.9844196224212488e-001 4.6761169922194715e-002
      -4.3247955460913834e-001 1.1416760364271961e-001
      1.3151707484969546e-001 -1.4508058335840301e-001
      6.4979996829506295e-002 -4.5552001564187877e-001
      -5.1036495466068865e-001 -8.1242381197857413e-002
      7.5822381683701241e-003 -3.2160146665902081e-003
      -2.1735362524171045e-001 3.2331645809899123e-001
      5.9255349609800813e-002 3.6870548030794155e-002
      -1.8540882499485808e-001 8.4276188035167426e-002
      1.2982627283139184e-001 -3.8134875806949430e-002
      -2.5319091150082188e-002 1.9105719850674732e-001
      9.2564159110870348e-002 -6.0443629327234051e-002
      7.6141748565465142e-002 -1.5282364251036950e-002
      -2.8805126493509581e-001 -7.8767484560716444e-002
      -8.3913589238144695e-002 -1.6510032762837706e-001
      2.1230472681739960e-002 -9.0222982992138795e-002
      1.8717342614392585e-001 -2.8321945343925975e-001
      -1.2856776898654867e+000 4.9252909060951033e-001
      -1.6704564472808230e+000 -3.9675724277033775e-001
      -2.7678814971555665e-002 -6.8868293645878834e-002
      2.3747771659881053e-001 7.4167718427292528e-002
      -5.2879795675807584e-001 1.4319331301480079e-001
      1.3870073046184797e-001 -1.5625633610367626e-001
      1.1670915732522100e-001 -2.9268548084997714e-001
      -6.9610858962122568e-001 -9.0571732010546885e-002
      1.0702166738616437e-001 1.4740080942006920e-001
      -5.4211694583274384e-001 -3.0579063326860506e-001
      8.3311945950022004e-002 9.2217939395171186e-002
      -5.3008357319374388e-001 4.3353986893833812e-001
      -2.3717325790234148e-003 -2.1717977437246769e-001
      -5.8291590280288644e-002 8.7009137341657633e-002
      7.0741802689398336e-002 1.2225135467655823e-001
      -3.7126455017400195e-002 4.5979668850251260e-002
      -8.7858137172030115e-002 -4.1917247694102024e-002
      2.4673521887737512e-002 -2.8194061996036041e-001
      7.2960248990037738e-002 -9.7784200177018499e-002
      1.4577693220355178e-001 -2.9222589054994480e-001
      -1.2691502752240722e+000 1.8940773482011411e-001
      -7.6719185218738795e-001 -2.2413430005874119e-001
      -3.3313098013117236e-002 -1.0307567928962368e-001
      2.6504634416168221e-001 7.1762643058557618e-002
      -5.4405270773251402e-001 7.4192022943153815e-002
      1.3008189124542371e-001 -9.6132159242056231e-002
      1.1274116270253140e-001 -1.2511314929670009e-001
      -4.2323811927956528e-001 2.2432638110235917e-001
      8.9635602062853773e-002 7.7015997093243208e-002
      -1.5319837582380841e-001 -2.9607768531194795e-001
      -8.1206507734146605e-003 1.1385528816039329e-001
      -3.2544420443864541e-001 4.4196971112473948e-001
      -1.3897972873991082e-002 1.0434560070153248e-001
      -6.6035159131357435e-002 9.1678844372224746e-002
      5.9782702353632235e-002 -7.0430664442053578e-002
      -2.6401722749945296e-002 -6.9147891108662157e-003
      -9.2045724633584611e-002 -1.6748364420828409e-002
      -2.7775731588348094e-002 5.3419673487613631e-002
      4.9988564524226092e-002 -1.8713790912075665e-001
      3.0988823223824963e-001 -1.2404235307236799e-001
      9.1651845195577536e-002 6.0870426091900916e-002
      -1.5625099079095431e-001 -5.2372029887622462e-002
      -4.9299974647290870e-003 2.6415561064176946e-002
      -1.2747862380362734e-001 2.0105501189986746e-001
      -7.9317562848814777e-002 1.1985838683422101e-001
      -1.3944925595004452e-002 -1.1535322426232186e-001
      1.9724453590497973e-001 -1.7282160112731509e-001
      -1.5105414554698088e-001 2.6488534246858808e-001
      -4.7746362597127640e-002 -2.4288064474046002e-002
      6.9969514841510760e-002 -3.2781515152875590e-001
      -4.7850873232329082e-002 3.5173298927102514e-001
      2.1573522051174274e-002 2.2503470872887538e-001
      -1.4096391786257542e-001 -2.2737677995244948e-001
      -1.0173571743993406e-001 -1.8416725330073970e-002
      -1.0104593170752969e-001 -7.3721308285026155e-002
      -2.9104219789175607e-002 3.1194880258129370e-001
      -2.0725486922674255e-001 7.6028161057702520e-002
      -3.6723861455708801e-001 -2.3146776750994924e-001
      3.3265184394165331e-001 -3.4717345451422646e-002
      1.5225944796292068e-001 -1.9455455090278871e-002
      5.0312719676682982e-001 6.2240306618983693e-002
      5.9595521261270912e-001 -4.1212891509362588e-002
      3.6512379046757866e-002 -1.9782632616089432e-001
      4.8352850520751189e-001 -7.2941023888797793e-002
      9.5052153030514105e-002 8.7813769272874875e-002
      -1.0479856245789693e-001 3.7784374511975099e-003
      2.8137354794313385e-001 2.7387641398654172e-001
      4.9729911972143592e-001 2.8897503783331341e-001
      -1.8003813507421165e-001 -5.1218154020235063e-001
      5.4621575137857936e-001 -9.7696373136077722e-002
      2.9502674776023580e-001 6.8236126236490308e-002
      3.0567208952015068e-001 -8.1266112401378751e-002
      -7.5004465198875964e-002 -1.2777488175520008e-001
      1.3186327087629066e-001 8.2663031759314387e-002
      1.0698735909346960e-001 1.6473206640353433e-001
      -3.0420147527802484e-002 7.6999287293215438e-002
      -1.0885641714746788e-001 1.3766663581385888e-001
      -2.1191211045811184e-001 1.4462181941958058e-001
      4.9186221667156071e-001 1.1016851849759878e-002
      1.4615586350020729e-001 2.4891565447483577e-001
      5.5313502237364787e-001 1.0904727047609079e-001
      1.9298938192570109e-001 1.7356545979096183e-001
      -6.0162073669433255e-002 -1.5990728859833175e-001
      -2.5360914579210436e-001 1.0403685031968384e-001
      3.4575193014587530e-001 1.0431025302508164e-001
      -9.7556567832950358e-002 3.3085973123645018e-001
      -4.7914571881650138e-002 2.7299592531073880e-001
      1.0820706664888633e+000 8.4509514758483270e-002
      -1.6106126755423555e-001 -2.8310277300369252e-001
      5.0018927477588049e-001 -9.9957820086453431e-002
      5.4745718197127169e-001 2.4205548774461766e-001
      2.8418774472329444e-001 -3.4036160880636901e-001
      -1.1544461303099529e-001 -1.7733932776907266e-001
      1.6906026310261588e-001 3.5222433828134520e-001
      4.1632612881073547e-002 9.7881968734737465e-002
      -4.0427188026765912e-002 6.2425735015203793e-002
      1.4198673161080608e-001 2.7008110100276222e-001
      -2.7742713815452857e-001 3.3185507331771336e-001
      -1.8393472881055768e-002 -6.4979185219591298e-002
      8.7193345717453977e-002 7.3418746732535678e-002
      2.2535165514340244e-001 3.1089151803984794e-001
      -3.1953062501666653e-003 -8.0809120938059205e-003
      -1.0162555510481698e-001 -1.8614509011931103e-002
      -1.1280965438093168e-001 3.0879896000918733e-001
      2.8472742712172272e-001 -8.1555092599580270e-002
      5.2642096827077448e-002 1.0237057962734709e-001
      2.8864820821422826e-001 9.7909919913175894e-002
      -1.6140990016467011e-001 2.1987441823112422e-001
      1.9114646716644201e-001 6.6357432783256572e-003
      9.8939097403471982e-002 -5.6092601131920805e-001
      1.8817534758596927e-001 4.7572978668560989e-001
      3.1646354972766133e-002 -2.3577875218772493e-001
      1.8516025993028157e-001 1.1377267898038357e-002
      4.4479828061068129e-002 -1.2361639926358994e-002
      1.6964544526377784e-001 4.3624857332761724e-002
      2.3637855379876316e-001 1.5891425326458403e-001
      -1.3738277275146735e-001 1.8915001374121215e-001
      -2.9635777535046159e-001 2.3723266486898412e-001
      -3.9138041914845670e-002 -2.6163610831221618e-001
      3.1975870719347134e-002 6.1390563311497774e-002
      -7.2763872632974264e-002 6.1710485258402803e-001
      -2.3712159449938333e-001 7.3500614784257380e-003
      -2.4533980051733803e-001 -1.0596395189744395e-001
      4.5059664690559713e-002 4.6265525775233532e-002
      -3.5953609056011568e-002 -7.9955490155868610e-003
      -1.3164911869324308e-001 2.1942967963666218e-001
      1.5971505830163801e-001 4.5984332495653139e-002
      -2.8370249227224070e-001 4.2717899177121177e-001
      -3.6433514658899564e-003 -4.8675001772413025e-002
      -1.1520671982630495e-001 -2.4510829205017806e-001
      1.5343804762585114e-001 5.1388645233220023e-002
      -1.0412678869546152e-001 3.1972853832176878e-002
      1.3973158408432271e-001 -2.3268368519208271e-002
      4.9003950992016064e-002 1.1640060587386211e-001
      -3.3111932798502768e-002 -2.1590361546350756e-001
      -9.4659445022484315e-002 -1.3351327345218950e-001
      -1.1173650257309349e-001 -5.2555206944676802e-002
      5.3817588514222144e-002 3.7705992214883001e-002
      -5.8574224214357740e-001 -8.8431871109810309e-002
      9.0084507424278176e-002 9.0869033412680295e-002
      -2.2549301708321795e-001 6.0187451732906450e-001
      -5.2985376383123110e-002 -1.4628776512905178e-001
      -2.1094068496385293e-001 -5.3623701973142313e-001
      7.6365931675412432e-002 4.6305813987136582e-002
      -2.5155067460259856e-001 5.8391113302946600e-002
      1.3723545380840721e-001 2.1850846931193135e-001
      1.1672789171782809e-001 1.5315646936137767e-001
      -2.7386358803458571e-001 3.6350122647745159e-001
      -2.1286043491383033e-001 -4.4156656754190261e-002
      -4.8527604191557060e-005 -2.5807993086212383e-001
      8.7107285572190982e-002 -2.1909426545938793e-002
      -3.1966498258166237e-001 2.4072336131740701e-002
      1.1885616477597029e-001 6.3047125591309788e-002
      -2.1519735366197678e-002 -1.1753005652830228e-002
      6.8700444770390279e-002 -2.8980404131506493e-001
      -9.0107098938877098e-002 -1.1489773209456572e-001
      -1.7851157267718062e-001 -1.1926652686599365e-001
      2.9177799115434344e-001 1.5212474817921379e-001
      -3.6484415849529911e-001 -3.1264031283479619e-002
      1.2947525448511227e-001 2.8713032793428023e-001
      1.9915055754715202e-001 -4.1263596287107879e-002
      -2.8063436522521197e-002 2.5889419537067828e-002
      2.1898234193694591e-002 -1.0255065523882012e-001
      -2.2886310885730180e-003 4.1911748600006377e-002
      -4.4493887595875477e-002 -5.1364768019961426e-002
      1.2563591238779867e-001 -1.3287870080585079e-001
      4.9801015597152630e-002 1.3871950588787960e-001
      -1.1939510010674398e-001 1.9824194944563520e-001
      -1.8213130922595316e-001 -9.2067832526141133e-002
      -1.0367538909263910e-001 2.5882405941462162e-002
      7.3477220066043195e-002 -2.5044847375766621e-001
      -7.2782244709280585e-003 6.5139204925431987e-002
      1.3277849271588316e-002 8.1209647524049453e-002
      -9.9367922355784066e-002 2.8642580285651087e-002
      6.2423572941350890e-002 -3.3268508951647774e-001
      2.4780716575013198e-002 -6.0562453749504419e-002
      2.8229790904422472e-002 1.6359045100910075e-001
      5.2952028822409326e-002 2.7150875189646861e-001
      -1.1282229329496475e-001 -3.3030141018083131e-001
      6.6481334179925286e-002 2.0732882802613688e-002
      -3.5946890223424913e-002 8.4527481904551838e-002
      -5.7690630455693261e-002 -1.2533997618440700e-002
      -2.3709517904958552e-002 -2.5022695345745583e-001
      1.7608515436358055e-001 4.3775301501457933e-002
      -1.5013252559869289e-001 2.5086055467242185e-003
      -1.0128423391161824e-001 -7.3464866337506443e-002
      -2.8786651259381103e-002 -1.7353861671299803e-001
      -2.8920177795098312e-001 -1.3985192809152219e-001
      -3.7574691839456387e-002 9.1295049743147630e-002
      -1.5249975095544788e-001 -6.7009111814544539e-002
      4.6351421038368042e-002 -5.7416209358403907e-002
      -2.5119148977523379e-002 -8.3977997724052900e-003
      -1.0091300557357361e-001 2.5458023856243385e-002
      -1.3175660647365189e-001 -7.2114727657304825e-002
      -1.5559715912697861e-001 7.3034005089682663e-002
      1.5370128097386479e-002 2.1797880007286813e-001
      -9.1494930751537196e-002 3.1004440037343123e-001
      6.3627020286582875e-002 -1.0765400822547744e-001
      3.2862187935567799e-001 -1.0904502412873814e-001
      -2.7678955057857328e-002 -2.6794672132620090e-001
      -5.2207243218706165e-002 -1.6777216833736737e-002
      1.1150097964377328e-001 -8.4343505161008817e-002
      -2.5134610522734319e-001 4.6864206492412191e-001
      3.4150089502879194e-001 -4.1284587659583055e-001
      -3.7319480863403948e-001 7.3134204982954920e-002
      -3.8369741089283267e-002 1.6189380155105679e-001
      6.0871481823373180e-002 2.5645891766722861e-001
      -2.0372553284930311e-001 -1.7118040239379302e-002
      5.2545123594152665e-001 -1.5026937386292782e-001
      -9.7123422096713884e-003 -5.9510568640546324e-001
      -2.1669362142530657e-001 -1.0040445499566213e+000
      -8.7345177536410989e-001 1.0391519731866296e-001
      -5.0838936684758163e-001 -6.1382340847165806e-001
      -8.5303977340038476e-003 -1.7170507926881809e-001
      1.1442822650270724e-001 1.9257852989522792e-001
      -2.4701819378494969e-001 -5.2462348305598761e-002
      3.0892585370807629e-001 -1.1215381056613444e-001
      6.8318186678105838e-002 -6.3859553539334826e-002
      3.2371015911834311e-001 3.6778634375579940e-002
      -1.8790105580292552e-002 -5.6375107554753301e-001
      -2.3764943534181152e-001 1.4164757975994954e-001
      1.7284834599787066e-001 -2.9572016092382247e-002
      -2.3722746776386186e-001 6.6908573874528288e-001
      3.3452875434800344e-001 1.0345743210478346e-001
      -2.5946393036333215e-001 -1.2777356823747052e-001
      -1.5994373793103915e-002 1.8375855251023018e-001
      -8.9692890614040455e-002 -2.1801016008470175e-002
      -2.0021239723987516e-001 -8.9234124337937065e-002
      5.2646624982379320e-001 1.2447960274179995e-001
      -2.5772343106065673e-002 -6.1120964676657796e-001
      -2.0736430118689592e-001 -9.9472638435595495e-001
      -9.6321352038850694e-001 1.1954172801320020e-001
      3.4833270353175494e-001 -4.8714407005551502e-001
      3.1633495719135339e-002 -2.2382875364202265e-001
      -1.6384100826381944e-002 1.8740871103798448e-001
      -5.5121604392236734e-001 8.0146255472125241e-002
      3.1120918846936174e-001 -6.7393529288169080e-002
      7.8147909098321000e-001 1.4216454678709362e-001
      -1.2640554952561162e-001 -5.7708695791066000e-003
      -2.7672168820183329e-001 -5.6716171745827104e-001
      -2.3810773626518639e-001 1.3573345707688791e-001
      1.6558039983121267e-001 1.9476082711400881e-002
      1.5187011334294248e-001 6.7778142547720832e-001
      6.3058633193824598e-002 9.9974174433333327e-002
      -2.5525894193112991e-001 -1.2209473289575297e-001
      -3.7934021387505011e-003 1.2401244155335080e-001
      -9.3576571324768987e-002 -1.6339409423642766e-002
      -2.1103796556809587e-001 -7.4994245400842000e-002
      1.0286345952053626e+000 -1.3933063341148200e-001
      -3.3096593225542779e-002 -5.7883648982472791e-001
      1.3349995185417041e-001 -1.0162963615175185e+000
      -9.5892647837871314e-001 1.2269426803310872e-001
      -2.8618878272938303e-001 -4.9049975582376409e-001
      1.6885652964217731e-002 -2.2086597372766298e-001
      -2.5205744480529695e-002 1.5524989518947241e-001
      -5.4504904570189683e-001 8.0361502284146777e-002
      2.8797082153964709e-001 -8.9268303934469412e-002
      9.1034106773167289e-001 1.4870210972640524e-001
      8.7752187960857000e-002 1.9611924227117578e-002
      -1.7315048375405243e-001 -5.4885767958018983e-001
      -2.2866991014009261e-001 1.4324978336975377e-001
      1.5864264916525680e-001 8.6473563729926248e-003
      -1.7076469963641980e-001 6.6432303277917404e-001
      5.5121832782824190e-002 -1.1058499010637412e-002
      -2.6531553766398852e-001 3.7305656794399088e-002
      3.0548980321927932e-002 1.8312162552724179e-001
      -9.3189621270624301e-002 -9.9036519998259905e-003
      -2.1890572210168524e-001 -7.6439109108242795e-002
      9.8697378441297445e-001 -1.3977892154530897e-001
      -3.3384428050560737e-002 -5.9499392525923311e-001
      -2.2219248615605042e-001 -1.0665045196356238e+000
      -9.5569794922076590e-001 9.8444816419472225e-002
      3.4028320308245652e-001 -4.4132446586592494e-001
      2.3766900722546339e-002 -2.2316853261556482e-001
      6.7759626513855684e-002 -4.4626056087286925e-002
      -3.1822440952144987e-001 5.4491715377096704e-002
      2.8578667267740321e-001 -6.8937096596030117e-002
      7.0445613485279324e-001 -8.7442607212839002e-002
      -3.3064639980746165e-002 5.1539617671118279e-004
      -2.6550326193555496e-001 1.5129868812833766e-001
      1.1146204988848753e-001 -3.4107209561916751e-001
      2.3870419262076481e-001 -1.3887797189806356e-001
      1.4920125889993828e-002 3.1202922205563217e-002
      2.0957735331269892e-001 -6.9360304167362316e-002
      7.1663579849284775e-001 1.0901577856601721e-001
      9.6472865826711690e-002 3.0521342419620057e-001
      -2.3638567710960864e-001 -1.4680158413531474e-001
      9.2260213363137084e-002 -8.0776201468406764e-002
      -1.7282803668536667e-001 -3.7666637933930713e-001
      8.2211042317975852e-002 2.1439598158062290e-001
      -1.0870041467649408e-001 1.1694528655951014e-001
      4.0964157964644823e-002 6.3794473260497128e-002
      2.4640646140264502e-001 3.7007760456057179e-002
      2.9190272160983022e-002 2.5590663526085311e-001
      -1.9425322394152603e-001 7.2318646894163077e-002
      1.1652913300264477e-001 9.7374317707860272e-002
      1.4194146610988839e-001 2.7349730389562776e-001
      -5.3622414296930120e-002 9.7243729642346705e-002
      -2.5446138381902866e-001 -1.9995024549651564e-002
      3.7024397773801725e-003 2.8080636870698122e-001
      1.3127906634505021e-001 -4.6647731196037615e-003
      2.4642581123376306e-001 5.8808090446660584e-002
      7.9481331137311650e-002 -4.6154144810675357e-001
      1.9712544324604656e-001 -9.8847903775179546e-002
      2.8574641909415310e-001 1.7424833858554662e-002
      1.0976910136068443e-001 2.9449369254607582e-001
      -2.1173246648486063e-001 -6.0206814660277781e-002
      3.2037569018720020e-002 -5.1754411993673775e-002
      -1.3327447787251295e-001 3.9973501228411819e-002
      4.6411035251558763e-002 7.7537786687656998e-002
      -1.3282372584034643e-001 9.1490283470300457e-002
      4.2878173913436138e-002 3.3495310524393564e-002
      1.5279544055851677e-001 -6.1072352791528041e-003
      1.4055278837286717e-002 8.1102540509691637e-002
      -1.0443219644365524e-001 4.7409510760264034e-002
      6.2246097166763263e-002 9.7342729769907793e-002
      1.3897476489630854e-002 2.0035346770480725e-001
      -1.2788871765787305e-001 1.0666709225390161e-001
      1.2570991895591827e-001 -9.9967093534993820e-002
      -1.4634710737400469e-001 4.0100597078086705e-002
      5.8829481122791856e-002 -1.2262956977765033e-001
      2.2277798470429308e-001 1.8172323010423555e-001
      2.3789664302332342e-001 -4.4580920156286050e-002
      -8.6428732676305020e-002 2.4469483148656636e-002
      3.1095888472373479e-001 -8.7422727933346892e-002
      9.0110720804203195e-002 2.3168923329711258e-001
      -1.6757690015516660e-001 -6.2805868483753718e-002
      2.2987424735499695e-001 -2.8451898753319899e-001
      7.2709887475267729e-002 -2.4539381088933704e-001
      1.0198361023530492e-001 1.3546766521969442e-001
      -1.1200881234777035e-001 -8.8294805420052302e-002
      2.8827953803307649e-001 -2.0181825882260102e-001
      1.6161266849611183e-001 -7.5233521423727643e-003
      -8.5540386875455954e-002 1.9705291042860970e-001
      7.4077629735173262e-002 8.2631410699980326e-002
      -5.0986232868467846e-002 1.5416829658845284e-002
      -3.7854519038615773e-002 2.3409040477749424e-001
      -1.6835263711598134e-001 6.9671546484928126e-002
      -5.9035752265822340e-002 -1.4624486227666891e-001
      1.0435861952753214e-001 -3.7536324388298398e-001
      3.6051909299747102e-002 -5.8838701215201877e-002
      2.3430630374559511e-001 -6.5659525345768383e-002
      -3.1817374443814134e-002 1.3439402987562152e-001
      7.9505487499760788e-002 2.4418148759748418e-002
      -5.1959526415221453e-002 -8.6660873698951368e-002
      8.6408382855293883e-002 -1.2963645538098786e-001
      -6.3989846946208115e-002 -6.6172072223646766e-002
      -2.3456641731505229e-001 3.1876713030342570e-002
      8.0459885534715767e-002 -2.3275331587737977e-001
      2.7137752740642718e-001 2.1894525187473238e-001
      -1.7281485135305799e-001 -2.6558983445631228e-002
      -1.6485864578493489e-001 -2.4882717092454940e-001
      6.5850985922778688e-002 -2.0890743875036266e-001
      1.1572248819666973e-002 1.4128723779327504e-001
      -2.6101966629995466e-002 1.4833082994784436e-001
      -1.0727822402412518e-002 9.0024285838425661e-003
      -5.7704714629755245e-002 1.0281902857657256e-001
      1.6733677608496861e-001 8.5878079605538086e-004
      -8.9992007532010782e-002 -2.4930882301893831e-001
      4.5507284660340375e-002 -1.7939210612731038e-001
      9.9874887107409632e-002 -9.5599755381241214e-002
      2.9614176330502018e-001 -7.0944534040342858e-002
      -7.0043011468513883e-002 -9.0603267672119236e-002
      -1.4446529967924948e-002 2.1714652480362168e-002
      -4.0726865210629198e-001 -7.7982134787359325e-002
      1.3194406514557502e-001 -9.9588607368960233e-002
      -6.6454174181137554e-002 -8.2842525276248136e-002
      -1.5134355287985221e-001 -2.5139126292827552e-001
      -4.3847361213359561e-002 7.2319151517423186e-002
      -6.4787575330021580e-003 2.5233537018394359e-001
      4.1874449108681579e-002 -2.2806707263648066e-001
      -3.8492031762096296e-001 -3.2875779872474925e-001
      -3.9778800685900395e-002 1.7192087375887669e-001
      -5.3440055366048470e-002 6.9675733650097535e-002
      -1.8015242296802549e-002 7.1513136253919016e-002
      3.5665086913930577e-001 -9.0424244539183130e-002
      -1.5709052795905787e-001 -9.4564147650321340e-002
      1.7466924075520265e-001 -1.0327611286079416e-001
      -1.1159414363959559e-001 -2.4172697489998946e-001
      -7.2842413384319807e-002 -1.7688106291365407e-001
      6.4338519277377396e-002 2.4205973365509215e-002
      2.5591282864850584e-001 -8.6419625289861954e-002
      3.9375083033031388e-002 -3.4825316999161568e-002
      1.8666356241385129e-002 4.4406483017655880e-002
      -6.2878732405137472e-003 -5.0338798948904147e-002
      -7.4552521163921789e-002 3.8258036427540582e-002
      -1.1324132627034317e-001 -7.7726926076287936e-002
      -3.4165918834041598e-001 -2.2565126604024799e-001
      -2.4416333381133033e-002 7.5947343860306674e-002
      -1.6586231260010385e-002 3.5021103827451344e-001
      -1.0549734451881322e-001 -2.9527375855977117e-001
      -1.5449013060423369e-001 -1.6629905310590623e-001
      -1.0469690960872262e-001 1.6173679548914424e-001
      1.4669747217953430e-001 -2.0862084987730820e-002
      -1.4041794096192187e-001 2.7014262024108247e-002
      6.7366445327658772e-002 5.0540126701352800e-002
      -1.4087709287412750e-001 -1.0498335699822310e-001
      2.4694994607460462e-002 -1.0333532450792045e-001
      -1.2457564721869090e-002 2.3632319846148175e-002
      1.0528059328255450e-001 6.3432068174788442e-002
      8.8176726872141023e-002 -1.6169670422153068e-001
      9.3167831214264821e-002 -1.2546959935571367e-001
      1.1797727890821363e-001 1.1653798129978697e-001
      7.5457784673181498e-003 4.4554079676450073e-002
      9.0521930868204828e-002 -3.5523856630384362e-002
      2.5940620878223634e-002 8.3533106750503003e-002
      -9.2361823380783442e-002 -1.6855137942809822e-002
      -2.4372879434041716e-002 -1.5838924155518405e-001
      1.0174085000612486e-001 1.2985217793039513e-002
      2.0199472872216632e-002 1.7513815301834143e-003
      9.0256873592219983e-002 -1.1371773858410948e-001
      -5.6447616401010377e-002 7.5466182769091228e-002
      -1.3293492396106424e-001 5.6084295072945885e-002
      1.5494262944910692e-001 -5.5479480135489971e-002
      1.4383594936580874e-001 -1.5401265803741093e-001
      2.2346206864975612e-002 1.5964321175139465e-001
      5.5801269974929235e-002 5.8641318073718751e-002
      1.1862792717335253e-001 -5.8669421740891819e-002
      5.8778053659333307e-002 1.5989071975475844e-001
      1.4475622222341464e-001 6.8385869667246468e-002
      6.0110372111413297e-002 2.3790103019193660e-002
      3.0677830623536434e-001 1.0007333945040680e-002
      -2.5353434591192173e-003 1.8409111573135206e-001
      -2.4041132018452147e-001 -9.9016238984485472e-002
      -1.2891343815413034e-001 -7.4774665487859146e-002
      -2.7361919718728218e-002 1.3193412668951265e-001
      -6.4805524465506373e-002 1.4061253418828415e-001
      5.6122375824770435e-002 -2.3428664485007764e-001
      8.0562373266311882e-002 -8.5109908512705265e-002
      -1.1074653740543408e-002 1.8136880381322970e-001
      8.9868164617787252e-002 -2.1023375999205540e-001
      1.3780569797680546e-002 4.7745879257378565e-001
      -2.2107431566547051e-001 -1.7792090373584774e-002
      5.4457645368449575e-002 2.4722906541118142e-001
      4.8111163401770268e-001 -1.4457528125323968e-001
      -8.5612222493778270e-002 1.5597418831043611e-001
      8.6470254246364731e-002 1.2704314487304855e-001
      1.0470241113058090e-001 -7.3231829344620442e-002
      1.6175781710783314e-002 1.6907148805273892e-001
      1.4702382029116129e-001 -1.9471210671133724e-001
      -4.5661848474994121e-001 1.3155473807846169e-001
      3.6188237116102362e-001 8.2564848739635710e-002
      -1.8924138835502141e-001 4.6300927888150947e-002
      -1.1167410106688294e-002 -2.1316940530345805e-002
      -1.3723430742151685e-001 -1.3430969216771452e-001
      -2.5466954313059925e-002 -9.1105822079208684e-002
      2.1883863541271140e-001 8.6397677453687469e-002
      -1.1892017344889357e-001 -2.2091414952971478e-001
      1.2254122648260987e-001 -1.4672892211567393e-001
      5.5111148571239221e-002 -2.0970015300787695e-001
      -6.3182638112409720e-002 -3.6601604695810586e-001
      -1.8727222146754369e-001 3.3515314648993300e-001
      2.0391877911016439e-002 -3.5491342025516542e-002
      2.3112050401954837e-001 1.1623637613509429e-001
      2.1868382614513410e-001 1.0414388168675320e-001
      -3.8033477378789433e-002 -2.5725797018956414e-002
      1.9241331763293698e-001 -2.6734095012878895e-001
      2.2308936219835909e-001 6.2328037254880033e-003
      1.0472368784706186e-002 1.5969955458841315e-001
      1.8526624427352500e-001 -2.4130563400140151e-001
      -1.6692020447741954e-001 2.0280145354606993e-001
      -2.5294863305603460e-001 -1.4157537556257652e-002
      -1.9982849304222852e-001 6.5499680301107199e-002
      -1.6626768131257758e-002 -2.8063127052801606e-001
      -6.6529716075618406e-001 -1.1749348056981331e-001
      -2.3425176855156649e-002 -1.0581595087125135e-001
      2.7576300151236316e-001 1.7518941275717748e-001
      -2.2420812629402539e-001 -2.6511163800386622e-001
      1.7538533984559304e-001 -5.0626697583067523e-002
      3.3066909507961907e-002 -2.4884683905692784e-001
      -1.0306673192402496e-001 -1.9300649570627273e-001
      -1.7886549642005900e-001 2.1910253070096358e-001
      1.0089576877322874e-001 5.5696953372934239e-002
      2.3967195132157479e-001 4.8169047328266879e-002
      5.1739008077101833e-001 -8.1158928974206873e-002
      -3.5148100997364200e-002 -2.5254269048524000e-002
      -1.0764095724660566e-001 -1.5302460714057273e-001
      1.7696383057058118e-001 -7.6545467968580347e-002
      -1.5299106025435022e-001 1.6580443799320671e-001
      1.5796121264715179e-001 2.6822554189296646e-002
      -9.6516395392077903e-002 1.0008567758393193e-001
      -2.8884580224208870e-002 1.1050869118352151e-001
      -1.8024065279983525e-001 -3.2082017791805688e-002
      -1.7607377991605978e-002 1.9415078802241956e-002
      -1.4725675899840474e-001 -4.6336451676446379e-002
      -1.0336328659056412e-002 -1.2956640906000072e-001
      3.9750900024661980e-002 -7.8007340868484210e-002
      -2.3725598241159013e-001 -8.6544610787213705e-002
      -4.1094540292108975e-002 1.1094848468590958e-001
      1.6149766848425354e-002 -1.4721582681610001e-001
      -5.9357557935426353e-003 1.0642834994888523e-001
      -6.7565046706934431e-002 1.3640928768743926e-001
      1.2984802977766591e-001 1.5262676622843721e-001
      2.3708005961716397e-001 -1.7178539164674206e-001
      1.3113073544639051e-001 8.5817620272697293e-002
      -2.4581943759107730e-002 -2.6754168686941769e-002
      8.3262945775382374e-002 9.9247954520158319e-002
      -1.9001997782906319e-002 8.6493926810738586e-002
      -1.1538712026148004e-001 1.3966350336701486e-001
      1.4583785721430317e-001 3.4436747855458522e-001
      -7.8363249596811485e-002 -9.9144540040917606e-002
      4.1446223632688871e-002 2.1823727821028566e-001
      -2.1056950141875461e-001 -1.2043342709593298e-001
      6.7999176776300449e-002 3.5339825533647069e-002
      9.2984773683431970e-002 -6.7408745088194444e-002
      -3.7514431178699803e-001 -1.7269111873088674e-001
      -5.5459279784890722e-002 1.7519037986322250e-001
      9.4537987421895550e-002 -3.0830919693487391e-002
      2.7951512961968478e-002 1.1123397582405004e-001
      -1.3696128612716190e-002 -1.8408769295205471e-001
      9.3485808576880797e-002 1.3407217548055356e-001
      -5.9840451481350476e-002 -3.5719381495435010e-001
      1.4698989026397527e-001 1.4903156357050476e-001
      1.3746288168829043e-001 -2.5289718459701527e-001
      -2.5961931037134522e-002 8.8861558300983870e-002
      -2.3474013971486359e-002 7.7188611214237136e-003
      -1.3490198943383619e-001 1.3084661841989192e-001
      -1.4360421079621658e-002 6.0681570745318887e-002
      5.9228792750021367e-002 1.4003120608853403e-001
      1.3064069528923009e-001 1.6796617581849013e-001
      -6.4421453546200921e-002 -3.4967192884275362e-002
      -2.1068274539641488e-001 2.7829402308758661e-001
      4.9603514733122120e-002 2.4267572267742607e-002
      -2.4213036202753380e-001 -7.5425198934586143e-002
      2.1782726845968350e-001 -1.5842903656761872e-003
      -3.6521675465052472e-001 -1.0964428407326540e-001
      -1.5730576729097540e-001 2.1126468650973854e-001
      9.3323995080308628e-002 1.5685001656873684e-002
      7.9589972100949882e-002 1.0082658281798240e-001
      -5.3079084479733002e-002 -1.7094711630743259e-001
      -7.2813647632449293e-003 1.2985229488233940e-001
      -5.5261235080135203e-002 -8.1822968775253954e-002
      -2.5635887394254320e-002 1.6799701423277993e-001
      7.6140669291254265e-002 8.6607843624191827e-002
      -4.2440104201802463e-002 -5.7469813317799781e-002
      -1.8501084886498453e-001 -3.0337823521036401e-002
      -1.7297879656257462e-001 1.2169866861125928e-001
      9.7255531487598912e-002 1.3696773601708831e-001
      1.5975677482196146e-001 1.4480702615080213e-001
      -1.7492691967118049e-001 9.9413256156473118e-002
      3.6215457661698106e-002 2.7763057127167357e-002
      -3.0131771762269799e-001 2.7943147715499095e-001
      6.4601838479520571e-002 -6.1477490306839654e-002
      -1.1422565289512929e-001 -4.6906906005686391e-004
      9.9336009100576314e-002 7.4454836582916184e-002
      -2.3145043801274248e-001 -8.8646831337260465e-002
      1.0194018345840011e-001 1.6786977349774740e-001
      1.6783994065887035e-002 3.7405904292237946e-001
      8.1109292484469062e-002 7.0932593813554934e-002
      2.6169089677775012e-003 -3.5996677996366455e-001
      -5.2572452707839820e-002 1.4473748635535650e-002
      -2.3637245181939871e-003 6.5273232122811373e-002
      -6.4977532959931444e-002 1.6511285917747301e-001
      -4.9018601931261931e-003 2.7341680221721745e-002
      -5.0227232022805532e-002 -6.8590672632629537e-002
      -1.7398119665328265e-001 -4.9116620408452709e-002
      -7.2953066062236546e-002 1.1379582553747376e-001
      8.3917567559776779e-002 -1.7831843761540087e-001
      2.2232048380176733e-001 1.5067059367260463e-001
      -4.3288484221991275e-001 5.1460444077857888e-002
      -1.3896900869166301e-001 9.0798579557253997e-002
      -2.4198836439612742e-001 1.5330543919834430e-001
      2.0705399126658278e-001 -2.9872438454863474e-002
      -6.2219490670089073e-001 -4.5477750060131945e-002
      9.6248333511031528e-002 -1.6714663030309132e-001
      -6.0674757779265481e-002 2.8908999069980301e-001
      1.1661252305673438e-001 1.8785048872355403e-001
      -2.0281741074788687e-001 4.0461331582694504e-001
      7.0894206468991139e-002 -1.8290560938157199e-001
      -9.7162781994806158e-002 -2.9201909053348588e-003
      -7.7037391891729215e-002 -1.4151265651771713e-001
      -5.6066379495119056e-002 -3.8891194808192912e-002
      -1.6729329463817239e-002 1.3338596779260398e-001
      5.2276622069532812e-002 -5.6281434710198357e-002
      -1.0724963263008545e-001 1.0883138292571413e-001
      5.3795395763303056e-002 -1.7982837166515126e-002
      2.0712694007967766e-002 1.1054096061447657e-001
      4.3431912680215935e-002 -3.0190920798660975e-001
      -6.8322518705646346e-002 1.5307542361622634e-001
      -2.2214344729836907e-001 -3.8884115157307175e-001
      3.7772676376719365e-003 3.3543002317722498e-001
      -4.1811062173931574e-001 2.1426776932699532e-001
      -4.8252007528336877e-001 -7.5154301936635942e-002
      -5.9951898274879123e-001 2.7218661488009787e-002
      -1.2887496280845007e-001 -1.1983943828423911e-001
      1.2525875852187143e-001 2.8172827363899372e-001
      9.6195391629953733e-002 2.2053723529885064e-001
      -2.1279189627434963e-001 4.1215452904110339e-001
      1.1721325697530988e-001 -1.6933713156168145e-001
      5.8525919298766885e-003 -6.0485590721276093e-002
      7.0415675328264551e-002 -3.7421653835405427e-001
      -9.0634681754988525e-002 -3.7408176723601000e-002
      2.4265955902771114e-002 1.0632390239799330e-001
      -8.8247370317949575e-002 -3.7165207414622220e-001
      4.8222239618058077e-002 5.1512690344648247e-002
      -4.9724109039314353e-002 -7.7732134240960288e-002
      -1.5444599545906187e-001 -1.6360062388642106e-002
      -4.0094348170598409e-003 -1.5905328119473930e-001
      -5.6115936475344921e-002 -1.1288372563851379e-001
      -2.4272669992918838e-002 -7.6266206977114837e-002
      1.0904914138632850e-001 1.0821834119512240e-001
      2.1339698258956579e-002 1.9032419636142201e-003
      -2.1358782602513984e-001 -7.6065847491041061e-002
      6.1827493627254967e-002 4.6102794805382895e-002
      -5.8449002491093589e-002 -1.1096796691326052e-001
      1.3167149013283377e-001 -9.9505600028316640e-002
      5.0458538552274702e-002 2.1413551226904065e-001
      -2.6406716604140673e-001 4.4008047580405510e-002
      -4.1132210521734131e-002 1.1417602943149731e-001
      1.1568860306604929e-002 -1.5064115408337209e-001
      2.1218445610294531e-001 -9.7655774618869443e-002
      -9.2549534018851826e-002 -4.1168500088448001e-001
      8.1391028156083053e-003 5.9318724038936038e-002
      -1.2348662718000458e-001 -2.0892362092704206e-001
      -2.6804723135821513e-002 -8.8197825369274618e-002
      -1.1686271990246630e-001 -9.4797635712733086e-002
      3.5735089190220289e-002 -1.4866514061843306e-001
      1.2691249894695278e-002 6.2064950011805349e-002
      -1.1271271531525479e-001 -9.3731614200862373e-002
      -2.3373796508590866e-002 -2.8627349803075297e-001
      -3.7383948296548164e-001 1.3670687867438308e-001
      2.7902787149338699e-002 -1.3277700079395446e-001
      -4.8304097826227432e-001 -1.4745082657676406e-001
      5.0850449612733224e-002 5.4392492537962280e-002
      -2.4740815807797151e-001 7.3147345291515687e-003
      1.0649309906332868e-001 -3.6965175939553552e-001
      -7.7903698104522995e-002 7.6359333831489004e-002
      -2.4752443666792780e-002 1.8623598283542320e-001
      -3.9962001462235754e-002 -1.3252024198241872e-002
      5.7882356999075166e-002 -2.1915384421686562e-001
      2.6132767507069315e-002 -1.1009941152045693e-002
      -2.6393191047921716e-001 -6.8901290887281113e-004
      1.2174682746333018e-001 9.0155054368056486e-002
      -2.2410928445251446e-001 -3.4358678225660044e-001
      -8.1013642103659883e-003 5.0284222932385929e-002
      -1.0537275425290038e-001 -6.0952423333548250e-002
      -2.1171912859675102e-001 9.2674274670332221e-002
      5.1824986186950472e-002 4.5663771800628333e-002
      -1.5071440318871987e-001 -9.0015852211872513e-002
      -3.1221195292760167e-002 2.6440903273206801e-001
      -3.5543799240144330e-001 2.1403250993418441e-001
      -7.7565987633686301e-002 -1.4845767621706304e-001
      -1.0352662216016476e-001 -3.1135662139657799e-001
      1.0103573273715048e-001 3.9035901052944362e-002
      -6.4448757879472657e-003 3.8930982280902401e-002
      1.1751110246349170e-001 -3.6256519435807305e-001
      -4.1926720424921800e-002 -7.1478713143053332e-002
      -8.3169588995693586e-002 6.8993877624816666e-002
      -5.9731572511239610e-002 1.2938230034924066e-002
      2.4257681140680207e-001 -2.0414351019169238e-001
      5.1115392196439187e-002 2.2068449635890070e-002
      -3.2297395915873758e-002 2.0336895940915722e-001
      1.2284198501219426e-001 6.7894749071814961e-002
      -1.3205208381984654e-001 -2.3659596650747469e-001
      -6.8317489896768668e-001 5.7426180061687676e-002
      -9.7082178892060486e-002 -7.7241229187708454e-002
      -3.6492286785340319e-002 -1.0210612288891793e-002
      2.1997647464412387e-001 4.8951235982399498e-002
      -1.9457011311691338e-001 7.2248803634331768e-002
      -2.3369337177496046e-002 -1.9826396574505793e-002
      -2.2719983364636301e-001 2.6351406786242243e-001
      -3.3192016605953123e-001 -3.6785138780656035e-002
      4.1039363786315911e-002 -2.4760066087799418e-001
      7.9161346068389996e-002 4.0933061430028735e-002
      1.6628801633118329e-001 4.2330986024200871e-002
      1.3443551450253360e-001 1.1232122676918956e-001
      4.6480479531079741e-002 -5.2625609996252744e-002
      -7.8616104901091513e-002 -1.2517076924441836e-001
      3.8819353287097111e-002 2.6501014117332713e-002
      3.0081252565312505e-001 -2.4266932951999645e-001
      1.2493296466331495e-001 -1.2419509208391093e-003
      1.1088147515465098e-001 -4.5591084801436692e-002
      1.1396254954934845e-001 -1.6395402129888037e-001
      -1.2183214141112311e-001 -1.6474130451193064e-001
      -2.3305298200079508e-001 1.1611782039639035e-001
      -9.8722863015781481e-002 -5.3548075574853041e-002
      5.4914210409151031e-002 1.6280708756908563e-003
      1.9732309454692541e-002 -4.8592086590438302e-002
      -9.7236587484786297e-001 -9.9972552988804933e-003
      6.3432817274226183e-001 1.1267462078281060e-001
      2.3405575962644573e-002 -5.4354049715490474e-003
      8.6940003149586542e-001 4.6063720719232114e-002
      8.1089289746176196e-001 -5.7322076397026267e-001
      -2.9386353378140928e-001 4.6381053958701769e-003
      8.8541300677606405e-002 -3.0051305402230506e-002
      3.0675210208741532e-001 -3.6613241473098530e-002
      1.9337702455179462e-001 3.3149430670622378e-002
      9.9077132382366240e-001 -3.4655630527504139e-001
      8.6011308365518602e-001 1.7735302668883063e-001
      -2.9669235237703317e-001 5.5610672677430428e-001
      2.1507103733692723e-001 -8.0262893787027734e-001
      7.7208886182895009e-001 -1.5861888211773026e-001
      3.1971764738577535e-001 7.1499733708073644e-003
      -2.1245403038456537e-001 -9.3324299324154325e-001
      -2.2629593651019275e-001 1.3393605178843021e-001
      -1.3289222694988325e+000 9.2392887444766411e-002
      -1.3764345577463313e-001 -2.1023600633663649e-002
      -1.4365670517702103e-001 8.4465639954382048e-003
      -1.3703336718980619e-001 3.4003171987723185e-001
      3.9785198122516657e-002 -9.6590205719604727e-001
      -1.2777024273949120e-001 3.6729216745782906e-001
      -1.7405207739622339e-001 -9.0399703933837200e-002
      6.6364509991308973e-001 -4.4425545342804636e-002
      -2.9423904246173152e-002 1.8535256879391937e-001
      1.1806147313317550e-001 4.6938299449981145e-002
      -1.9853332917412433e-001 1.3206376626459013e-001
      -5.8525386541888813e-001 -1.7082465697598932e-002
      -9.7193168249765483e-002 2.4816839874616475e-001
      5.3062435765500970e-001 4.5183474029558440e-001
      1.2634896110757972e-002 -5.2657051604012417e-001
      -3.8900792832015890e-001 -1.2499289103842013e+000
      3.6932018064747885e-001 3.3756016067391542e-001
      1.1792311974470169e+000 -4.1343263534048874e-001
      -2.0180255690974550e-002 -2.6894833304588422e-001
      -9.4550627959093825e-001 3.7457744605219950e-001
      9.5937488710480773e-002 -2.1549045874036715e-001
      2.8071059005278096e-002 5.1169993864359409e-001
      3.3774935726827504e-001 4.7055103063398412e-001
      -6.7660813378295687e-002 1.7883860503769608e-001
      -1.2408427981712296e-001 2.0571307386435820e-003
      -2.0507813138111186e-001 -5.6755414658764020e-002
      2.1328888340514313e-001 -1.3408293017204947e-001
      7.4544024016020768e-002 1.0075349954451129e-001
      1.4554530645162497e-001 -2.0778173103144885e-002
      4.0079471967769437e-001 -9.3393140932995847e-002
      1.2406952287229256e-001 -1.4886137787957459e-002
      4.4137909066460874e-002 6.1656666061957112e-002
      -1.8372174288604098e-001 -1.0078911915282437e-001
      -9.5057185288189161e-001 1.0711649161878148e-002
      1.0880160028490007e-001 -1.5948797883442778e-001
      -4.4810059881645292e-001 1.5513630016186594e-001
      -3.7549532869851382e-002 1.4715956352490753e-001
      4.3216414020938382e-001 -2.7060621431102549e-001
      2.2046869801612787e-002 3.7036142176864850e-001
      1.3369733874637590e-001 -3.0930685991846181e-002
      1.0181684097419949e-001 9.8578370311497798e-002
      2.2514948249660388e-001 -8.6766449622113617e-001
      1.0287384836374218e-001 -5.4292031674344800e-002
      4.0054848412011734e-001 4.4533574247743185e-001
      -2.5913446466174150e-001 4.3253132336228955e-001
      8.8966681972311945e-002 8.9426078338456838e-002
      2.4767587124454302e-001 -5.0263877483706587e-001
      2.4209776138802894e-001 -5.9491563626010165e-002
      5.5100466576228058e-001 3.0788145103272091e-001
      -1.5986144941184829e-001 -1.4481458948444942e-001
      1.4292842228575817e-001 -1.8556370729107247e-001
      -1.8134163907144618e-002 -2.5797185656284821e-001
      -8.9492481617277214e-002 -8.4965880747445266e-002
      -4.9370385300198655e-001 2.1357223963402641e-001
      -1.9664490993009384e-001 4.5248439512748914e-002
      -5.3475406809302550e-001 3.9635665139273851e-001
      -1.3954692425846038e-001 8.1103055893394269e-002
      6.4779312205911121e-001 -7.2793881279862982e-001
      -1.0254274008757006e-002 4.9519544000073584e-001
      -3.8583771225030361e-001 -2.3097212073300308e-001
      -1.0326945759096240e-001 3.9658943881571429e-002
      -2.6645985789717337e-002 -5.5693763708061528e-001
      5.8470741640065479e-002 -6.7832676844516337e-001
      -2.0562348582744644e-001 -5.3379324243413295e-001
      -5.5045809733560304e-002 2.4999061190018568e-001
      -1.0095311199368640e-001 1.9676482694233183e-002
      7.1539722586428184e-002 4.6255890006637219e-003
      2.5427942400791748e-001 9.8026555428195869e-002
      1.1270635505004928e-001 -3.0833651495668335e-001
      8.1976520319702928e-002 -3.7301944084404084e-002
      -1.2667966591256816e-001 -1.2826101876914861e-001
      1.2022673208589323e-001 -3.4700601605068471e-001
      -2.1715923528088926e-001 1.0395413901410469e-001
      5.9931457241077034e-002 -8.5276678538580919e-001
      3.2145727656048023e-001 1.3995873583415527e-001
      -3.6806101491288219e-002 -4.6216806359667885e-002
      -4.9011421510990409e-002 1.5414885593817779e-001
      -4.2526514864085971e-002 1.2975117989440929e-001
      -1.7689251500297390e-001 9.2739492102582893e-002
      1.6093498737962297e-001 3.8789234495917552e-001
      -1.7064005363558352e-001 5.5888005507009508e-002
      -2.1432995271683383e-001 -1.4734998652743607e-002
      -1.5411672549645972e-001 -4.6987207633053217e-002
      3.6341286412385160e-001 -1.0688059905800962e-001
      3.3015594643073937e-002 1.6479147622327814e-001
      2.3714526794291069e-001 -8.6606715398603054e-002
      -3.7924329463014106e-001 -1.1321317740255321e-001
      -1.1381725056425586e-001 3.2960059468814651e-001
      -2.2846724320444728e-001 -4.3648859831027793e-002
      6.4443945139343178e-002 4.4983914904754790e-001
      6.6551670929849802e-002 1.4107072265882035e-002
      2.0172823778378896e-001 -1.6226392234431641e-001
      8.9515213447796158e-002 -6.9822536167166820e-003
      1.4803423388513634e-001 -3.7861741075853750e-001
      3.3326734544957093e-001 1.4305482119056726e-001
      -2.4855713507501076e-001 6.7268759552371007e-002
      -2.3962368466561940e-002 -1.1946985577311869e-001
      1.0222690072413973e-001 6.8116598673363990e-002
      -1.7951513298674668e-001 -3.7068325627641413e-001
      -7.0085331810040036e-002 2.4265540574456748e-002
      -1.5873838562427164e-001 6.1253467815275565e-003
      -2.1060305656502185e-001 -1.4312911905390471e-001
      2.4756600659052382e-002 2.2236380611302958e-001
      1.0086925276754130e-001 2.0797821483789905e-001
      9.8853975022541188e-002 4.0951250553085978e-003
      -2.6340054831615622e-002 6.0705607978935414e-002
      -1.0199134172747255e-001 -5.6264808997456128e-003
      2.7306402075646868e-001 -5.7342811952735787e-002
      1.6982645747402259e-001 2.5660767439663984e-001
      7.1790127346329768e-001 -7.4968978937116112e-002
      1.4965596266590905e-001 -1.0449609649141263e-001
      -1.1638356234881325e-001 -5.2260349739454837e-001
      -1.6675350125745400e-001 7.0277764977147028e-001
      4.6556919786881965e-002 2.5344602554519291e-001
      -6.2245416557960259e-002 -9.5875448723779996e-002
      -2.5096620040102324e-001 4.9071991948181112e-002
      2.0848750983063574e-001 1.3514244666553904e-001
      -2.1047554426384202e-001 -7.1116768412928655e-001
      2.7555105356078358e-001 -3.0400879387658059e-001
      -3.3164484754115126e-001 -1.5922185566800481e-001
      1.1743967431926297e-001 -4.6973972033268016e-002
      3.1629955158189044e-001 -1.1826037755508607e-001
      -9.2028722944976160e-002 2.7699750751170810e-001
      2.3275163915957042e-001 8.0088957072256120e-002
      2.2241005028584235e-001 -3.5703514065228342e-002
      -6.7759151702640893e-002 -1.4602698735274318e-002
      -3.7704513926332844e-001 -9.9462726572221563e-002
      2.3612612765993571e-001 -1.0572380889008365e-001
      4.6135459214875585e-001 -1.1319452819803148e-001
      -5.9274151421608738e-002 -7.9791687618237142e-002
      3.8645074045211121e-002 3.6827790474484351e-001
      2.1942278111505929e-002 2.8556793974984584e-001
      -1.7718317654335927e-001 1.2455796599080163e-001
      -1.4393564626018103e-002 6.9247337129222608e-001
      8.9687617464881450e-002 5.0227502537890732e-002
      -3.1479344994689157e-001 2.7570138819685769e-001
      -1.5556295408670212e-001 7.0419887144129645e-001
      -1.5261871817924227e-001 -2.7282715051983564e-001
      3.6559134477002590e-002 -8.2551003774318468e-002
      1.1430795714377255e-001 2.6544583975675329e-002
      1.7318770396687339e-001 -2.1662892302845384e-002
      1.5701481067430204e-001 -3.9358525254277821e-001
      6.2288138156728082e-002 2.1978799454482920e-001
      6.8849790902612351e-001 -2.5453454274535559e-001
      1.0243563188208571e+000 -9.8805588098687824e-001
      -5.3956060449896004e-001 5.0047340217890290e-001
      3.7994593702545093e-001 2.3673372032086853e-001
      -2.0381588871766268e-001 6.8174988954047311e-001
      1.0994151305320919e-001 2.9139353287893532e-001
      -2.6066284152156416e-001 1.6016279988213097e-001
      -1.2709324666800819e+000 9.2807562797401072e-002
      -5.3115920012121329e-002 1.6478311375070978e-001
      -1.2853125963557563e-001 -1.6875725311249085e-001
      3.8233750103926312e-001 1.3421481628156489e+000
      -2.7225160489406791e-001 -2.1663889741257311e-001
      7.9460793207937738e-002 -8.3600099161889241e-001
      -9.2898175268702018e-002 3.0939364889390007e-002
      -2.4675583527650891e-001 9.0712972649119275e-002
      -1.6884894830445080e-001 -9.9909709044535988e-001
      -1.7432055603038663e-001 2.0684588810654259e-001
      -6.9693291517402189e-001 -8.6971577596615515e-002
      -7.1905802120331319e-002 -4.0641815985282737e-001
      2.6688650837955824e-001 -1.6322850691295279e-001
      -5.1960818891228244e-001 -2.0373471352246181e-001
      1.0665174261194543e+000 -1.0436092624121567e+000
      2.8029563029217622e-002 5.7288921789761344e-003
      7.3675085012084929e-001 -2.9661191485364138e-002
      5.3685877075325794e-001 -6.0418634568596051e-002
      -5.4820979531141185e-002 1.7675558228649205e-001
      -3.1754955093114051e-001 7.3411629415174512e-002
      2.0896007210479803e-001 9.6664325771549320e-002
      2.9558646748259221e-001 -6.7835054048511451e-002
      2.7748203363081303e-001 4.4363614105416567e-002
      1.0336984820878914e+000 3.5574324343509955e-001
      -3.2378136303383730e-002 -4.1960169395127360e-002
      8.8715416934002278e-001 -1.0691529915909013e+000
      -1.7057009080073831e+000 3.0683148936185758e-002
      1.2433600764430837e+000 -1.0185442446916619e-001
      2.7784151863489141e-002 -1.5710015705636493e-001
      -2.7300227764589469e-001 -5.5010557801485804e-001
      -9.2190294246688176e-001 -2.7624861220621927e-001
      1.6664402928702575e-002 5.9700670172744674e-001
      -4.0309474178287535e-001 -3.1705389099296870e-002
      -2.0169893531289342e+000 -3.4115256941303712e-002
      -3.0272599779072057e-001 -6.5412171557634835e-001
      -1.0202273421083662e-001 -4.1830414700757268e-002
      1.7613331250534917e-001 -1.8639109138169003e-003
      -6.9152390420681692e-002 -4.1258346121776651e-001
      -1.0470731176864860e+000 -1.0154916902369371e+000
      1.8026881152630947e-001 2.1297485756313659e-002
      1.8199931176787898e-001 -2.5001581197558794e-002
      -3.7694871196102570e-001 2.8947874193466933e-001
      6.5075844016477746e-001 -4.4448708426562467e-001
      -9.0603226221302857e-001 2.1134430785545941e-001
      -2.8856605618273251e-001 1.6001581798889083e-001
      4.2958724929670983e-001 5.4157202557621986e-001
      3.0935634101517978e-001 1.4737618963888549e-001
      8.4395901422640596e-001 -1.9943570933551476e-002
      -5.8284970146358528e-002 1.8645882136326453e-002
      -2.1953309126502738e+000 -9.9135179869649467e-002
      -1.0022353079313544e+000 2.2999156618375866e-001
      -1.5678893768397736e-001 5.4186749431355419e-001
      -9.8014324203601932e-001 4.9899502393950923e-001
      1.9699506859651303e-001 -2.5741155854615932e-001
      9.6222592581069510e-001 -1.0326038605538301e+000
      -1.0541687423893657e-001 1.5356111410650761e-001
      -1.0897739760749465e+000 -9.9107419136243685e-002
      2.4591971731496837e-001 -3.3659659734044706e-001
      9.3498597352674129e-002 -2.3200108290638741e-001
      -2.2048870158655096e-001 -1.0336200447695701e-001
      -2.8828790226275464e-002 -2.5068065577034948e-001
      -4.1792380806844515e-001 -4.1255061402081024e-002
      6.3284787730000486e-002 4.3329613451039234e-001
      9.8308674645366789e-001 8.6140006240900369e-001
      -2.8884095356032552e-001 -4.7383657461310552e-001
      3.9083125971894742e-002 -1.3632248554417021e+000
      6.1960312257684863e-002 3.7278483487919456e-004
      9.7965111813721306e-002 -4.8100338799939302e-001
      -2.7311236784700085e-002 -2.5362733721828223e-001
      -2.6609951005579491e-001 2.5334621076413221e-002
      1.4050950307025589e-001 -2.1734418203320588e-001
      9.4627614785044056e-002 2.1077040569902999e-001
      9.1582003261550748e-002 -2.6638951899891505e-001
      2.0451522566645775e-001 -3.8580551336987609e-002
      -3.6828499449954161e-001 -3.7149749614413898e-002
      -4.5114705985240380e-002 4.0351283666557818e-002
      7.1558528727101028e-002 -2.5837264059243586e-001
      -1.3292304095000804e-001 5.1059784770319812e-002
      1.3077485793208346e-001 4.0245343796219746e-001
      -2.7253221441348485e-001 -1.7950976789539674e-001
      2.4546197466085518e-001 -5.0038762767792372e-002
      6.0399063236987131e-003 4.5219515431816883e-002
      -3.5882885645071289e-001 -4.2252322327967128e-002
      -9.2820511453772472e-002 1.9760309237451834e-001
      1.8233073348920564e-001 -7.0448144697871820e-002
      -3.7997791157122929e-001 5.9555493736739951e-001
      -2.3040411545434056e-001 1.3673051807619518e-002
      8.5981734799587678e-002 -1.0571021232078014e-001
      1.4050944916389468e-001 4.6761837626225911e-001
      -1.4230928896102680e-002 9.1472251502748916e-002
      7.9656892220385453e-002 -8.2600159574874911e-003
      7.3471717808399117e-002 -1.5102935107253512e-001
      -1.2974783542923826e-001 -4.6103866877047878e-001
      -2.0748963103837195e-001 -1.1165840489342821e-001
      8.7801942658198615e-002 -1.0732895772973645e-001
      -2.5462822968719695e-001 2.8343635973528059e-002
      6.6771954109392073e-002 -2.6753622773579178e-001
      5.8498696736346979e-002 -5.8942443094429572e-003
      2.7437076472311522e-001 5.2563091370520593e-002
      -4.2781189698242594e-001 -6.9764374032795493e-002
      3.0449301255207334e-001 -2.1172846535737602e-001
      1.0522552413640959e-001 -1.5930432499102259e-001
      -5.0951697148654929e-001 9.2851213756796669e-002
      -9.2685953036849480e-003 8.5431331407546940e-002
      8.3841501267250360e-002 -7.5704210945376701e-003
      -2.2953785558145645e-001 4.1452858704042347e-002
      -4.1557203403993115e-001 1.7901581759551793e-001
      1.2009948821064530e-001 -2.1602761593057174e-001
      -3.2513609277261199e-003 -1.3050979663810156e-001
      1.2445135102968516e-001 -8.1700122423238306e-002
      -1.7206129471997518e-002 -1.8162238747432680e-001
      -9.0468144097580416e-002 -3.0620957869221229e-003
      1.4402263548219245e-002 -2.0167182267461425e-001
      -3.0203007392975711e-001 -2.6498208333805207e-001
      1.0733411985445680e-001 -7.9543395888337851e-002
      9.6102961622915553e-002 -9.6850893072946087e-002
      3.8909775761174525e-001 -3.1845242402117674e-001
      -3.7024556357443394e-001 4.0325241617886906e-002
      1.4339003081254065e-001 7.1096827351536135e-002
      -8.1269083192241032e-001 -6.9883934697494807e-002
      8.6539483172958703e-002 -1.2821104549010154e-001
      2.7520261025115139e-001 -2.8982216267816086e-001
      3.5898343246031625e-002 6.2833897430797639e-003
      1.2636848326745537e-001 7.3315247312402354e-002
      7.9276544114249892e-001 7.7555041033476391e-001
      -2.2482956110343641e-001 -1.6178132504333354e-002
      -1.9932183699911699e-001 3.6211087648631030e-001
      1.3364031308621155e-001 1.4118627287308011e-001
      -1.3126323590108710e-001 3.4949718916932698e-001
      2.7741828410360995e-002 3.7215165087474028e-001
      -1.7168288025243540e-002 3.0618518174193844e-002
      8.9194270239567566e-002 1.5487068546724889e-002
      -1.9795539852586901e-002 1.6563157110528973e-001
      6.4384204448655974e-002 1.8667521046842675e-001
      -2.4667751652984005e-001 2.8289661916143150e-001
      1.7325020011210487e-001 -7.6285991741892795e-002
      1.7021981765264921e-001 1.7055353007662988e-004
      -4.7151522548631447e-003 -1.0420361914621348e-001
      1.0095086139585258e-001 4.5216708998791141e-002
      -1.3488213866793217e-001 2.4973540755392118e-001
      7.0511957167114850e-002 -9.2395532084100465e-002
      1.3776990148374665e-001 -2.8910673375808515e-001
      7.5206244486231838e-002 4.0246695815104166e-001
      2.2093554775865146e-001 1.0027398679806367e-001
      3.0538453236390833e-001 -1.3076653827135495e-001
      1.4370498661835041e-002 -2.7186028708921534e-001
      2.3453214711756756e-001 -1.0001672069249440e-001
      -1.3456352491282159e-001 -3.2938973253334153e-001
      -4.9377728665653270e-001 8.9031838736389576e-002
      1.4894918850241728e-001 -2.0816924271227007e-002
      1.7882108522856871e-001 1.8502530305050352e-001
      2.6918504874791599e-001 1.0897430201304484e-001
      -1.8236598121216026e-002 5.9817694210782625e-002
      7.0324338119188223e-001 1.0209841375720101e-001
      3.6811066954919153e-001 7.9780281698564826e-002
      -1.4367687180036129e-001 -1.9354930809548654e-001
      -2.0186710614253436e-002 2.9680278707617944e-002
      8.3293521125804593e-001 3.5721258311129411e-001
      7.6217184570943439e-002 -3.0802760127017553e-001
      4.0458282906882576e-001 3.2320891595711870e-001
      2.8519183790900698e-001 5.3059366692544441e-001
      -3.6884825814081523e-001 3.1757718040986271e-001
      -2.2064919104821678e-002 2.5462707267594242e-001
      -3.5583666390225427e-001 -1.1422999995333380e-001
      -5.5252582264711259e-001 2.8031213264996946e-001
      -3.2180930726498885e-001 -5.1806613299637053e-002
      4.5162679972174775e-002 -1.4475682434229538e-002
      -2.8262870020965125e-001 6.6737583433741546e-002
      3.2856298714237919e-001 1.6523997063324475e-001
      3.4805821793215126e-002 -2.2161475057154437e-001
      1.4116255752778978e-001 -9.8662389088182451e-002
      -1.6514879731062207e-001 -9.4399805781612917e-002
      3.1893055332593789e-001 -8.9303037252998957e-002
      3.7493159645281815e-001 5.9073816997310116e-003
      -4.1813707081524709e-001 -2.8711692121087529e-001
      -7.1440027374957776e-002 3.6787155391705594e-002
      -3.6875740505552999e-002 -5.0833305664960471e-001
      7.1142747186966254e-002 -9.8107437556674941e-003
      1.2802006036546087e-001 -1.6395860239845556e-001
      2.9309670947135175e-001 3.2645427784369241e-001
      1.8663443451201922e-001 -3.1176381071871706e-002
      7.8727308849512151e-002 8.5310058929281507e-002
      3.6271107146536460e-002 3.0390874168728893e-001
      -2.5794852813317913e-002 -1.0363873793103497e-001
      -1.8299021466414701e-002 1.3151239087606909e-001
      -6.0911792442448931e-001 -2.3654647694337096e-002
      -3.1104049159363029e-001 2.6461236332464588e-001
      9.6397456151564087e-002 4.0185328835723552e-002
      5.1620850980355550e-002 -5.1618171328099073e-002
      1.2914016305244944e-001 4.6403170948514802e-002
      -1.1411781747352288e-001 -5.4803942753615775e-002
      5.5892462279439496e-002 6.8910627602834770e-002
      7.3572474832873339e-002 1.6809307778263952e-001
      6.6102384155297001e-003 -2.6074634982122269e-001
      9.5373314280564592e-001 -1.0579262239358840e+000
      -4.1184751393292342e-002 2.8118900094191224e-001
      1.1175563344227657e-001 4.4844144571575116e-002
      3.1889133743262510e-001 -1.0693414453969941e-001
      1.0481938729353661e-001 5.9070104782095623e-001
      -1.6413753753809510e+000 -7.1041469672387969e-001
      -5.4411503214368984e-001 5.5757798678136954e-002
      -3.6077113571569980e-001 2.2973950480566183e-001
      -1.1469907526452751e-001 -1.8404865452382596e-001
      9.8598145320207997e-001 2.6444697275446422e-001
      -3.0178552116184719e-002 -1.5092773980182089e-001
      5.8415223901246101e-002 -1.0590757860775324e+000
      3.5919488264288979e-001 8.5260513930948426e-002
      3.0683397715348915e-001 4.0385643695770738e-002
      -3.2948355586666433e-001 -2.9688425870123369e-001
      -1.1062832404778151e+000 1.6475760830080333e-001
      6.0636121303396337e-002 -2.1232511398424506e-001
      2.8964467648271534e-002 9.8953454458026935e-001
      1.9395733859041320e-001 -1.4651990603499565e-001
      -7.3129026472575009e-001 -2.0623678189945116e-001
      1.0872463349178008e+000 -1.0431886547882119e+000
      1.0795238740489089e-002 -1.8497570424703923e-002
      8.2926024410592480e-001 -9.1925861953180317e-003
      5.3645877006982834e-001 -2.3292141786761472e-001
      -5.2718887154732948e-002 9.9739713106081665e-002
      -1.3578165784478025e-001 8.7227712990266118e-002
      1.9429667038331536e-001 1.3313152350000762e-001
      2.7291569771711865e-001 -7.7383070018630859e-002
      2.7507043069065268e-001 6.4131550466224013e-002
      1.0423648967005510e+000 6.2350684724085570e-001
      7.0249379322204430e-002 -8.0785182658683771e-002
      8.7062069166733624e-001 -1.0480355975581555e+000
      -1.8144683692232881e+000 4.3399581665056412e-002
      1.2649725303611021e+000 -9.3285352022347737e-002
      2.7037656811987484e-002 -1.5019037582027733e-001
      -3.6519234618538693e-001 -5.4843420289209455e-001
      -9.0394311720095599e-001 -1.8614521781559940e-001
      3.1617122381283662e-002 5.1436390015609479e-001
      -5.5415172101442733e-001 -2.0886008410494050e-001
      -8.5985478702700280e-001 -4.6286529790188019e-001
      -1.6359845284843419e+000 -2.7773024283123321e-001
      -2.3397996152513414e-001 -9.7805483387822759e-002
      1.5703676937121790e-002 -8.4847378088876955e-003
      5.1922588214871368e-001 -4.5764996396022067e-001
      -1.2249854936035855e-001 -3.5970120260301863e-001
      9.2434706052510210e-002 2.5241871208107136e-001
      2.7636007688917025e-001 -3.1887711325511319e-003
      5.7689105644571048e-001 -2.6953966274428157e-002
      5.3623492906413484e-001 4.0675504274645619e-001
      5.5184798246844691e-001 2.1577900254367186e-001
      5.8666818698549623e-002 1.4144265457499716e-001
      3.6604777928717641e-001 -6.3102024588801475e-001
      1.5439061940680407e-001 3.2524076166365358e-002
      -7.7360993221247132e-001 -3.9971364427791667e-003
      -2.0578124750582821e-002 -3.3924095003076020e-002
      -1.4989050221205820e+000 1.3105570958403420e-001
      1.9284228090615758e-002 -4.1505099034014192e-001
      -1.5313994344155898e-001 6.4274531465708429e-001
      -9.8039999690333202e-001 3.8116382165289181e-001
      -1.4779852502758670e-001 -2.9484257917713780e-001
      9.6090022137367970e-001 -1.0441747186450236e+000
      -2.9759118828597203e-001 1.6312027595513454e-001
      -3.0732033810861163e+000 -1.0079236606263672e-001
      6.4671698987264228e-002 -4.3741537390125190e-001
      1.9034851230642574e-001 7.7337058619073307e-002
      -9.1901548461817126e-002 -4.2127501143956186e-001
      -2.4500892441565350e-001 7.2577190452087118e-002
      -4.3515058162488790e-001 1.0866415937439870e-001
      -1.3304570876407579e-001 4.2531480908248270e-001
      1.0401793319130868e+000 -3.3998636002637866e-001
      -2.4076331514370222e-001 -7.7319762062111042e-001
      -6.2750012364408178e-002 -1.0712288286245244e+000
      3.2309019641654784e-003 1.1699286204036249e-001
      4.1459891096781915e-001 6.8148913228031696e-003
      -8.5176020982230399e-002 -5.1429673380110036e-002
      3.7543149503772050e-002 1.6733601768503600e-001
      -1.6527688016626370e+000 -1.1134545032191873e-001
      8.9361729413292651e-002 3.8567513075509996e-001
      2.2682177815363577e-001 -2.3536264685143415e-001
      -3.6194387280904751e-003 1.6273623738367329e-001
      1.3475420053640333e-001 -1.9435021996475249e-001
      -3.5424776544295383e-001 1.1622728146916635e-001
      -8.6625728234969543e-002 -1.2214783680413240e-002
      -5.3140301492590380e-001 -2.6692330408912646e-001
      -2.3845681633685348e-002 3.9423598715596427e-002
      -9.5386133182578881e-002 1.9074759964865690e-001
      -1.2393473444341971e-001 -1.2718625685351079e-001
      -2.0843951907475941e-001 -9.7989446403247499e-002
      -2.9635367690417541e-001 -9.3442765333703090e-002
      3.9521172539791496e-002 8.3832707487518851e-002
      -1.0387200556402609e-001 2.9755787836518932e-001
      -7.8086267734229262e-002 -7.4874883466605191e-004
      -4.5686051100994947e-002 -1.8517056114558553e-001
      3.8849367181470050e-002 5.2942112374224959e-001
      3.7050161196681142e-002 -3.2231160217631942e-002
      1.8090839493365160e-001 1.5104821022897361e-001
      -1.4721645174378492e-001 1.9922899105946704e-002
      -1.8010027242650101e-001 -3.2965697255399995e-001
      -2.5365297414370339e-002 -1.0805280071888256e-002
      2.7993260361681625e-002 -9.7285264091891172e-002
      1.2934441506117067e-001 3.1942863840526262e-002
      -2.5708664622860555e-001 2.1241996688234530e-001
      -4.2600963358360544e-001 -2.3206061046023438e-001
      -4.1169428613290031e-002 -8.5757846110502106e-002
      3.0217823950438494e-001 7.9058255712882414e-002
      -4.7834567341569750e-001 3.6348704078023431e-002
      1.4047910669740482e-001 -1.2964926493991116e-001
      1.0587726272124511e-001 -2.0424346284114642e-001
      -2.7845770222624211e-001 -3.5187390517297149e-002
      8.9143613130062735e-002 3.7995107341297996e-001
      -3.3687339950898718e-002 -8.1060861492681741e-002
      -5.0461674634020313e-002 -1.8113892549722585e-001
      -4.3110330092710331e-001 1.9645384404774660e-001
      1.0612406767990681e-001 1.3021640379572694e-001
      -8.0129935253968651e-002 2.2529051837765843e-001
      1.4931558667989939e-001 1.5536778232509071e-001
      -3.0527739199640434e-002 -5.4142214675139397e-002
      -9.3455527115804723e-002 1.3409237229821716e-001
      -9.4763188068810403e-004 2.3575426461850037e-002
      3.3575761055915580e-002 2.4132023062191801e-001
      -1.3655615284535434e+000 1.7479745467982497e-001
      -7.8113729048500627e-002 -1.3608460114605503e-001
      -2.3617000767272076e-001 1.3390550079410535e-001
      -1.3177252332187236e-001 2.3823664143967460e-001
      -8.0300448737818650e-002 7.5288326476616015e-003
      1.8972329979127825e-001 -3.1493952708963135e-001
      -1.9367746063866964e-001 -6.5901199086479367e-001
      -8.6971471124489066e-002 -5.8910152296387097e-001
      5.4128990956479675e-002 -4.5263425544662600e-001
      -5.4765950510226147e-002 -2.1298444519797288e-001
      7.1703024061272200e-002 -9.9409380298723579e-002
      -7.9216595200461357e-002 -5.1557562492109410e-002
      -1.1624078286868506e-001 2.1335887123040104e-001
      -6.4740971010702225e-002 2.3017384750571049e-001
      -1.9103462986172340e-001 1.0698973125007488e-001
      1.3701009786159851e-001 3.6533155038796966e-001
      2.7009433374947697e-002 -1.2628965117296401e-002
      2.1335295288487080e-001 -1.5722600202050702e-001
      -2.3886154230879952e-001 8.7101536672955310e-002
      -9.8031893551893470e-002 8.0100742192162080e-002
      -2.8851343701711551e-001 4.5801247019145663e-001
      2.5351354564858691e-001 -4.8873011387623083e-001
      1.8904638259417092e-001 2.3431207507732849e-001
      -9.4045303476710085e-002 7.6230351670311958e-001
      -2.3181957830392610e-001 -3.2828749725983770e-002
      5.8997224752185629e-001 9.2374867661431784e-002
      -1.3170915223832846e-001 3.8793555250318557e-001
      -1.1695158590598904e-001 2.3818849456985347e-001
      4.3158144076525534e-001 2.5280296500026328e-001
      -1.2611265252908072e-001 -8.3578325742604639e-002
      5.9305523703614520e-002 -3.0516361117033028e-002
      4.4911212841396358e-001 -1.4586461454403582e-001
      2.2139248945846263e-001 -1.0229980377068289e-001
      -1.0578986977982137e-001 1.6122171641089891e-001
      1.2320019532739279e-001 -3.5336088120037679e-001
      -6.9455190497083624e-002 -1.3684902636228269e-001
      -5.7037668263168764e-002 1.4525495593130511e-001
      9.7222622671491274e-002 -1.1925431681511466e-001
      -1.0431334273269206e-001 2.7317187492093925e-001
      3.5357575598509977e-001 -6.1625340575169862e-001
      2.1968871795069267e-001 1.8010010584996103e-001
      9.1872808871439449e-002 -7.4289493179906227e-002
      7.0149771496132537e-002 -1.1772056696179138e-002
      2.4469877913371510e-001 -1.0485732641005805e-002
      1.1918398765630697e-001 -3.6194818036343990e-001
      1.5027834813800306e-001 -1.7002747362994071e-002
      3.8760400042945320e-001 2.4059883698552009e-001
      -5.0849867324450071e-001 5.2404427940959908e-001
      6.7986279267339675e-002 -5.2455005532186016e-002
      -1.2394674507746724e-002 -5.8827928167234655e-001
      -2.2210094234130746e-002 2.4385866266360653e-001
      -3.5835920238334769e-002 1.4945234008140488e-002
      -1.9543973067533260e-001 -1.2484831724729628e-001
      -5.1625911053921891e-001 -1.4123020806764042e-001
      2.0190332726378041e-001 1.5864460847204287e-001
      -1.7991347691460474e-001 -2.0231887086564629e-001
      -8.2762035646165674e-002 3.4400354667871047e-001
      -3.0122646647328338e-001 1.4407107093786581e-001
      7.7096283293971690e-001 -2.8609991820396036e-001
      1.2938559522700410e+000 1.0687589801079916e-001
      3.7493196286004854e-001 -3.7313768857036189e-001
      -3.0772194241104406e-001 7.6972908667204909e-002
      -1.0122929189836735e-001 2.4920174821234527e-003
      -6.3895104614394058e-002 -1.4344415497518634e-001
      1.0400327222205002e-001 -1.2831754492380412e-002
      -5.7270305781737002e-002 -9.1807407813292066e-002
      -1.0304665694786078e-001 3.0981095129144770e-001
      -1.3448145658769584e-001 2.3496982539426733e-001
      -2.3959490856517546e-001 -6.9066852088259301e-002
      3.3583427399002408e-001 -1.0490417671178975e-001
      -9.4079781084090222e-002 -1.7151235312395677e-001
      -2.8135789904659281e-001 -5.3551317702930770e-002
      -5.0182393514361476e-002 -1.8575830283886585e-001
      3.1610500802884173e-001 6.2667877867344401e-002
      -5.4322347850456504e-002 -2.5603458383083179e-002
      -5.1273642613555812e-002 2.1712307780246427e-002
      7.5630921585899194e-002 8.8704353676449993e-002
      -3.4072347238207201e-001 3.0342823642839728e-001
      2.1297567780291138e-001 -3.0232027622033042e-001
      -1.2919904839696716e-001 -3.1296062864326685e-001
      9.3915073647350444e-001 -1.0687947922444871e+000
      2.9840822749941515e-002 1.6829050161127651e-001
      -2.5949813934162491e-001 -9.1299370128551313e-002
      9.7197916157460884e-001 -2.9114950476482621e-001
      1.1592372103204539e-001 -1.6012918314127478e-001
      -1.0122641928275346e-001 -4.3033442322117194e-001
      -2.6116024800194015e-001 -1.7272664263881014e-002
      -5.8175606615596487e-001 -9.2496279017452929e-002
      -1.2452726601287070e-001 1.0932635316247188e+000
      1.0392815225023646e+000 1.3368013697080200e-001
      -3.3015966992163859e-001 -3.9995066364988940e-001
      4.1928237233199023e-002 -1.0711839308072011e+000
      -4.4767138276158948e-002 -1.8357382528850552e-001
      -5.9795941305823141e-001 -3.4672351817004610e-001
      2.8853643418826513e-001 -2.0052309103089669e-001
      -4.5651293702495842e-002 1.5477945331726412e-001
      -4.3531190305072476e-001 1.3456627332997165e-001
      1.0640938266868852e-001 1.8780580457642655e+000
      3.9596241460645909e-001 1.1690809398943576e+000
      -5.7019152876789425e-001 -2.5947935767174812e-001
      1.1445718953715569e+000 -1.0304639911566100e+000
      1.6514208434490651e-002 -2.1264910440748561e-002
      4.2377176947676098e-001 -1.1431898865361972e-002
      5.5734767345687630e-001 -1.1785898295225941e-003
      -6.4325402461671857e-002 1.1621414077139298e-001
      -1.9758211689907861e-002 1.3399997495471561e-001
      1.7777964510654798e-001 1.2051811921075492e-001
      2.6684815700260311e-001 -5.3932011062814110e-002
      5.2201455553286225e-001 4.9789050516202152e-002
      1.0451348627591843e+000 4.2533787316499622e-001
      6.2735285225734988e-002 -6.1914384569068628e-002
      8.9494278435430175e-001 -1.0516691719676601e+000
      2.4802925946836493e-001 3.6876428609164069e-002
      1.2540842581274585e+000 -8.8483508880347589e-002
      1.1160489995729160e-002 -1.4125045898057770e-001
      -7.4354632941452303e-001 -5.4617504216046797e-001
      -9.0861023144757247e-001 -2.1910897456173187e-001
      2.2826133796286514e-002 5.0610282913325666e-001
      -4.1493577480944571e-001 -2.3077706002901835e-002
      -1.3824633292772330e+000 -1.5439861740177938e-001
      -1.1668599443629670e+000 4.6177163139311217e-001
      1.1941311395373683e-001 -1.2874826024083780e-001
      1.0079821295612950e+000 -4.0267293420844466e-002
      6.6389201261561748e-001 -3.2974482074088146e-001
      -7.9552087353547754e-002 -1.9184252049589387e-001
      2.1296043446005139e-001 6.0650069776238186e-002
      2.4879212928383268e-001 -3.9150079626519754e-003
      5.3569072311568289e-001 1.4766514287485036e-001
      3.6508629316970166e-002 8.0617402328930554e-001
      5.5306521809397624e-001 1.9476298122499949e-001
      1.8389296827033313e-001 1.0845511066868377e-001
      3.3526659166841871e-001 -7.7116445693315205e-001
      6.2770224120267970e-001 -2.7910295857992640e-001
      -2.5608582594442508e-001 -4.4656188471934893e-002
      -8.9188143234054981e-002 -1.0130228419412936e-001
      -1.8100491627423541e+000 -1.4664999001699272e-001
      -3.1844917886098939e-001 -4.4077281674703506e-001
      -1.4539840699956499e-001 7.0013385772215697e-001
      -9.1381360058795069e-001 -5.0591791636357530e-003
      -4.1061301940855921e-001 -3.1187592027874350e-001
      9.7248739292341058e-001 -1.0494603868064574e+000
      -2.9000255727497587e-001 1.7531499692943200e-001
      -4.7417669134034851e-001 -1.0170162574095411e-001
      2.7067776185982173e-001 -6.1012402347728334e-001
      1.8043454484303620e-001 -3.8411397457832619e-002
      -9.8576216452138529e-002 -5.0643351959176985e-001
      -5.1443050625740427e-001 2.9130541854535091e-002
      -3.4253393966448331e-001 -3.0180723529274850e-001
      -2.6222517765521697e-001 4.2477411895328354e-001
      1.0071837955322669e+000 1.3300190518343416e-001
      1.6815699722107388e-001 -4.2308186244035029e-001
      -5.2639896493376714e-001 -1.5108541817869878e+000
      -2.0759689624441421e-001 3.1751874030318039e-002
      -1.0611116053136935e+000 -1.9881991024826109e-001
      -7.8308250481704783e-002 -8.0801534276950630e-003
      3.9290884114083263e-001 1.6880547251165023e-001
      -1.7645394047944825e+000 6.4083758770578883e-002
      9.0307780752738917e-002 8.9412177048571850e-001
      1.9679274832846247e-001 6.5528755161827018e-002
      -2.4014814332653892e-001 8.1623658725908876e-002
      1.4312349190160825e-001 -4.7492431495108817e-001
      -6.1094685128600605e-002 3.5381340994642602e-002
      -1.5339355649872990e-001 -1.0783610128559013e-002
      -5.9925386450689866e-001 -2.0719322625493580e-001
      7.1511926990951200e-002 5.0117256279576208e-002
      3.7392921942458385e-001 1.8688058638894722e-001
      7.0433441849547571e-002 -8.6363842101419508e-002
      7.9040557801523401e-002 -8.1913577968999451e-002
      3.0841184209396612e-002 -1.8204313840028455e-001
      8.2002694755998320e-002 -7.4335725735179214e-002
      -3.6186858508649618e-002 1.3380307245162884e-001
      -3.2171345534097334e-001 -3.9376397896805339e-002
      -2.9197132318793475e-002 -5.7620497548274884e-002
      4.5022931705037940e-002 9.3889885624013056e-002
      -2.3849486467182740e-001 2.8175823141157114e-001
      3.6990473391920692e-001 1.8317334001252519e-001
      -6.1382336401013184e-002 2.4112687575451758e-001
      -1.2455177410871866e-003 -2.0736593672817538e-001
      5.6627575982583070e-002 1.9223813007558371e-001
      -4.6163609794970539e-001 2.6326131976556583e-001
      1.5372312387456805e-001 -2.8735919800199561e-001
      -2.4948852886587855e-001 2.2074941020923786e-001
      -1.5433000983380613e-001 4.5745348937989538e-002
      -2.8008248722915595e-002 1.7099293522848108e-001
      6.4585619014225687e-002 7.2820758691660298e-002
      6.7577977656496729e-002 2.8465679570395801e-002
      -3.5176386925677497e-002 -1.1815679561473481e-001
      2.5643285065821256e-002 -2.0165033308357821e-001
      7.4656706841529558e-002 -4.6109147679756657e-001
      9.3663946966302092e-002 1.4309691315079778e-002
      -1.3312215055125376e-001 8.5706251930971949e-002
      7.0594352593590259e-002 -2.1307426190819448e-001
      -1.2345746835578125e-001 4.1363206701097943e-001
      -3.3214873719380193e-002 1.2093299048257242e-001
      2.8377248431297447e-001 1.4700707751178177e-001
      9.2732788886959211e-002 -6.7203966766645820e-002
      -3.6048300706362973e-002 5.0876873543007572e-002
      -2.2977959297244133e-001 2.7400323168920970e-001
      4.8884647217489530e-002 3.1552429170735907e-001
      -1.0659800441586947e-001 1.6247364830128039e-001
      -1.5872547107182822e-002 -2.5984532745912114e-001
      -1.1942737226113284e-001 2.5739025842589530e-001
      -1.0940018747804633e-001 6.2909321286026304e-002
      -3.2533328353304747e-001 1.2547990452086226e-002
      -2.4331731018530897e-001 5.9788107767540087e-002
      7.5463360152607961e-001 -5.2105647247877096e-001
      -6.4916665724327061e-001 -1.2388859197939987e-001
      5.0834939207169105e-001 -3.9823542300213993e-001
      -1.3073390743007665e-001 -5.9957438095706736e-002
      -1.7047189131295176e-001 1.0793290892861018e-002
      4.4034237740635911e-002 -2.4556941510566158e-002
      7.2773435349303500e-002 2.6209050585169411e-002
      8.5013261873941471e-003 2.0316551962230453e-001
      1.4187365465125917e-001 -2.0675421865504170e-001
      1.8959951942366043e-001 1.5520430552294096e-001
      6.9933388659911111e-001 1.8102615257291488e-001
      1.6183693522625126e-001 -1.5252690940907254e-001
      2.0783564925963949e-001 -2.1003185904499944e-002
      -3.8958329790041635e-001 3.2658485973422186e-001
      -1.6187232243430807e-001 -9.8883128349952831e-002
      1.3288902691986670e-001 4.0982760073770969e-001
      -6.7723169721786089e-002 -3.5152989609671165e-001
      2.6412887254378775e-001 1.0488280737081340e-001
      8.8435595448571724e-001 4.6687351683914952e-001
      4.6582091491755843e-002 -4.6037280275215274e-002
      2.8160822092289789e-001 -2.3385704442227476e-001
      -2.1469117954271713e-002 -2.6558060234155684e-001
      1.7268693679628896e-001 5.0874653896496103e-001
      -8.3083248730650948e-003 4.3420425181649364e-001
      -1.6185935763703269e-001 -7.2584998362382455e-002
      2.7465697134360317e-001 -2.5810881378606595e-002
      4.7415599413389975e-001 -7.7655481586091004e-003
      2.1334642641360665e-001 4.0188948955727694e-001
      -2.7472855890639983e-002 -1.8275307860876069e-001
      3.1838007385299827e-001 1.5011837162991334e-002
      2.1226356825290554e-001 3.3469332283371622e-002
      -3.6462557230257563e-002 -1.5772448390428678e-001
      2.1873689029053572e-001 -4.1044708822850710e-002
      -6.3993908184888191e-004 3.1039003729375281e-002
      -2.3811666966344687e+000 -2.9420026755511886e-001
      7.0302633469510323e-001 1.4023298374110005e+000
      5.9871490281044104e-001 6.9973116214503375e-002
      -1.7409401307011733e-002 -9.3270189497137168e-002
      -6.9369306506756656e-002 6.4397193420817833e-001
      -1.1902890135790585e-001 1.6940057956104471e-002
      -1.7428279349241516e-002 -3.9493643551708024e-001
      6.6492227277739990e-001 2.5409959387652348e-001
      -8.5785322718827184e-001 2.8192871029545374e-001
      9.1642929353631733e-002 5.8453208918263770e-002
      5.4247352937690618e-002 1.0528094321073744e-001
      2.5297684851117946e-001 -1.3310589007105181e-001
      5.3739847955258391e-001 1.1764627440495858e-001
      -8.7186039239896773e-001 -4.6434405441210719e-002
      -6.9048110836464727e-001 -1.9159606073792373e-001
      8.5283843386629599e-001 1.7043689943667431e-001
      -5.6671524242109272e-001 -1.9178397991054846e-001
      -9.7373339605499612e-002 5.9663848677962916e-001
      -3.4822716020074279e-001 2.4383581513080441e-002
      1.1521893287487317e-001 -2.0316105730980284e-002
      -9.0867894678076944e-001 6.9749531965233189e-002
      4.0600736877549104e-001 5.1356021554773323e-001
      -4.6262833013818234e-002 1.5498131638219467e-001
      -5.2424180046231478e-002 -3.4126710751656845e-002
      6.5125254148273054e-002 -3.1715737701639857e-001
      1.1833084927851591e-001 1.4936111982462952e-001
      -9.4456891427633666e-002 -1.0779226084759636e-001
      -1.1178110277934819e-001 6.0744618670036665e-001
      -1.5541337383251369e-001 2.9706046143604246e-002
      -1.9950920065979988e-001 6.8902693990302549e-002
      2.4520255298817534e-001 -6.3244189768865672e-002
      1.5199533642490745e-001 -5.1847238745514640e-002
      1.0159935909884009e-001 -3.3451224153721669e-002
      -8.0786017572994986e-002 -1.3012350029636827e-001
      -6.1144325259310217e-001 7.9107140060281786e-002
      -2.4949902636633081e-001 -2.2412706349810383e-002
      -1.6473385826555317e-002 2.5678472437544606e-002
      5.1041467465095365e-002 1.4214525057658536e-001
      -1.8006313750642755e-001 -3.7518273304021382e-001
      9.5653450456505473e-002 -2.0875715378898604e-001
      -1.6394196498386960e-002 -3.2699734932178082e-001
      9.6491089452436829e-001 -1.0684531139774216e+000
      -2.4942075281832188e-001 1.6103673394418469e-001
      -3.7764846051479395e-001 -1.1774536283007611e-001
      1.3796813793389846e+000 -6.2949716548514512e-001
      1.1758483263514287e-001 -2.3028605897483403e-001
      -1.2816805164274242e-001 -4.7563383341290821e-001
      -3.6329279137018683e-001 4.0702117102184215e-002
      -3.3420702275953401e-001 -8.0369744639734550e-002
      -1.1217504841577566e-001 4.5303646355930677e-001
      1.0346462659799862e+000 1.2908806722626687e-001
      -8.3747652942863626e-002 -9.4834158262991075e-003
      1.0125395970515048e+000 -1.0498433485953971e+000
      -3.4217358113211561e-002 -3.8927744507589390e-001
      -1.4028766083419026e+000 3.2418447613347688e-002
      -8.2572260054291191e-002 -1.4004179661404809e-001
      -3.9146838022386615e-001 1.8363321210388522e-001
      -9.0435022531815745e-001 -1.6082587519606231e-001
      1.7827739031909190e-001 1.6997555251997565e+000
      4.2937672214346856e-001 -7.9605780696130626e-002
      -5.5633960252774739e-001 -2.4206777135430457e-001
      1.1444655546606264e+000 -1.0209094926318545e+000
      2.0091776731571986e-002 -1.5885055926391945e-004
      4.0293234044345189e-001 -9.4637108201442201e-003
      5.6851044683967111e-001 -4.2960609696609357e-002
      -7.1319030593355218e-002 1.7423065461041248e-001
      -8.0939133792694851e-002 8.9361813285048206e-002
      1.7700725857752053e-001 1.2730358675106984e-001
      2.2683978933999449e-001 -6.2931567593072252e-002
      5.2398847577228791e-001 4.3701960819284437e-002
      1.0393438366923027e+000 3.3928902405411310e-001
      6.1863421340999071e-002 2.4012302951482864e-001
      6.5471264078598446e-001 -1.0706494035824226e+000
      2.3731515914833076e-001 4.6307005731406198e-002
      1.4469181497748154e+000 -1.0481271614058167e-001
      2.1410450494700115e-002 -2.2015287274521511e-001
      -4.4799739383304443e-001 -5.3013032123361126e-001
      -8.9710067501477275e-001 -2.5406517179213667e-001
      8.5273438191940956e-002 4.8487281388870146e-001
      -4.0512300069014812e-001 -2.1617270455284221e-001
